[[[0.0004952670984000126, 0.0007983143755976651, 0.0011332206557858008, 0.0012348627110880196, 0.0006068699602802934, 0.00045861990579416917, 0.0009892885724805984, 0.00032137511661024765, 0.0012600025766980932, 0.0008610225683123574], [0.0002426966237105084, 4.075049872535591e-05, 0.0009518606064175066, 0.0006850235282978735, 0.0001292386569303527, 0.0011536940254606278, 0.0011036673574845214, 9.028672202214523e-05, 0.00021868580983632575, 0.00019698292064894145], [0.00046750357341254707, 3.552590527264607e-05, 0.0008006637381103951, 0.00027052786510706927, 0.00035352884313760285, 0.0008058798766061694, 0.00043979618903197947, 0.001262409245225841, 0.00022925273396813464, 4.85536354279286e-05], [0.00017797107234364919, 0.001235715250741482, 0.0011658741916710106, 9.543260478577747e-05, 0.00030686691755683085, 0.0006306241235090875, 0.00068254126622181, 0.0009688634983664845, 0.0001655131753595423, 0.0004412492462564462], [0.0007790496234105005, 0.0008306336038025633, 0.0005826412423513349, 2.9928038199563052e-05, 0.0008749358306827548, 0.0012673846947436767, 0.00025691631363274536, 0.001199583691080322, 0.0010459799486842167, 0.0003705290653374277], [0.0004418907229982701, 0.0002511127695659756, 0.0005695239668123976, 0.00043165982023476957, 0.0007881419375860164, 0.0007000134537319808, 9.741354249225858e-05, 5.036839386799593e-05, 0.0010551463976874922, 0.0012431130490871075], [0.0012533945297723368, 0.00019571598485048015, 0.00022933578294865716, 0.0010032463107026775, 0.0012203220174356725, 0.0002116403804128723, 0.0008523421968494914, 0.0008635513369153708, 0.0004779490126529307, 0.0010995969358371632], [0.0011855949125906592, 0.00044348790981401173, 0.00010456824584360259, 4.7458954883867064e-05, 0.00028510744749545323, 0.0008004422724557375, 0.0008315112993164914, 0.0008593295380756378, 0.0003175327244117439, 0.0011631432008758053], [0.0004488811218535992, 0.0010234963250292106, 0.0003760508287585729, 0.0002154129998024616, 0.00013985671390370966, 0.0009905906032875898, 0.0007646940760980361, 0.000610989486251771, 0.0009909453904840915, 0.0012575207025923233], [0.00031415848907834513, 0.0009302162501723475, 0.0011480806842506285, 0.00015994861945591715, 0.0005038792953086906, 0.0008976355021920025, 0.00033539925916584054, 0.00027218730269248524, 0.0008739177573944977, 0.0004898026616591229], [0.0002780164823161262, 0.000621306896506449, 0.0002518445354273727, 0.0011059881216129858, 0.00023356714273428328, 0.00023280455947367797, 0.0009814800700045452, 9.750150484953743e-05, 0.0008052453859609545, 0.001024841489173077], [0.00011917995063222926, 0.00024233772729423083, 0.00010724898854197302, 0.00048144788147334714, 0.0008579907240178173, 0.00035378848645059504, 0.001062260158362347, 0.0007440895609604082, 0.0012256921758643374, 0.0009826472662811734], [0.0004936012459147712, 0.0006106183785942792, 4.732195710982754e-05, 0.0011930709240589603, 0.0005333451850794814, 0.0008449857554613736, 0.0012970570084022968, 0.0003717013611536422, 0.0006233808180406007, 0.0011307658797357232], [0.0005213480774863463, 0.0011225296409185, 0.0010415299309270052, 0.00023609130100762558, 0.0011643856482191608, 0.0009971799661539012, 0.00034984090430526145, 0.0004578253081804805, 0.0012221692646286388, 0.00028358370031284034], [0.0002839902378814403, 0.001065582234911188, 0.0005268128254372497, 0.0006557295727038038, 0.0004997084783209273, 0.00037746753371824813, -1.703824956382736e-05, 0.0010016255684052076, 0.000517343248212283, 0.0007673186760964323], [0.00018803719797917705, 0.0006902121458201609, 0.00045035211414798534, 0.00012706691412473224, 0.00046244778806576277, 0.0005446326054812755, 0.0005489561024074691, 0.00019426300587295638, 0.00011189149601314632, 0.0003865179395536826], [0.0010746293834412205, 0.0006022444370242501, 0.00045590330630833125, 0.0003766431509957987, 0.0007346238286506537, 0.0001425871852762426, 0.0008689066180632307, 0.0006621020354411404, 0.0005892464796980924, 0.0003252718553705595], [0.0005683002494247151, 0.0004197353698610727, 0.0011975218300410257, 0.0005491458825683291, 0.0010207175639190872, 0.00125777671208837, 0.0007567327462133625, 0.0005966209360201779, 0.0005688031144107815, 0.00027796832546523074], [0.0001079023766726742, 0.00043653902143407186, 0.00036161283207236276, 0.0005552226132818419, 0.0004039671403169659, 6.474551932216816e-05, 0.0012276091683762088, 0.0009369980053371154, 0.0008574126870400645, 0.0005824353975613643], [0.00031414916805903967, 0.0009385938667870567, 0.0012238398212512142, 0.00013207583196259056, 0.0002954938849368497, 0.0011960741348759887, 0.0008780582310246462, 0.0008160418037303087, 0.00046391794398869846, 0.0012161047280386222], [0.0003697739818037849, 0.00038109906824391766, 0.0011278173796190436, 0.001185416912092859, 0.00012026390130173532, 0.0011894112111553686, 0.0011014203267593345, 7.353602896900381e-05, 0.0002998326974863705, 0.0010578475566326278], [0.0005209858670250307, 0.0009095022684209449, 0.00116501185034835, 0.0008617707172151821, 0.00046529644567599364, 6.604232677369766e-06, 0.0005714570136548951, 5.759468820923926e-05, 0.0006764031191562845, 0.0003200846836317481], [0.0002581682034064346, 0.0011975279661886728, 7.974797161322699e-05, 0.0011272878578218678, 0.00042610402686224725, 0.00012432916293553053, 0.0005455530749718702, 0.001177166461848432, 0.0005606912564641742, 0.00028179460005438333], [0.00045494836159690823, 0.000734880007278431, 0.0007194200637374932, 0.0010704687173720496, 0.00017690764608358043, 0.0008259325161798162, 0.00045261455663186755, 0.0002495316144767002, 3.531468889468492e-05, 0.001201781992895017], [0.0008454952266532976, 0.0003918882126104316, 0.0003228411738878045, 0.000553662182883318, 0.0009784552022794742, 0.00039368984268714887, 0.0003193586133051477, 9.128193334999906e-05, 0.00031505383509231185, 0.0008739347188319106], [0.0005080300084775497, 0.0003179629517115603, 0.0007455514382476369, 0.0004623894817412568, 0.001124892835858823, 0.0004972552381946162, 0.0012685805673173574, 0.000997089552547018, 0.0011794011035174323, 0.0006680621594330979], [0.0006627747256945781, 0.00018051775347219088, 0.0008269108711300107, 0.0007982354009507664, 0.0007900402940365229, 1.2586671878070982e-05, 0.0012615061468566828, 0.00039299887987200824, 0.0003460977723594502, 0.00018817215867322892], [0.0008953724974811596, 0.00040696025392150214, 0.0011383193409807972, 0.00026667099944248525, 0.00011900754724847461, 0.0008162489572006885, 5.77667451591718e-06, 0.00041640309107043817, 0.0007231400851708214, 0.00043224095876479994], [0.0011196689435518264, 0.0010793923188933566, 0.0004224766705114131, 0.0005871302930620845, 0.00040816266076562787, 0.0004710662029069476, 0.00046025916802251054, 0.0009939781464620887, 0.001004058629493842, 0.0005128068298646201], [0.0003432657627852124, 0.0012208535296587336, 0.0008465827881904895, 0.00011335089167428175, 0.0007286369558297999, 0.0006273547231054029, 8.040878135726905e-05, 0.00010302640240343281, 0.0007985537025074458, 0.0012580139293938309], [0.00044730346430177083, 0.0009976163065821256, 0.0011425648699990836, 0.0003637686354159936, 0.00012361872238524438, 0.0010169405021544175, 0.0005837857820716025, 3.0164243689695872e-05, 0.0009600983147261584, 0.0008911003828225018], [0.0001948629617873857, 0.001102736515689559, 0.0002017592386412406, 0.00047464779216523794, 6.259822833084277e-05, 0.0005657413339735689, 0.0005171424443095931, 0.00022514178375647283, 0.0012202215287677163, 0.0009115624306864859], [0.000969283336632384, 0.00019764241550719464, 6.2683394684537e-05, 0.0010073567366566027, 0.0005741798643680398, 0.0008115771121158845, 0.0008990206971594884, 0.000863442439907958, 0.00045315691961787656, 0.00044725468230698095], [0.00041771381292410315, 0.00015139792495518867, 0.0011763889520073824, 0.0005056845579710212, 0.0007101279898538768, 0.0002981041381259615, 4.296014223440198e-05, 0.000946922263118125, 0.00127166401254252, 0.00032725881335469846], [0.0009381711636786039, 0.0010016938938948758, 0.0005719098364844873, -6.549185327784595e-06, 0.00040942061283408607, 0.00036150359586097005, 0.000690644393335189, 0.000570512931943196, 0.001294377950503619, 0.0002115840406074435], [0.0003023457254692385, 0.0005789174744157358, 0.0007985344086819359, 0.0012135307918384251, 0.0008355754541555115, 0.0007514740454431651, 0.0005082338995950013, 3.610870901305507e-05, 0.0005289466972751594, 0.0005337994277981791], [-5.798728141916092e-05, 0.0007218032802733571, 1.6352329368469e-06, 1.2712915854102582e-05, -0.0005590476873007901, 0.00029794861001050644, 0.0010995453596774458, 0.0009309639016328266, 0.00033384927656584417, 0.00043228513976119646], [-0.000280023347264565, 0.0005415829132321738, 7.963195688344982e-05, 0.0009940169884500053, 0.00015819698312428133, 0.0005952144340264571, 0.0014788379722859835, 0.00027897266297404773, 0.0008893993983013391, 0.0004383891047716757], [0.0006112379615630046, 0.0010684475578150608, -0.0008700780895896276, 0.0013934604611451587, -0.0011426599319865865, 0.0011186426514777244, 0.0019750909474468125, 0.0006732811516920488, 0.0009973786651473878, 0.000811473308087768], [0.0006595752721760572, 0.0005302701441869974, -0.000781137685628003, 0.0007636108848145635, -0.0003231946811722794, 0.0011551420388276378, 0.003125354271739584, 1.819288274703861e-05, 8.883830656287793e-05, 0.0007456623109545403], [0.0006917383450329508, 0.00048496550641565845, -0.0015248751075345479, 0.0009019284931876503, -0.0009005835329627014, 0.0008341479276145837, 0.0032936230415105783, 0.0007828321635183845, 0.00012284473714374632, -1.159850584863135e-05], [0.001034508574178729, 0.0007050989469723755, -0.00164199000334226, 0.0007011547413908505, -0.0009712527453110196, 0.0001157139692050406, 0.00320147403359576, 0.0003829983970416236, 0.0009807827629920432, 0.0007962055070612727], [0.0004738415621815119, 0.0005196313182887881, -0.000504417640278922, 0.0009427548926472377, -0.0007829884866367762, -6.1584873894741685e-06, 0.0019252932922070665, 0.0011135558798923179, 0.0009704932599814163, 8.019029911721058e-06], [-0.0007366719537761462, -0.00019251270893934363, -0.0009677769949029257, 0.0015152970153325847, -0.00095184930918647, 0.0005257016023893847, 0.002641121943837206, 0.0006328445500802767, 6.923180290980894e-05, 0.00011707882847647734], [-0.00031268746683921206, -0.00022033485517381377, -0.0008461542872992667, 0.0016972835962044599, 7.65695534365457e-05, 0.00019346560572095617, 0.0025747171598242604, 0.0008906775368406371, 0.00020369452741642768, 5.264991196490789e-05], [-0.0005135252992019595, 0.000503741608656127, -0.00042875874879468886, 0.0015873326126455971, -0.0002539131672743854, 0.0006482198501150157, 0.0022093715809680735, 0.00032528899331731037, -0.00016344893135640108, 0.00045763068073929593], [0.0007807802337156459, 0.0005767610381705727, -0.0001464059701046332, 0.0010492740210057666, 0.00043578423289296304, 4.4448500796920174e-05, 0.0015592949171652699, 0.00022029149437353748, 0.0007532509505097925, 0.0006718255424405927], [-6.431033777094674e-06, 0.00026573399203717277, -0.0003884748934105692, 0.000947513490472345, 0.00023983425043552724, -3.5663900555829724e-05, 0.002149383510724839, 0.0001349184637067905, 0.0006414283952786712, 0.0007454010777085147], [5.922733203977141e-06, 0.0002242933869607525, -0.00033536557456232075, 0.0003091274131593505, 0.0006936679210898796, 8.601455299333241e-05, 0.0013242419311014094, 0.0004358968700435228, 0.0004038069846020577, 0.0006754033712328204], [0.00017450461564685828, -5.5606225523520244e-05, 0.0009056501558287092, 0.000939268786187223, -8.032113002325942e-05, 0.0008214952743197406, 0.000571340686071658, 0.0013759512190707893, 0.00014848269555899448, 0.0007731740887174063], [0.0003798133813772958, 0.0003731816887927092, 0.0007015968726211392, 0.0009581619756943603, 0.001071312469340965, 0.00017970258002069094, 0.0007781864730300128, 0.0004795785288252666, 0.0008957639699076864, 0.0007072964567103315], [0.0007543870428151011, 0.0003563847408186221, 0.000595712125237556, 0.0005364709836494223, 0.0006378216662102631, 0.0012374945414418085, 0.0002585143032050501, 7.09995664524088e-06, 0.0005736096463906906, 0.00015043089426364304], [0.0007366095847232239, 0.0004386294111623958, 0.00016767576492671867, 0.00028971059660291544, 0.0006855767856058324, 0.00013662296643215602, 0.0007467172174048086, 0.00020576900244065048, 0.00043719618186641797, 0.0012290103425975994], [0.0006766906469184266, 0.0010837196368858766, 0.000602385942882072, 0.0012035029870541979, 0.00034703878145362336, 0.0006157049977306866, 0.0004070013449780823, 0.0008715593319607729, 0.0011608191116208564, 0.0008985971198850617], [0.00032231963053349673, 0.0002995495004304237, 0.0007225631107679549, 0.0002991297934290903, 0.0009273415708674745, 0.0008493412115487539, 0.000977552261436344, 0.0004649133283225265, 0.0011338178045236362, 0.00034106377039492034], [9.059181025210222e-05, 2.368030958112546e-05, 0.0009316445451275654, 0.00014246445320785901, 0.0006211765995967361, 0.0009424299984564703, 0.0006425795291130375, 0.0008654321449424684, 0.0003156460962541031, 5.806726194114388e-05], [0.00048728572304252956, 0.0010318077409210164, 0.001083760790565792, 0.0009766300054059116, 0.0010096582309717722, 0.0002385776396283306, 0.0008535056805777913, 0.0008850168607692121, 0.00040691448203141617, 0.001224405868737873], [3.5116704061904725e-05, 0.000886789100538794, 0.0002556719557363377, 0.0006152208577379411, 0.0010759033488089657, 0.0006438397725353832, 0.0008141063035281352, 0.0007915295231627027, 0.0011089824470815431, 0.0005479833724879923], [0.0012276465564800278, 0.0006363823341371316, 8.859311807399451e-05, 0.0005294434723635411, 0.0006188759189272675, 0.0009616598918404518, 0.0005299406949489939, 0.00021077817205750952, 0.00021169310193992581, 0.0005559022577816253], [0.0004694477969991807, 0.00042600332596892486, 3.6114851459850516e-05, 2.1684642002599765e-05, 0.00014721509171058253, 0.0010139688389672514, 0.001076562805576823, 0.0012113776158035926, 0.0007818140174649629, 0.00019754726505446838], [9.354308447578155e-06, 1.0473120859945413e-05, 0.0005243404669041838, 0.0007401401069335701, 0.0011454817328940472, 0.0005747900229878077, 0.0008797961666359206, 0.0010054363476454705, 0.0003003693528122412, 0.00016677012204951834], [0.00025603669199900423, 2.1894674703140628e-05, 0.0005449845144400157, 0.0002797252384441403, 0.0011027707839100368, 0.0007342896421273545, 0.0006028664351380005, 0.000690956313905816, 0.0007234941053613618, 0.0005762986175640119], [-8.187135118251624e-07, 0.0011884693267944634, 0.00035402563794261686, 0.001075836128899728, -0.0004766372067950205, 0.0012868072521886498, 0.0017308240399051059, 0.00018235524102566453, 0.0012000534254304675, 0.0011801725249739514], [0.0006832987942025089, 0.00048579792579833453, -0.0004475036482948314, 0.0009223662786856935, -0.001042209624021389, 0.00036474618233109835, 0.002214618695918557, -6.182513720735171e-05, 0.0004136333881785074, 0.0003853637236675681], [-0.0007424528486356553, 0.0007908946609332481, -0.0016544839629043686, 0.00040648062195088817, -0.0015461419642014856, 0.0013393039260551371, 0.003450632011868489, 3.407350116661503e-05, 0.0012052903947590574, -7.038407261419844e-05], [-0.002233149301450037, 0.00015329158017044224, -0.0022208386937443932, 0.0005257300414488624, -0.003713626783364099, 0.0014339728841313776, 0.0066602362076194485, 0.00041694570141083507, 0.00048185347513994065, -0.00020250229902664296], [-0.0036187512707047892, -0.00012147570018678381, -0.005556833281503512, 0.0007184667506025266, -0.006379052380090445, 0.0018186344205896718, 0.009892652831796038, -4.347838180727507e-05, 0.001099759932888729, -0.00023303097926613109], [-0.0028105946819714563, -0.0005502211098916666, -0.007498467037245795, 0.0007757282681865752, -0.009740583590763352, 0.0014591676349627674, 0.013886197151680595, 0.0006364275946831725, 0.0010744170712197864, -0.0013802982874384362], [-0.003642864015516129, 0.0017484572748244446, -0.011733932628793069, 0.0017940228907893045, -0.012983390985596597, 0.00033781142909074333, 0.01945859780573371, 5.224303280583978e-05, 0.00027931863397665603, -0.002368295800047985], [-0.0038019624917350328, 0.0009084009418453326, -0.014092705620181103, 0.00259250102769507, -0.014416021624568693, -0.0013421837951015363, 0.024555644226891448, 0.0012945559876982487, 0.00041175637290970604, -0.0042579227744530546], [-0.006269068394638452, 0.0003568699121884364, -0.01791108516497765, 0.004783232448776374, -0.015003862704503837, -0.002574532050887348, 0.02895143298627988, 0.0030124768147498813, -0.00043729107347554273, -0.003931229684426896], [-0.008260192101664671, -1.2012405102060869e-05, -0.019345762952139377, 0.005161663076309032, -0.012830650523682059, -0.005110143576492467, 0.030701335586027747, 0.0036077495016373666, -0.001066060298183523, -0.005634565061590247], [-0.011870398307175326, -0.00011252627259968271, -0.020232717128700842, 0.00669837068018631, -0.011200793919072707, -0.005179189382827795, 0.031174359633463686, 0.00424714650477747, -0.0013781896174306907, -0.005883367398029902], [-0.011348638754424814, -0.0016357921428453242, -0.018794040701935903, 0.007591149870126322, -0.008566240519371479, -0.004257342771143186, 0.02959405396592977, 0.0036844440429618978, -0.0013026705845619775, -0.005161191864969433], [-0.010020670785950389, -0.0027365456448265528, -0.01611870618475049, 0.00738031640523215, -0.006313997824307737, -0.004109492070444893, 0.02801674156992041, 0.004408480826501302, -0.000709269623131645, -0.004622944969212887], [-0.007835275823115977, -0.0035151348225677045, -0.011522918349025902, 0.005094220401935775, -0.004303003129332957, -0.004448244772861052, 0.023224807827930214, 0.004096825691800641, 1.5110362350165195e-05, -0.002504577498800177], [-0.004737480416163934, -0.0037045848269627144, -0.0056610072647841, 0.003424437972022477, -0.002622435351264453, -0.0041247915421650265, 0.016333027084284826, 0.003086878390346236, 0.0007813349451199784, -3.740039982848163e-05], [-0.002486836373949425, -0.0022152252721466662, -0.002988329423621302, 0.0025066703246285683, -0.0014862733609928142, -0.003208858633400603, 0.011347891411437617, 0.002075094373356559, 0.0011041935667480947, 0.0007692563461670752], [-0.0016514080149395434, -0.00031026939243314534, -0.0012291510337242054, 0.001980362153357215, -0.0011160236012797112, -0.0010830629272258858, 0.005942364813543938, 0.0015975813522936303, 0.0011388086679189804, 0.0002249933858783956], [-0.00022029848498902278, -0.0002092292017740721, 8.958088114495207e-05, 0.001308314959661197, -0.0004591399453108088, -0.0001772274959651189, 0.0024609854706005366, 0.0013105769446978039, 0.0007923433181972403, 0.0008260395568116994], [-0.00010908863185270603, -8.459609226942481e-05, 0.0011361348347221345, 0.0008564295286224518, 0.00045292764720998715, 0.0008493361463607255, 0.0017147980687601144, 0.0007629453247268395, 0.0007296344021675929, 0.0009553855664108424], [0.0003185129977898369, 0.00025663831303186443, 0.0008033324877826252, 0.0013205451685082336, 0.00020668903714512478, 0.001024017466402276, 0.00013692495607166256, 0.0006050655356620487, 0.00047132319476072843, 0.001026051916827437], [0.0003757656567351764, 0.0005645091292826412, 0.0006840320440313431, 0.0005418472741700105, 0.0003023664444691884, 0.0010257722310705033, 0.0008325260675656769, 0.0001317629535021539, 0.0007743324745077177, 0.0011361956896808827], [0.0007474145041988453, 0.000829149896463262, 0.0006329066893152396, 0.0004781566015148165, 0.0007006144598994728, 0.0011753008837713927, 0.0009693904117159682, 0.0008345727011151876, 0.0012018217084071613, 0.0006800630406816139], [0.0006746611921331327, 7.530501235549064e-05, 0.0011370200383762174, 0.0010289362300003675, 0.0011834901470275533, 0.0011814568645341042, 0.0006441640174942681, 0.0004932765464462086, 0.0004588528215231486, 0.00032073805238282805], [0.0011358284142069003, 6.091302633415483e-05, 0.000803317408673272, 0.0012087478761616565, 0.0008972255042839483, 0.0005423699960808976, 0.001100092857937389, 0.0007778627185390483, 9.140975341142245e-05, 0.0005758935828289423], [0.0006145012513963481, 0.0004017608928729283, 0.0012778905464335274, 0.0011162873906577515, 0.001158831210108758, 0.00029004592652066683, 7.27073070762335e-05, 0.0012585811955764996, 0.0011851732277529403, 0.0012484794157690518], [0.0007363676322882778, 0.0011779438769786866, 0.0010892573682999803, 0.001237903711408195, 0.0003737917939523977, 0.0006614523416904358, 0.0009149529291807541, 0.0011977607792531403, 0.001258040540584376, 0.00022691987796159382], [0.0011020001094308113, 0.000610197088008221, 0.0008513525034572653, 0.0007660459623195226, 0.0007977844520514224, 8.181052056922281e-05, 0.0012114219871841145, 0.0005714758819523737, 0.0009132067209053089, 0.0012446314247391561], [3.669189927382952e-05, 0.000931926408985014, 0.0006079067306740695, 0.001404455235456831, 0.0006284869321700417, 0.00015004381961385559, 0.0006411966105795425, 0.0006756217866617848, 0.00016499565336139095, 6.545197633082808e-05], [-0.0006273421453763669, -0.00029760476997729636, 0.001181815951164496, 1.7884260179727887e-05, -6.652472988293794e-05, 0.0007238574209477691, 0.0010110953186943867, 0.0008244754501833775, 0.0005894761609461989, 0.0005084998547843063], [-0.0003688108924283932, -0.0007474036645308729, 0.001213294652922278, -0.0006755971127317695, -0.0018073846421326077, 0.0016706470269490313, 0.0007856055693009792, 0.0014400681579168056, 0.0006604200904988155, 0.0003533896191496046], [-0.0026499590192645356, -0.0018955749481125784, 0.0032919150519972427, -0.0029891037320753894, -0.002698453222020357, 0.003285372768425661, 0.0017199180792750667, 0.0009804749139003491, 0.0008316221421008942, 0.0008590358644838788], [-0.00478209741000347, -0.0035484462193042937, 0.004696046624650194, -0.0040940421785538505, -0.005560863613670142, 0.0031616167295547954, 0.004261744659034192, 0.0015932259205329944, 0.0011846424775112882, 6.242919590861731e-05], [-0.008074731018576703, -0.0064147984396691225, 0.005235730144665644, -0.0043239193787494076, -0.010555580945560286, 0.0035366203838512315, 0.005877421345771155, 0.002112703437866585, 0.0011171512981915878, -0.0012610442825633035], [-0.007600371191438795, -0.00543968248942991, 0.003707954762469572, -0.00322708542726358, -0.014944210944841076, 0.0015383195192429499, 0.007803966368749293, 0.0016607179469877037, 0.0013137231255336646, -0.001809329657300428], [-0.008882557553887558, -0.0052128945174718, 0.003106962956438219, -0.0008617846505167876, -0.018243208766401463, 0.0006494547137623773, 0.010524193498839046, 0.0024998158195176185, 0.0006632719589255039, -0.003460349554561943], [-0.008504525268521952, -0.004901099319674672, 0.001127165931778858, 0.00025123374697457856, -0.022465284672003313, -0.001780352858038207, 0.01785546076908911, 0.003687943516457777, 0.00013215862596602132, -0.004624846846042721], [-0.013157271232094566, -0.0058116509205514135, -0.00533155444243942, 0.0037019154599470263, -0.02437062465930404, -0.0049300373785916025, 0.02869808739909624, 0.00690890457017025, -0.0036632088197885975, -0.005127402642560247], [-0.01723555686214118, -0.00575598517149995, -0.009864157278972274, 0.006880971709964288, -0.022230270777287214, -0.008365161920319773, 0.0370264301135993, 0.0098387114729481, -0.008452895513448036, -0.007148300932523373], [-0.020314450500227788, -0.00908844567765945, -0.012282452908465635, 0.010718453471580576, -0.019361177718266002, -0.010320191371872144, 0.04454002166048724, 0.010628967154933453, -0.011579470385761717, -0.006984404073857679], [-0.025078888922705145, -0.010351650992597527, -0.016289980608030424, 0.012286897574858282, -0.017095301092170098, -0.012178357014214042, 0.05218175509663978, 0.011913060590046362, -0.013521922009108445, -0.006794794923092901], [-0.025076915928174924, -0.013336167654137348, -0.018245924809843127, 0.011917785863526646, -0.014764395671259742, -0.01363727856259948, 0.056935799325223364, 0.0107893580284238, -0.011437354058966488, -0.006641893153466062], [-0.020433193931092358, -0.013785354845471103, -0.015431507575698524, 0.011106862922025016, -0.011247498740716597, -0.013298787946579347, 0.051811731168198066, 0.010260162694918525, -0.006416196733919043, -0.003969005038900443], [-0.014243546431742063, -0.011042857312955139, -0.010212221626806734, 0.008742868115032104, -0.008100906804978412, -0.011056850900960516, 0.038811280502405496, 0.0076981138696359756, -0.0016197798269724359, -0.0015008975865951732], [-0.009263907423703947, -0.006824911686715493, -0.007219095026973121, 0.004623540949606933, -0.0055130446554104455, -0.007297148661249374, 0.025452007016323285, 0.004942165431830014, 0.0011983889707111442, 0.0007493138420110188], [-0.004153530304070082, -0.0029380298582324022, -0.004069570437165478, 0.002590143959106569, -0.0022792901112337113, -0.003661001636539484, 0.013844244090625088, 0.002907541792158367, 0.0016136616686433063, 0.0007036643144677644], [-0.0015407338045648595, -0.0009230260691967824, -0.0022094307734750545, 0.0017162495475103018, -0.0004261915675959357, -0.0007480423177027113, 0.006062732650978222, 0.0013474905473538478, 0.0017754835946009332, 0.0005518840976507189], [-0.00020574850107880102, -0.00031722682526532595, -0.0009192590742252288, 0.0006777353738670714, -0.00022079331778859467, -9.711280143801559e-05, 0.002997213458738876, 0.0004220453430652211, 0.00139018189700414, 0.00109811736658836], [0.00043087706016911066, 0.0007696248207744372, 0.0005760148783822395, 0.0007425097192923485, 0.0010975270166239833, 0.0008339316726206903, 0.0015514078093655974, 0.0005116943646737359, 0.00046111597103546824, 0.00021707548381092156], [0.0006337805182093293, 0.00021285831116741533, 0.0009649717801652502, 0.0011033804311217621, 0.0011364039288106593, 0.0011356619554717755, 0.0003084064133360409, 0.0009218596720448626, 0.0005642661955426444, 0.0010636559728839775], [0.0005534215602957219, 0.0004101274030776188, 0.000539052494188434, 0.0009862140027102006, 0.0008968553606111021, 0.0006130941122027424, 0.0002447245914977605, 0.00046191324275472577, 0.0011529415189133183, 0.0006926697186838886], [0.000296674002134396, 0.0009373943628059111, 0.0007648370859995398, 0.0006556139894288706, 0.001167219211358609, 0.00018014495325035845, 0.0008759541030234622, 0.0008712626561928655, 0.00014436340705385316, 0.00012338578145023397], [0.0009426349616413248, 0.0008412179345224174, 0.0002570854216429553, 2.468382175308533e-05, 0.0007808055870045059, 0.0002355652925279491, 0.0010747616661168885, 0.0007893040227908249, 7.421957099086095e-05, 0.0010243788076368797], [0.001243772289702552, 0.00023138057822415716, 0.0002222396892503098, 0.0004927532019260867, 0.00039209858257717705, 0.0006861594050659633, 0.0003242864535523485, 8.994834017865165e-05, 0.0005837423154420693, 0.0005416439227029648], [0.0009528772738213894, 0.0001304257220835654, 0.0012195983424910537, 0.0006682438916549505, 0.0008141602432465833, 0.0007957965963490077, -1.1392661171149539e-06, 0.00014421911449974048, 0.0008035584712405568, 0.00040736689887716437], [0.0004943561047111534, 0.000289904513977994, 0.0002208803880775709, 0.0012359594890835061, 0.00014685127498589677, -0.00017324992362733514, 3.493188947406447e-05, 0.0012130649439504083, 0.0009226950389889942, 0.00015553351165519834], [-0.0008732119151462576, 2.959448579111058e-05, 0.0010982762790695433, 0.0017490419671911063, 0.0009230214903579135, -0.0005912215809355596, 0.000281236165843964, 0.0003449055537140811, 0.000434011636067162, 0.0008956927077830813], [-0.0015480034756721675, -0.0006203713034089019, 0.0023563537503235054, 0.0015638823727189078, 0.000743911885460075, -0.00026264863590750535, -0.0016848780938185954, 0.0011748934585101944, 0.0010193150616639999, 0.0010232820133377952], [-0.0032015753645312298, -0.003972750743645764, 0.004981234852969438, 0.0027022329077991945, 3.995722936233323e-05, -0.001250042600942376, -0.003604476780047728, 0.0018819623367094139, 0.0008480360228439097, 0.0010602463462766735], [-0.007071749186279626, -0.0076611499515752, 0.008547236449831814, 0.002473189644269441, -0.0007434428257912124, -0.0011250010623992629, -0.003698679332971569, 0.0038261475609153344, 0.0015432841601692889, 0.0016996194958456981], [-0.012533055542996864, -0.010731029677106606, 0.011451389008667552, 0.0020603819949680086, -0.005204679706107654, -0.0004546015080886809, -0.006018586353230005, 0.004943509368667329, 0.0008195802340175856, 0.002703867029398467], [-0.014475023846005141, -0.011716495768212126, 0.01336423775637709, 0.0047088134274487535, -0.012331735803310704, 0.00015218980576545694, -0.006670211803773828, 0.005848618801412061, -0.0003548105186857273, 0.00430476117371392], [-0.014633970099727346, -0.010133746415016177, 0.014299448001567388, 0.006169064548326521, -0.015395891763470573, -0.002743010034892461, -0.011869471261710507, 0.006758523727455607, -0.002426465316273909, 0.007214556128439438], [-0.01269351177332392, -0.004346720496116867, 0.013252952656043166, 0.002099010870628783, -0.016383431306089026, -0.008240138129229016, -0.013355724502117031, 0.004893375943112485, -0.004930709069560642, 0.007405519295628317], [-0.01012007361505912, 0.0018908991829891001, 0.009481018643403689, -0.0014650783010413863, -0.018530452901309814, -0.013066387156489341, -0.010913602502743097, 0.0046288223853269955, -0.0068046315418723085, 0.008832368717008673], [-0.011308805513802832, 0.00431643494722491, 0.005457018976191141, -0.0030550729514867256, -0.017312197091963355, -0.011101464451705267, -0.006922058017539294, 0.005972840515238235, -0.009303547157707343, 0.00954196724586155], [-0.008391100405426616, 0.002045011829050894, 0.0037499575884639863, -0.0021298416322934176, -0.014985199760946012, -0.007646641371024441, -0.004529422241672039, 0.0067508447919188514, -0.013901959913047079, 0.010196063366087032], [-0.011003523702709619, -0.0004314142379465067, 0.005051861114636196, 0.00031536678620745496, -0.01284790444364846, -0.004315366688555801, 0.0015998339454060745, 0.009497410632761844, -0.020159115740505988, 0.008257737799345459], [-0.015127295085668974, 0.0014749776042339603, -0.003806966974950842, 0.0020081785036413415, -0.01354003855120462, -0.00829074873774648, 0.012173029010557081, 0.011252065167352207, -0.023477268495175934, 0.006757183174270641], [-0.013153062915550939, 0.0025888211021971976, -0.010576462459378688, 0.005352736340768993, -0.015379638091521224, -0.010500073789801096, 0.019267866338234182, 0.01119851778145224, -0.021098287141108823, 0.006035312034013216], [-0.01200633526898876, 0.006420156483026857, -0.016554998949200764, 0.002394106379790091, -0.014022415302642761, -0.014334929842291377, 0.020827420344276825, 0.011690122647443213, -0.018452072978612778, 0.0056586373668492855], [-0.011911624600038043, 0.00711812883574107, -0.017076664400572643, -0.0006405867302876302, -0.010113011486752725, -0.010028371665830869, 0.01760443072587973, 0.011907654886887026, -0.012573956751592525, 0.002914271028682443], [-0.013322989504067784, 0.0036894720074750064, -0.016327788449451052, -0.0026932181817218214, -0.00581015760108116, -0.000372118562576364, 0.011952059983464774, 0.010057555309661988, -0.009382674588315114, 0.0005723633044379322], [-0.011346656252931292, 0.001655083548215178, -0.012534606591233245, -0.001251549384414943, -8.406344054589092e-05, 0.006692343792009632, 0.006890547998080532, 0.006427474981314362, -0.007142380041053147, -5.146601066145723e-06], [-0.008934496011217033, -0.000870532648701952, -0.007909620288770233, -0.0016165906794011235, 0.0018561576581716652, 0.009793686710176263, 0.0028361556118924724, 0.004130601976338038, -0.004557877405245559, -0.0005349196652874366], [-0.003812668752517036, -0.0020146920125454675, -0.003249705166204128, 0.0004763229021251304, 0.0014542028957713516, 0.0059496616801987335, 0.0013092524674264696, 0.0022434247184171, -0.0013693557149060279, 0.0005996402646276155], [-0.0006259492746994766, 5.334283651612383e-05, -0.0009029161916637855, 0.0003965566713531201, 0.00027891500376072873, 0.0017577663194185743, 0.0005504954547901347, 0.0008422857069854482, 0.0007005786924296892, 0.0008535815766346036], [0.0005667675541605908, 0.0005150028051359144, -4.1635682366963915e-05, 0.0006276088253990942, 0.0005619368870807941, 0.0002802117676675024, 0.0005580487005399012, 0.0007328000558920415, 0.001092861611842958, 0.0011151477533990596], [0.0008878319235669496, 0.0009644936979408418, 0.0011562697967020753, 0.0010830994209464768, 0.0005236282770115625, 0.000272963665434718, 0.0005989240344447211, 0.0012200819801140923, 7.022626770750515e-05, 0.0012283593171219067], [0.0008868144558318387, 0.0011223837498258256, 0.0001840336231507219, 0.00018728114000006089, 0.0011377358546176767, 0.0007988974198031868, 0.0005526547257757869, 0.00022302015136102765, 0.0009535442492408098, 0.0003396059074240666], [0.000223348613114787, 0.0006699869115017282, 3.034191986148338e-05, 0.0006840666893113576, 0.000976918122813425, 0.00054608202113299, 0.001012114377842407, 0.00026335712197038776, 6.358814222231886e-05, 0.0005054859812189804], [0.0004814704476182013, 0.0003825184586138632, 0.0012251931199112464, 0.00040946429149348664, 0.00047307680511053223, 0.0010173424427885576, 0.0005816851368451526, 0.0001969022198017634, 0.000932550288968735, 0.0011487959018792108], [8.281503539063758e-06, 0.0003688240485495794, 0.0007014243632288841, 0.0019210722001396744, 0.00046447728873482406, 0.00020028711228595224, 7.414373387763795e-05, 0.00043335034826925885, 6.484650754838044e-05, 0.00041353603920740245], [-0.00013702599263118448, 0.00029960985703516283, -0.0005033189439495816, 0.004062988324976673, 0.0008187660710550878, -0.001363084460593399, 1.4923675300593018e-05, 0.0002596649137887247, 0.000440242594813519, 0.0005687543594020479], [-0.0013204870966583716, -0.00024382240643843123, 0.0006501932945494513, 0.007153300316025985, 0.001087441691283321, -0.0033894521998570804, -0.0016214731621062557, 0.0012516415519294908, -0.0002176124809406955, -0.0004893827774480032], [-0.0018763498964878551, -0.0035928301325277552, 0.0027752162363060746, 0.00910070850916829, 0.0036467790252200636, -0.005113426198020647, -0.004297513634978815, 0.0019565887910988834, -0.0023983354191629007, -0.001568954084040429], [-0.005031814490037477, -0.007456743031881314, 0.0069682287118364, 0.011357934516749043, 0.004772093842366837, -0.0041492825201361015, -0.005355378374004792, 0.001425234742857751, -0.0031480283570316492, -0.0013676813062419235], [-0.010167956319466785, -0.010333779374756855, 0.011062852901448263, 0.012715877000173632, 0.0012346430198289047, -0.00363567532788619, -0.004922592334805313, 0.0034451358715847005, -0.005316582900009066, 0.00026256153613553714], [-0.013226360242074348, -0.013415264623817855, 0.014726057354465708, 0.014123028542538427, 0.0005355955865332925, -0.002664848551490982, -0.006144182771600464, 0.002453760848763148, -0.007787256251969864, 0.002149176553667118], [-0.01315003511700454, -0.01420185134248354, 0.016961994460287007, 0.018923235465104042, -0.005405198748206286, -0.0005224384088621352, -0.00740609049097671, 0.0016497224012339726, -0.011009987401000928, 0.0063791180684543295], [-0.012569567534897321, -0.011062702512868349, 0.013762134560078909, 0.02019760820139041, -0.011034679077430894, -0.00308031140217938, -0.012970058342255302, -0.0004416749418477841, -0.009356843960410931, 0.010245859817587376], [-0.008548358740595214, -0.004547249210060741, 0.00761112483884876, 0.016242524641302693, -0.014414709757299218, -0.011769048690853275, -0.01069091651120796, -0.0005728646619611995, -0.0040565656755011, 0.007052153939078369], [-0.0015715160975859335, 0.0028806718656351625, 0.005510013264284645, 0.011036811431094518, -0.012179489403619197, -0.01826011077461688, -0.012701452376635296, -0.0005054553060827158, 0.0021169358816897402, -0.001964835245594801], [0.0017382224040782483, 0.005930909260045668, 0.007238507500185918, 0.0032670943517009274, -0.005119932884646048, -0.016633292231896475, -0.012744705601876165, 0.002664031486025745, 0.011266795468311433, -0.014627524820956455], [0.0014752474413985814, 0.004369036331612825, 0.00811804904844833, -0.0016364119116993746, 0.0019842041632734003, -0.015530343286478168, -0.011406056964497797, 0.006615499828634625, 0.01524349433364239, -0.023936376556937516], [0.0004378270027549632, 0.00042397603657339834, 0.005547217442240891, -0.004892707254944626, 0.005470309926128204, -0.013815743477189429, -0.007154388386990883, 0.008133793333436739, 0.018156966031443924, -0.028321112502060986], [-0.0007417549777539754, 0.002494801517277652, 0.003834184390995727, -0.01321948165290091, 0.0035684571193530016, -0.008882410819405941, -0.007014447967435029, 0.008481444756881928, 0.016464754826553123, -0.022818655543950222], [-0.00196848900571476, 0.008309077586208982, -0.0013908360556238457, -0.012797458577071659, 0.0011091372479771324, -0.005879240954778516, -0.005447642201588111, 0.008868480789650275, 0.00918614069443287, -0.014601231645355713], [-0.0029939371475910565, 0.012513342547288961, -0.0076525675583551086, -0.010358608468874514, -0.0017915756551421089, -0.0018285067215310985, -0.007722989240903552, 0.00807587577523956, -0.0006199729824885516, -0.009450882203029457], [-0.008887232649509956, 0.014538591889678125, -0.011267313644663936, -0.012295285010648445, 0.00031484262301396395, 0.00848607268481985, -0.00984857204729295, 0.008859040169886787, -0.0075692529449160805, -0.009066221643912332], [-0.012715501298783325, 0.010695698570920344, -0.00975854052394974, -0.012424183147443112, 0.0036405764205299377, 0.01700502876163701, -0.010223808037104291, 0.008829757034535847, -0.01109659867571325, -0.009246341187678767], [-0.016002283709034608, 0.0031847967939793147, -0.00870381100716168, -0.009295270091343222, 0.009157720812757744, 0.026474967374127432, -0.008162307105878924, 0.007798628674000985, -0.012685904346797418, -0.009805203895181651], [-0.016655334995578402, -0.0010867882461085268, -0.00941378364394399, -0.004165832827592922, 0.011392680014724953, 0.02746945520098199, -0.006094447765692963, 0.006005870631597205, -0.012204362781405837, -0.008885900362592286], [-0.012794153814999393, -0.0032278746090098915, -0.005627703690525279, -0.001535627280256636, 0.0036885768766322935, 0.020214958795183438, -0.0020079298407429166, 0.004542995463906783, -0.006949595045322167, -0.003683280500731569], [-0.004643836006694184, -0.001960688769640959, -0.002277567207122195, 0.0012260347110754717, 0.00012441380237945422, 0.007717096383346201, -0.00028302280610664765, 0.0014985193498030956, -0.001032190925531445, -0.00035093252723816977], [-0.0007508497243994124, 0.0007397578804647577, 0.0005795244071862899, 0.00018617754572906276, -0.0001911537319982244, 0.002519759423710228, -0.00015720658491856393, 0.0012767875570577822, 0.0001515341364893979, -2.2278980242675725e-05], [6.545645216078542e-05, 0.00030724722850387275, 0.0005967562402779334, 0.000979871784041373, 0.0006450977495812131, 0.0005696451283512764, 0.0005026737241910898, 0.0002478317406511913, 0.0005608440102593773, 0.00048484185520752216], [0.001271367553160866, 0.0007854602750612225, 0.0012276978386029636, 4.668387677531663e-05, 0.00018624754193268033, 0.00036007272483179215, 0.0004321538844309674, 0.000892906636458738, 0.0005079182764095478, 1.3684581999370807e-05], [0.00024391424673741912, 0.0008169207659189544, 0.001213083151493126, 0.0005900458457188792, 0.0011862217102821951, 0.0007901111493504546, 0.0008129686447946167, 0.000481723943278078, 0.00048383750940960053, 0.000457286624065297], [0.0005095600781987624, 0.00027755676243132867, 0.0006216863522469296, 0.0007032429679664348, -6.563388581144794e-05, 0.0009243163029970383, 0.0009755616607599791, 0.0014984471560153779, 0.0009878992687433303, 0.00043804018300710193], [-0.00025075729425181963, 0.00042008860053620615, -0.000866085989026318, 0.0035397486978434867, 0.000179443029453384, -0.0011536897603519598, 0.0006086075964466441, 0.00021950723712014714, 0.0003726327031270655, -0.00016468830762155127], [-0.0004643893415829422, -0.0005745352204926655, -0.0018258001741716411, 0.007359108742854532, 0.0015386133777407507, -0.0025535993760642107, 0.00011231862012032754, 0.0007781103644684839, 0.0001605747548961708, -0.0010027198320459426], [-0.0017754746042663795, -0.002346306278427011, -0.0010366828465693421, 0.012022718261960443, 0.0021213850761761252, -0.004552574031553578, -0.0017416617945717298, 0.0014550366624425356, -0.0013651121209009845, -0.0026303364097905297], [-0.0018728439645369637, -0.005220014099935037, 0.003643314109301253, 0.01458188571124742, 0.0035038352777411698, -0.005319240487945833, -0.003607132423466555, 0.0027922454130332136, -0.003937163178672105, -0.005105169597272053], [-0.0041537349465365124, -0.00877523476945631, 0.006083235464206242, 0.013890573165168951, 0.004910652832266683, -0.00636954185740582, -0.0037906405300787266, 0.0022202760941034635, -0.006056845877695718, -0.005721512057277251], [-0.00468909224553776, -0.012699376104564222, 0.009699778209013528, 0.01791248455858504, 0.004167284844678271, -0.005196940766053749, -0.0033261534941874723, 0.0020562727589942247, -0.006891301533789761, -0.0033793327931872885], [-0.007261340601656688, -0.014297043287405942, 0.009398560114196217, 0.020098015480758954, 0.003990541974171833, -0.0025226241213371133, -0.004304106879082372, 0.00021177052422889382, -0.008486557917792506, -0.001733268772428818], [-0.006041545687389638, -0.014143805029913914, 0.010097309797400214, 0.0201501169675611, 0.001251147822747501, 0.0013481981952459803, -0.006786959920381121, -0.001730795081810189, -0.0068611526247145775, 0.0008829589393030255], [-0.0008594251395670149, -0.011523420408854646, 0.008002951534712158, 0.017702682757566094, -0.005843275639527343, 0.002786127170059745, -0.007788271512124798, -0.003708954933580069, -0.0012930159093394976, 0.004810266927182656], [0.003793339417585307, -0.006655469024462215, 0.006240137115362755, 0.012998809873973652, -0.011568679068569494, -0.0015601834001231912, -0.005932729990018268, -0.005577317970288235, 0.0029009276236109786, 0.004389369588259636], [0.0069028170367756445, 0.002194867909189336, 0.0019241885005083625, 0.01070516669117556, -0.016991774718398026, -0.007025620512322545, -0.011465835131499751, -0.006448163490019702, 0.0031329284053758593, 0.008351973897205161], [0.006233185341332133, 0.003070562625269904, 0.003174958590559504, 0.0071806492457072695, -0.019332056846613665, -0.004788865593227355, -0.011693495824458411, -0.008765008492921477, 0.004593193555411504, 0.011960492080620534], [0.004723072245371562, -0.0054563411213899935, 0.00365335562771701, 0.006556795934834513, -0.016631580232622817, -0.008776791300037105, -0.009096092078828598, -0.011936111211955203, 0.011113813345006017, 0.015314770038517627], [0.007165940570430215, -0.010502998641256396, 0.006595459887941348, 0.00535523616352809, -0.012752975941069994, -0.0067969456425955605, -0.007624577946575593, -0.00955495621837758, 0.009709369500865548, 0.01769880231422034], [0.009283409166906361, -0.004873136701469708, 0.005627540477688433, -0.0029676754941932292, -0.008349142926178955, -0.0022095764164898673, -0.011319209092041396, -0.009742835562918486, 0.009191003206473706, 0.015066214118678452], [0.008812128893105176, 0.0042295903601255, 0.002835460341935725, -0.00635543879098059, -0.0036325346283505614, 0.0030861293359481464, -0.017103094825400567, -0.008677879995222676, 0.0031085571182855065, 0.010703621793620863], [0.0028857442772331687, 0.008009014459412036, 0.0020576072734790063, -0.007275016004093117, 0.004862093251237862, 0.007114535484395016, -0.019741609756667562, -0.00538610089554757, 0.0013757866874942628, 0.0018938168854731683], [-0.0025598704726383964, 0.008856127547253031, -0.0009503019663313101, -0.00538075900490413, 0.0074549587711854855, 0.012168382820772783, -0.020192550015471954, -0.0009958122150927888, -0.00360117100607752, -0.004867521715154013], [-0.004034739976181653, 0.002386682929410577, -0.0011680869638775204, -0.006866348534923574, 0.009974484974406206, 0.018307442717418985, -0.018098248299333607, 0.004212795357472128, -0.0042613652228900775, -0.013419862317777418], [-0.011139812068431145, -0.00322773005736685, -0.0024156541284722235, -0.008016633672210047, 0.015198099712488774, 0.03151570332460237, -0.015469498481881408, 0.004177893015494398, -0.005756870555921661, -0.01729802480811728], [-0.021939351692735424, -0.005050048966842592, -0.008996237387139974, -0.005328790466912408, 0.013821055864592476, 0.04241773099583348, -0.010799423000754331, 0.0024638726031425886, -0.008126242185252767, -0.015320548114654258], [-0.022225444335000205, -0.006546150410892377, -0.008033464546577902, -0.0017081474822004043, 0.00382118213884108, 0.03961200436810668, -0.005553377620442083, 0.001979432473358978, -0.007551617938265682, -0.009856360999594492], [-0.011312860709149074, -0.003523894385907597, -0.004036841266014943, 0.0012476140468730761, -0.0019097052577475597, 0.01936271380552185, -0.0021381176388841874, 0.0008466771993332345, -0.002777781984201459, -0.0032514715910140625], [-0.002385636756267159, -0.0008692688345954723, 3.677234319586821e-06, 0.001503741152620792, -0.00016475524968739242, 0.005093787263266503, -0.00014121659438606115, 0.0006768141477582956, 0.000270712885466365, -0.00040749667751741454], [0.000621278631798339, 0.0009248112531672553, 0.0004419595983795402, 0.0012904302135761689, 0.0006065855745983452, 0.0004783945894399335, 0.0002874960255614274, 0.0009526763648586166, 0.0004725308772037986, 0.0005365150228188371], [0.0006181702329727804, 0.0005011846885965361, 0.0008769342830244637, 0.001026169128096844, 2.9114093081538106e-05, 0.0009522791979261505, 0.0005782705507173313, 0.0011103517208863587, 0.0009752338519997875, 0.00025578536369978277], [0.0002459802799987029, -3.146896478734312e-05, 0.0004356907779057799, 0.0013478299634725004, 0.0007143239524707772, 0.0001010680752390373, 0.0005028454293024997, 0.0010760220713736453, 0.0004890375762795352, 0.0008053278950705543], [6.762090245011486e-05, 0.0002889194781216562, -0.00015925968829731232, -0.00015935617596589958, 0.0007851939427327715, -4.604813325139114e-05, -3.2997173931309747e-05, 0.0021442746765332785, -1.4266761637640914e-05, -0.00029921356826547547], [-0.000319502741759743, -0.00018031120535199336, -0.0017476877345301192, 0.0034400119329176483, 0.000256031174845666, -0.001620029970852427, 0.0002674377609964038, 0.002290385850047306, -0.00012518930083379984, -0.0008983387824455972], [-0.0018387749299620887, 0.0007982184645922247, -0.0036452259755075807, 0.008743226150504555, 0.0012124718478163238, -0.00498485974949774, -0.001306876144860284, 0.0027925526115532336, -5.291513928941488e-05, -0.0035031839086855977], [-0.002270990464448207, -0.002279147730093934, -0.002713357097116165, 0.011368551983375177, 0.0016281152868456309, -0.004228860831400341, -0.0024461889505075075, 0.005008318370864972, -0.0011735241750575034, -0.007762805624640191], [0.0005775245987172351, -0.005168018111786068, 0.0026732420321638178, 0.009747831320488985, 0.0012009845102805379, -0.0031520554639785678, -0.0033155818568267035, 0.008209291757827974, -0.0017694203875218547, -0.010040751002681023], [-3.369201967593988e-05, -0.005952737225933424, 0.0019197664149958544, 0.005101964482402322, 0.0028773827756876096, -0.00036546466949331823, -0.0020255866804865146, 0.009404227580396982, 0.0002451839545843187, -0.01172544996172761], [-0.000917542193549526, -0.00899006020266212, 0.0017731132170995519, 0.0030765930646675993, 0.0032972695357267445, 0.001880766355815358, -0.0021283459312000084, 0.0099190587284872, 0.002433585768086837, -0.01069616942942521], [0.0005442391550607901, -0.008483207795112321, -0.001178714033484096, 1.7343974783561507e-05, 0.00577497799841321, 0.003747979716598911, -0.002870199659722116, 0.01036282196108403, 0.002591135798111024, -0.01199852839574264], [-0.00026040789444408216, -0.010677268762041243, 0.00038784389895011315, -0.001351697696389519, 0.004972772903516851, 0.00933668084000851, -0.006407814544615391, 0.010342804390472663, 0.003945340830829974, -0.010203013032920502], [0.004215345107497375, -0.011972439836472436, 0.0027641257432822275, -0.0008486034539197233, -0.004414859537888454, 0.01028665811845006, -0.0047715191431489876, 0.00764631777218906, 0.002721514835968999, -0.0029022364290606914], [0.0075429356896021165, -0.005717587527646074, 0.0029716386897653264, 0.0024940959891401634, -0.01582122146235982, 0.004858993910938374, -0.006757799900133857, 0.005724276172768119, -0.000890458607536558, 0.010254884957012891], [0.007454821456239949, 0.004334349641152821, 0.0007205717769231336, 0.0022235920061582258, -0.024504148471884302, -0.0025680176385622835, -0.012075040307792913, -0.002596113749695815, -0.005032097398412912, 0.027123468610195576], [0.008396469711867008, 0.0036277186623821646, 0.0001805405591407666, 0.0026237756786867813, -0.032615881421891285, -0.006549028914762338, -0.009646249057812535, -0.012371778829952865, -0.008652597722327876, 0.04562862533348455], [0.008742603087994417, -0.004166587778425105, -0.002014212034740964, 0.0037371881034759372, -0.030911737085218632, -0.010341158535322593, -0.006218873331094678, -0.01660101477651673, -0.0027384978239844535, 0.05261270729349432], [0.007989880412084751, -0.006254961259187033, -0.0025711695242802896, 0.00051295108335732, -0.02126288973878553, -0.004466742723672054, -0.00806021200943682, -0.012623467464455477, -0.0064900641191306474, 0.044535732328128], [0.008928978170342898, 0.004710759738625407, -0.007403654845182753, -0.0013421236090053576, -0.009842025569961877, -0.002264322975046619, -0.012426658134154072, -0.007282479748962769, -0.011211649116488066, 0.024445184447190762], [0.009624464386109994, 0.007408927247565799, -0.0024082737827367724, -0.003056208928284835, -0.000985192669321152, 0.001374778959573025, -0.01565854787030212, -0.002684612079573313, -0.006924685622675359, 0.007543548260911403], [0.004255601375859613, 0.004295569725709618, -0.0008869119244423577, 0.0013816347271526478, 0.0034388032052908623, 0.004560183825030149, -0.014174247654506431, 0.003417437979854255, -0.00778714763957407, 4.817635446682598e-05], [0.0006998417301303392, 0.0005075137714400144, 0.003021361205486102, 0.004618517785507078, 0.002859198215843248, 0.005560521726151502, -0.011776096546255976, 0.005602342815314491, -0.00189515764958583, -0.0028064135734635993], [-0.0022374391820777395, -0.00345333156859209, 0.007387592220083218, 0.0019283353027261833, 0.006472974064921419, 0.008063630242730433, -0.011901765295927133, 0.00491716075921699, 0.002522062965425895, -0.008504122148626362], [-0.007001697787102817, -0.004809625224509301, 0.004945130956883214, -0.00326031555589446, 0.008763524868468492, 0.019133400806575884, -0.01334605792033302, 0.004249653460841102, 0.004123692109814733, -0.015860723842686972], [-0.020613968140685737, -0.009630403631681292, -0.0076357649537782315, -0.004264573852369494, 0.004970457378223529, 0.04620524237935588, -0.010469907737724785, -0.0012590510719796433, 0.0037932987928387452, -0.016406359959632744], [-0.02851545983299076, -0.009378590027720709, -0.01042515645094883, -0.0014439964688672108, -0.003147696646717918, 0.0555757655218097, -0.005839139880103609, -0.0034638061717103064, -0.0019758385886397296, -0.010937975284372027], [-0.016825471441960765, -0.005007444100786382, -0.004521707615608422, 0.001677156536320532, -0.006131663289510919, 0.033334078258119695, -0.0031653283023309474, -0.002930379081131262, -0.0035241758465949947, -0.004371410482923835], [-0.003839621313389506, -0.00026620930653297, -0.00100817932241308, 0.0015792808282375059, -0.0012198490719903473, 0.00824481682598578, -0.0004105969504597548, 0.0002741194811858884, 1.8745889221172885e-05, 9.592514661895871e-05], [0.00023934038147437392, 0.00028703605711412225, 0.0007578553048372209, 0.0003783011832192643, 0.0005721465522506383, 0.0014195062005374626, 8.48995588077443e-06, 0.000399652567500536, 0.0009316423461379534, 0.000629464351633842], [0.0009220858986853302, 0.00044977306399732967, 0.0009029685790307744, 0.000185331265033035, 0.0009828545195155703, 0.0005428462673736829, 0.0001284487849893535, 0.0007068570736968703, 0.001009502293479123, 0.0007890589457438843], [0.001034995054107733, 0.0003937223024487, 0.00027196561370123104, 0.0009200888899936895, -3.874365070757723e-05, 0.0006021697103649658, 0.0009092499221311778, 0.0008645533387716471, 0.001229025902576284, -0.000257317317795966], [-0.00100382689376222, 0.00019913416035977814, -0.001347656865843564, -0.0012605295674417607, 0.00011216871114531156, 4.435834771989548e-05, -6.818984284325856e-05, 0.004980017716759661, -0.00015084944577199057, -0.0003616705958469769], [-0.003188621217436199, 0.0007309544282585479, -0.002922666770260696, 0.0022615217050136653, 0.0004937253418141033, -0.0025665780248152427, 0.0006692073171972686, 0.007167197063412098, -0.00024337449207961605, -0.0033708931306994667], [-0.005980713501372385, 0.0008536547214916325, -0.006054898200752526, 0.007244159211424374, 0.000853648830981464, -0.006681492982365716, -0.002069447156939708, 0.00973624715108381, 0.00019678609183207028, -0.007851523919376184], [-0.003949092170765305, -0.001766489585962905, -0.001976984482869048, 0.0062613537268393, 0.002171259751276039, -0.0034027267522010103, -0.0025144494609974357, 0.012066705791633983, 0.0013168190233217177, -0.01394400967852657], [0.0003120490655548437, -0.0036738230219898497, 0.0015812940223573241, 0.0008887667759603055, 0.00029848274682492545, -0.0018156597891905116, -0.0030048924356316036, 0.014097547112390434, 0.004542313565064453, -0.014893274375591254], [-0.0012595264264406037, -0.005197074139479554, -0.002766608712980494, -0.006965551555207196, 0.0019386148377121494, 0.0027451555078407343, -0.0010140513214936748, 0.017942904661252417, 0.007267703968912326, -0.017694103744506202], [-0.0010825301255269265, -0.005529080503862128, -0.005464811536796451, -0.014271202168247982, 0.0034466469209733746, 0.006630434109063405, -0.000779571753746483, 0.01820634258841459, 0.006803058129979453, -0.01549088694826391], [-0.001471450160540174, -0.0057656347677056815, -0.006181750087093755, -0.013502472666839056, 0.00789557655461507, 0.004085505930483838, -0.0026581999424170636, 0.01879100489420571, 0.009705808582512403, -0.018491192148069973], [-0.0036358854026988996, -0.008949908226315575, -0.004727052029584722, -0.011245640914371425, 0.003662306480637358, 0.005740586036465173, -0.003815963754768959, 0.019808606500381732, 0.008399088582081422, -0.015049772890810243], [-0.0041183667947898355, -0.012758176181300965, -0.003472920532872856, -0.005935748457441003, -0.004854399739980649, 0.009789814727466558, -0.0015243634396975528, 0.01982132332568009, 0.0029388777925595322, -0.00616214579448314], [-0.0022891525054498847, -0.007582629127148673, -0.0031795274154114697, 0.00026903931566548415, -0.016034083960974284, 0.0015860741618773891, -0.007204522130625044, 0.017376885489572058, 0.00042929419692699943, 0.006538152653204012], [0.00046187019063496725, 0.004802012556809958, -0.003697237852811101, -0.0008405989871741175, -0.02289794278606568, -0.008119048922522343, -0.007791713358533979, 0.013191169540046474, -0.005308609335089614, 0.015092911894319057], [0.002610011535723941, 0.008074861219136451, -0.0014659094017850558, -0.0019045447560731685, -0.029852819174218705, -0.010894718231652256, -0.008107841170081951, 0.01069807662709758, -0.011560764843444898, 0.018176563367332574], [0.007598497566092196, 0.0041151320623947375, -0.001208932458898048, -0.0038983885867824343, -0.02647025391995511, -0.00795271079612625, -0.010264211122420522, 0.0078006493829640535, -0.0067132133005096285, 0.019543244510932492], [0.010676860692190098, 0.0026662016995826206, -0.003993307660415434, -0.004222612274645093, -0.017603365277085305, -0.003489522163025014, -0.015226434016178967, 0.007906964631998569, -0.006289419257753392, 0.016334132036542576], [0.004251663200671019, 0.01179417918109165, -0.007430742165876826, -0.002062315673054482, -0.005043482821840168, -0.001828792961296484, -0.016962093073211285, 0.007675368360532713, -0.015314117622161755, 0.0041879430886205314], [0.001525424125424022, 0.00905007267730137, -0.008015720647858576, 0.003059756828317094, 0.0025280105146885746, -0.001106119013708999, -0.01815178800489865, 0.004506941557626617, -0.01227116490780131, -0.002475419077240262], [0.006124640577561017, -0.00017671516497302838, -0.0037036518726942563, 0.008155500881239645, 0.0037449915156572114, 0.0009487094740325871, -0.012384748467671262, 0.004239774556899641, -0.003416741681088491, -0.005335136177993683], [0.003703467337846444, -0.00641504098367409, -0.0013559085489157382, 0.009477350072150484, 0.0050049937721160405, 0.0010283215153099377, -0.00948430959178629, 0.0026294359280674743, -0.003230094795250223, -0.0018982511725872818], [-0.002081463143773288, -0.006436394628873709, 0.004008388225340207, 0.008181767471230882, 0.004909302915470359, 0.0008938398271266793, -0.010335650231536339, 0.003139393197507767, 0.004711074211446934, -0.004062082842678578], [-0.002022911294032415, -0.008132953113104139, 0.00540464558404339, 0.002907658476408195, 0.0019290543440538108, 0.008468438230425025, -0.012603185260300645, 0.00500265401740336, 0.013779008662692618, -0.008161879671827472], [-0.01474481208653012, -0.011163078228496527, -0.008044971104964426, -0.0033069833989804484, -0.004512764650170074, 0.03883036780614001, -0.010685615106663432, -0.0014723968336183347, 0.013795934526283438, -0.010210493698661418], [-0.02851063793895752, -0.010059695309758053, -0.014856068908064879, -0.0005833940581153352, -0.009114557190998053, 0.059336972466137276, -0.0070239212412736484, -0.007038880292221036, 0.0035895492522560373, -0.009158918333092948], [-0.01919541645408722, -0.006484350360027233, -0.0076491353446162215, 0.0016858815376707486, -0.007087885788456785, 0.039158133973341516, -0.0031883548130889876, -0.004762068535767119, -0.002132365420601579, -0.003871599716298903], [-0.0029257829904489542, -0.0012092679800175556, -3.49857550330478e-05, 0.0018098011333514414, -0.0018500044347239167, 0.007778360543492074, -0.0009228473576924896, -6.589843769594557e-05, 0.0004892990003838484, -0.0009314461857143662], [4.391621568911049e-05, 0.0008706110653370669, 0.0009270109550043178, 0.0007588441336799193, -0.000132870865350735, 0.0009069326908048174, 0.00046621967921256215, 0.001087691981556504, 0.0007072762348595772, 0.0011566588736778554], [0.00019507959513966928, 4.045165868699771e-05, 0.0004674961348348343, 0.0006796156793927279, 5.283869336390585e-05, 0.0007568463391135608, 0.0009239792324066881, 0.000514283214129618, 0.0005251529289614884, 0.0003488315500376406], [-1.8882758927058946e-05, 0.000585787080030679, 0.0002877465756576056, 0.00018266512777134584, -0.0002159939725073586, 0.00036226474507426785, 0.0005209723405218856, 0.0019916657385064995, -7.287735451366502e-05, 0.0004066512184226552], [-0.001284046240699286, 0.0005901077332237957, -0.0009248411744694531, -0.000754187841631846, -0.0004812900339877264, -0.0006347853036786467, 0.00011361142630008001, 0.005819948763794602, -0.0010211716686713754, -0.002489531758243663], [-0.004874131675755479, -0.00044201561178484195, -0.0027175774129058806, 0.00047142395126594, -0.001253325197848864, -0.002357144290001187, -7.047762128349254e-05, 0.01190188502223887, -0.0016183238074306823, -0.005951764355121923], [-0.008015455971793565, 0.00031480984754115714, -0.003326635229309141, 0.0024334255394876498, -0.0007429789458116522, -0.00394702747380488, -0.0009551417411092938, 0.016952060032499595, -0.00011899349116581079, -0.012333348371184336], [-0.006552690431715788, -0.002291280386281284, 0.0003599266250370449, 0.0003715300541165961, -0.0006101735832560335, -0.002175012713763691, -0.003256553526437013, 0.019262288265747808, 0.003308666694197286, -0.015472780908100342], [-0.004319421038546948, -0.003257874878113474, -0.0013740905593071626, -0.004872484166413152, -0.002433251969325451, 0.0016704930513229896, -0.0004002523762083433, 0.016714431669177295, 0.006578907850683335, -0.013748924850406297], [-0.0036501560713508357, -0.0022035861774989994, -0.008918523275130269, -0.012849964804584491, -0.0010700438516472119, 0.004733803511571411, 0.0023499114817420157, 0.017454628493364148, 0.008930711300328924, -0.015421847466215052], [-0.004200448993154505, -0.0030538213495766484, -0.011364668853924155, -0.01893837069342396, -0.0005072550852010476, 0.010355264306376058, 0.00111077612508404, 0.01902305200119676, 0.011022319922662123, -0.013171097228935554], [-0.0038816579385085696, -0.004198366249489298, -0.00962635890149188, -0.01969035734520751, 0.0010254655836543776, 0.005402676893603779, -0.0021863766342379593, 0.01883349796734312, 0.011942839936307731, -0.009999716743646109], [-0.0056602075124412244, -0.008985763633091438, -0.007005179940668791, -0.015798926299685403, -0.0038493048978430044, 0.004099720710985373, -0.0010648472377016687, 0.01625542047015669, 0.009378362651467763, -0.0024124705456204016], [-0.008400956432151961, -0.014076615029832063, -0.006379308907823279, -0.01343349069350188, -0.009603948560647085, 0.01139169358831876, -0.0026887395546568832, 0.020732864397750454, 0.005484258391537906, 0.0023839263448972507], [-0.003697970601190209, -0.01220395258932683, -0.0060299825134423, -0.010205938466506416, -0.009819012005095601, 0.0013919960260727515, -0.0015022050765648735, 0.02484978155974732, 0.001879710905040784, 0.001094540399688023], [0.0020796503559800876, 0.0022502620349377344, -0.0039572400813963435, -0.008740803941388877, -0.015136893558497821, -0.005650108162724252, 0.001452936568666439, 0.026848172406171766, -0.008592524180171679, -0.006987457906537802], [0.001980370569464112, 0.015061951316629709, -0.004122623340506822, -0.004361041648034326, -0.024232576830961774, -0.011490557230449942, -0.004453809538506042, 0.02954050692069881, -0.01663992051152924, -0.010365489780233633], [0.005592371920959523, 0.013628570390569212, -0.0010012725865383952, 0.0012600755989909272, -0.018378005007246043, -0.012180092685334095, -0.01676985365539225, 0.02961983839464342, -0.01684281979421478, -0.008502330602365075], [0.0033469711212626534, 0.0024231931656146866, -0.0019225791641306613, 0.0035969476211478433, -0.00822386543294382, -0.009096646508836912, -0.02134064763205783, 0.029398898378004624, -0.012420335806456899, -0.008245028815367927], [0.0012692395285591393, 0.0026138250064018063, -0.0043368371095440965, 0.002806107723821236, 0.002767108685317106, -0.0077712066714128334, -0.023172622914885505, 0.02092108156070294, -0.011926116673302307, -0.007984201608373232], [0.003205888691175374, 0.00291773597172883, -0.005515981310251977, 0.004487362129727844, 0.004285925144067464, -0.006497326221685072, -0.022214355561569275, 0.009989465590532922, -0.009024093478433026, -0.004913537343724393], [0.009602610974721898, -0.004615380475862575, -0.006487967401157921, 0.006986799437094576, 0.002339594027956807, -0.007089126904554444, -0.016937549324195826, 0.00631528837638889, 6.040814408034716e-05, -0.0046011281207003225], [0.009768941167556985, -0.007042203039526553, -0.010217390513130215, 0.010910312012572962, 0.006232261057120035, -0.009676579915080063, -0.013647477659983785, 0.0033469018114931654, 0.0029796780081335484, -0.0009472767282317058], [0.005782386281370811, -0.00669690194660707, -0.002141018887176874, 0.007113005120280348, 0.004358340771908364, -0.01059994415917837, -0.013828682841380438, 0.006580115737185956, 0.011782899121003788, -0.002043235505142024], [0.0053099385651730275, -0.007123697949980809, 0.003037555136538549, 0.003627574809186296, -0.0010459706948920846, -0.005426695659772899, -0.016280964743314783, 0.005801242894515698, 0.01957081373213163, -0.003804446295914146], [-0.002217518714236467, -0.008994967066488556, -0.0057936023051809865, -0.00015060379865939678, -0.009142401384161369, 0.016672008463457903, -0.013828332395358644, -4.9640165700022075e-05, 0.021141921525738266, -0.00585656700186217], [-0.01815051655790771, -0.008849688194592425, -0.011500578549196108, 0.0015103312876284761, -0.009901537858023364, 0.04284213910328125, -0.00927932923444289, -0.004543048727579587, 0.008240540717375885, -0.007007818832935571], [-0.015189695981152168, -0.0052456609766143684, -0.004817647706934435, 0.003128931703283733, -0.0061560549184088145, 0.032923507702515564, -0.0035794019728232485, -0.0042509648519044475, -1.4018084960723048e-05, -0.0035005525954156266], [-0.002339281833495652, -0.0012106813501780002, -0.0010442172784861665, 0.0015292406952399301, -0.0009495043823147213, 0.0070373083447240236, -5.6195935070432176e-05, 0.00043343284279379713, 0.0004378153512766221, -0.0003416384661394055], [0.00047379351096867077, -6.508559000455817e-06, 0.0008244468029666786, 0.0006530972680083593, 0.0005029963647895324, 0.0010616646513014456, 0.0003244693473493106, 0.0007902304086631643, 0.0011263195320469043, 0.0010034628773106732], [0.00021625138357903387, 0.00039914787129591755, -3.487677896744088e-05, 0.0007315849211108565, 0.0009895030874620867, 0.0008214775427350389, 0.0007196778152541716, 0.0005309799201645466, 0.00040899087007486293, 0.00011093626176120535], [0.0005761042085667089, 0.0011005107648140971, -0.0001177654885803945, 0.000413155484988525, 0.0005352437049788424, 8.234762299642408e-05, 0.00018822511326195942, 0.0027587459872811223, 0.0009495611950373639, -0.0004358254659945773], [-0.0019182611183498034, -0.0002451697490296634, -0.000963002231544272, -0.0008386545145820818, -0.0004314225326321418, -0.0002681281819532698, 0.0013874162811130563, 0.00736945419341674, -0.00019196615134615985, -0.0027812530651912444], [-0.005679535316935251, -0.00013853637211169202, -0.001247791356571115, -0.00013792664273525715, -0.0004401002547366744, -0.0014946766419775906, 0.0006573571645931794, 0.012748560162823247, -0.001625004355117705, -0.00665749562693731], [-0.009001443083262816, -0.0013690561589214455, -0.001263324414267361, -0.0014516956936844476, -0.002234293901738806, -0.0015584264511034629, -0.0011341982992467633, 0.019045234342574737, 0.0005724113712492598, -0.011504973312577188], [-0.010321821167099543, -0.0027593015709680424, -0.0008471717734211541, -0.00458703052443187, -0.004062046918037332, 0.0008210356897683546, -0.002956136500473056, 0.019488314698503484, 0.0037564762839309217, -0.010535427328047148], [-0.007415524338591763, -0.002869634106214389, -0.004051866271337058, -0.010118075457160501, -0.00668374028824826, 0.0032864601327498616, 0.0002979108000879439, 0.013569555041088598, 0.007875762330913904, -0.006129055633227701], [-0.005395250897282242, -0.0003006718379239638, -0.00967776900583168, -0.01577888817309506, -0.005887213251720356, 0.009003178596681392, 0.0032667643092718834, 0.011295907209523014, 0.009096050740890104, -0.0021496014013561455], [-0.002890201358066942, -0.002787952385679532, -0.007077787210668724, -0.0191437038270645, -0.0068910122171514975, 0.010337339839365953, 0.0019323843409340923, 0.007528363305019851, 0.010925102923486805, 0.0036747838099369864], [0.0009929018702745569, -0.004648030162425926, -0.004355990135335136, -0.02047298232757543, -0.004518679811653583, 0.009200589925775268, -0.0015321020563818654, 0.004938329397926055, 0.01059946161377338, 0.0056610443847709595], [-1.67026978902872e-05, -0.008322194514328429, -0.0034885345461119523, -0.02285959695634026, -0.004838860865598448, 0.009188614521357469, -0.0027545940578710187, 0.004134304683761004, 0.013428151866098565, 0.01179408313605554], [-0.0006671545293525359, -0.012565679859528403, -0.00874943524511013, -0.02538598557711809, -0.0012157592741228829, 0.013476777527775409, -0.005286708191898647, 0.006096286979073666, 0.013026993870936705, 0.00978886872440207], [0.0008235603241542506, -0.01649943823312867, -0.010791530801027243, -0.01950102463186525, 0.0040638106864319835, 0.010472924165890204, 0.003060032095514263, 0.010105563347361334, 0.010947314006033491, -0.002717722649295817], [0.004711790966518022, -0.004683193833442654, -0.009691455729363033, -0.007118233536452278, -0.004888196091976851, 0.0028962823205506425, 0.007760075903427076, 0.017483539558733784, -0.0027975967368486033, -0.010555487686902879], [-0.0023460319522825594, 0.02801603033849921, -0.012891928379604213, 0.006840891452019261, -0.01251194839269883, -0.008502453329541046, -0.007343375519161642, 0.016823237718239643, -0.021985014290928574, -0.012688300948858906], [-0.0021494143677290235, 0.02766233746305472, -0.008735403711819655, 0.015377218639294487, -0.00823631810927141, -0.015458664342580733, -0.020913174430773722, 0.018502222223113516, -0.027233036464797043, -0.0069348722346870804], [0.000168887845170805, -0.005835830353736612, 0.0023358846742148436, 0.01666752263079619, 0.0005429036532128598, -0.017366705559428732, -0.02128084252002076, 0.025803360770691057, -0.017281340819483328, -0.00035505843964648507], [0.003027547600749763, -0.007555299814736149, 0.0001842278746795041, 0.008151103306390288, 0.00885888514283853, -0.023092308631413597, -0.0206873971830255, 0.020190745709882257, -0.007890622858344626, -0.0011052386158762356], [0.007869168503643761, -0.0031512239511676467, -9.795298253506237e-05, 0.0029751236692828835, 0.002077421130563717, -0.02367038347492872, -0.02009846082079687, 0.012004540656426489, 0.004588460864524805, 0.0005343593199514232], [0.01384763210396442, -0.003956050582192722, -0.0013860131506548052, 0.0028941714629162293, 0.0002496902250043043, -0.023847235772666807, -0.02095112184707772, 0.009384640793226812, 0.011034329961110164, 0.0034421686697578423], [0.015867991549701144, -0.004333741586343856, -0.006651922463874179, 0.005534629923721204, 0.0027881039425642863, -0.025410060260616544, -0.015791658834947354, 0.007347885115656871, 0.00962375780780433, 0.0017531066244307666], [0.01445143803961983, -0.0030179577845733667, -0.002034208798872412, 0.003049603748422418, 0.0011586969445171692, -0.028233797015851637, -0.01595997530617724, 0.008987911928074297, 0.016424411168406795, 0.00207457390671279], [0.017419890285291135, -0.0015771332040251994, -0.001053599813645415, -0.0009252021241610053, -0.002136595823908864, -0.029835200078933217, -0.017094756743280076, 0.00656331562751602, 0.0227460007029106, 0.002632391802205845], [0.013198118058889452, -0.0045609354892888745, -0.0042614456455320965, -0.0004800461404556208, -0.006729706527105404, -0.014117641106761166, -0.013477905806368833, 0.0011416058019248156, 0.022723647944092398, 0.0009496916425103993], [-0.006409356496496114, -0.005351761190683253, -0.00551440928996158, 0.003327051682303521, -0.006621278481120367, 0.013463852529373625, -0.008162132417910138, -0.001139512797722276, 0.01116700053445175, -0.0040897639615076675], [-0.009128694379268708, -0.0029757924893261444, -0.002875719455208801, 0.003097655359273809, -0.0035866868430424735, 0.019731175778388215, -0.0030041704126164775, -0.0013934555890619425, 0.0027517713915671516, -0.0038193164894682], [-0.002564528613930612, -0.0006468288044672675, -0.0004603545946559912, 0.0011927621398205648, -0.0005135379655095613, 0.005196032003501745, -0.0006140978889763131, 0.00029107741174453614, 0.0007182301594614317, -0.000897777746410981], [0.0005167708211233286, 0.0009141077455377296, 0.00014602257157812654, 0.0013600743417768438, 0.0006229214101698664, 0.0003181243977832107, 0.00025370528209884305, 0.0006575354069879445, 0.0011441449861541192, 0.00013081625567785548], [0.0007183241110552562, 0.0009010069187688982, 0.0009411867828312739, 0.0007586164486287493, 0.0009277108096498308, 0.00046840134979808006, 0.00027212113970061843, 0.000599700060904146, 0.00030916087558354664, 0.00043964475960230325], [0.0004621354688036248, 0.0006156879439738834, -0.00027104784833527237, 0.0001050812730165783, 0.0007062789748941128, 0.0007696799016695997, -5.937085561863631e-05, 0.0025481657516756603, -7.637186471481611e-05, -0.0005588697260640582], [-0.0020057735955680647, -6.539227720285942e-05, -0.0004211470634040902, -0.0007990967938127572, -0.00048039877293096504, 2.0118151182123996e-05, 0.00026433885021262245, 0.006389653795455264, -0.00044470851511977283, -0.0023699235883081833], [-0.005058374518761412, -0.0005617312072137704, -0.0002787118038424881, -0.0007809385365303153, -0.001567152621135151, -0.0018132771974862397, 1.3758619913192276e-05, 0.013152883697356248, -0.0014282053400791223, -0.006374518357987485], [-0.01007830495272124, -0.0017462543449894429, 0.0012291928607540185, -0.0036879432016484826, -0.0037948782837858097, -0.0005952169846701942, -0.0009443701501084754, 0.01613674761177066, 0.0003355613061285134, -0.006692356052075367], [-0.012084059642405167, -0.001657386784996489, -0.0038459590261047836, -0.008510411791190145, -0.005517554572638036, 0.003913864623386551, -0.0017555351939353794, 0.011220431082016221, 0.003333362395545016, 0.0013536655162821587], [-0.006506061877568258, -0.0011325887214758878, -0.011273079130478737, -0.01239506687771012, -0.007349589402609355, 0.008336302597589468, 0.0019119413672574073, 0.0038461232795016466, 0.005635298100889754, 0.008207988362141707], [0.00010055311690570247, -0.0004535355134198804, -0.010533758972940436, -0.017234641136367582, -0.010080670661675251, 0.012922286685537814, 0.003431324615963088, -0.0007638925378217294, 0.007616399519194095, 0.014803522363030211], [0.0005886759688985678, -0.0015175333060013535, -0.007827293073443826, -0.018153030427091956, -0.007377208555991201, 0.009724697693974164, 0.0016473117830407844, -0.003599719695118156, 0.008982379889053599, 0.01569491079305213], [0.0007161399023482516, -0.00418622484503222, -0.007688570736329199, -0.019139764713728094, -0.00488062552216723, 0.010500217169998148, 0.0005823713585747018, -0.003839917954429507, 0.011031929789782915, 0.014504486398491825], [0.003041143884609371, -0.0029781082604612105, -0.011798786094291401, -0.024391448811234936, 0.005496251037909953, 0.009918789082517324, -0.006535152465973148, -0.004624501727528855, 0.012758455311914585, 0.01346253002712725], [-0.00026148777352197957, -0.01186160408304247, -0.02001724002782879, -0.025018554451156336, 0.014292496902803332, 0.016299822407457875, -0.004621913037801295, -0.0035279855484709453, 0.01994731531442592, 0.0038245877549072807], [-0.001417804635523938, -0.02934239032981289, -0.021881469194666547, -0.013685632324046435, 0.010508593981229516, 0.016661509414612148, 0.007721815092908059, 0.00031085476978837595, 0.03083586514938571, -0.002503748240000995], [-0.0022426984779529433, -0.01103164096944036, -0.023349975386590074, 0.004769047317066278, -0.001599338321610753, 0.010665064813607466, 0.009024891233530953, 5.797427232695446e-05, 0.01727063593475171, -0.0028501904412762853], [-0.023301835217862013, 0.047405981959439146, -0.03635628826947219, 0.020194700450790262, -0.004997389039166428, -0.00808454570936774, -0.011122148668139166, -0.00581017337775222, -0.015022455749530114, -0.0045749980065653735], [-0.019795732434323653, 0.036959979705897913, -0.01793555318402458, 0.026124675166961445, 0.0012905328644086758, -0.019113531870959558, -0.02021711362104416, -0.0007584299842752938, -0.02406464435028862, 0.004149551907277334], [-0.0056002962194350555, -0.015776167686776157, 0.005911950327964936, 0.02034820299108326, 0.0143768435900624, -0.016426033280126724, -0.009384025207783435, 0.010750959288967075, -0.009207216929798536, 0.009529193284571148], [-0.0016362733308243607, -0.01522050943406, -0.0001907752539309112, 0.008056237061657142, 0.013220831853433914, -0.02859086330222986, -0.011005720496671477, 0.014559651894545347, 0.004298042737850937, 0.00982510841346678], [0.002495371650769318, -0.00015910447807140684, -0.0013653530007692797, -0.0020118152468331795, 0.003231441145434904, -0.03061530023848672, -0.013187909258220306, 0.013062411482379863, 0.014611709233210257, 0.0070316734506136085], [0.011192505976734237, 0.00010689187879928149, 0.004559810332024133, -0.0009267527889198485, -0.0022033726257173433, -0.029690684244981405, -0.013751508751380998, 0.006288059052788238, 0.01572864423870971, 0.012015721038828498], [0.015268616348547624, -0.00016204716987036047, 0.0017890724697078577, -0.00048378593558969147, -0.004902089517534043, -0.029174124152536805, -0.011239143506896952, 0.005115263368602191, 0.011870228160663063, 0.013362263200875382], [0.01785895589162214, 0.0027456170949253086, 0.0001402170578282569, -0.006325187871558595, -0.0032202353531792546, -0.03446177830249478, -0.007651200325169979, 0.004735036567533245, 0.013636735756915491, 0.011872536606221517], [0.023028163138542848, 0.003807423745586, -0.005983562568439191, -0.005288074196295889, -0.0033202400528262576, -0.042603675274854334, -0.008360755229510726, 0.002433308658971138, 0.015730013040148393, 0.00991822567652515], [0.02196632900918154, 0.0019388202223753997, -0.011091359229411193, -0.002129333213950708, -0.003306404702126107, -0.03291148746710602, -0.005199193131883125, -0.0021379506086234125, 0.014237268629767673, 0.0038643837627714123], [0.004099267402695362, -9.614665288847025e-05, -0.004304051091927138, 0.003151623851589944, -0.0035041686786779045, -0.009324929608908501, -0.0036548539497849642, -7.301995027267145e-06, 0.009088194792359682, -0.0011283183208932054], [-0.004215287618615475, -0.0009820359991856982, -0.0012650074311829245, 0.0019421952444494367, -0.0009380353385643513, 0.006123278446085691, -0.001278138473228202, 0.00027423249939029817, 0.003667900643462365, -0.0017305808614002359], [-0.0008589746535802332, 0.00047436603629847783, 0.0002980151194685, 0.0009597449718377878, -0.0001063191551532371, 0.002575430875792781, -0.0003573178125133669, 0.0004578059056252873, 0.0021757902046945017, -0.0003197157018168765], [-0.00010198820332892637, 0.00030239083993654055, 0.0006006959731489085, 0.0006556900442194787, 0.0004058971800571573, 0.0004836884798530275, 0.0002613078319547428, 0.0006214553901290236, 0.0007219999372359157, 0.00022572598584018474], [0.0002737031909061146, 0.0005785906969095153, 0.0003323440649142174, 0.00028372444892938207, 0.00041605181387984434, 0.0005840330584323641, 0.0009082934728828336, 0.0012484808938857657, 0.0009378625185100161, 0.0003201748072008602], [0.0003650747775808018, -5.510000627383758e-05, 0.0009887871122409412, -0.000169388548625139, 0.0008495024845991804, 0.00024238103739266962, 0.0002586709995377899, 0.0014244104852563389, 0.0011675408649236534, -0.000316015505657621], [-0.0014338025910829494, 0.00045511865570928354, -0.00039044537512190306, -0.0008430206916928342, -0.0008357549594344135, -0.0008794809417969058, 0.00023313250536772032, 0.004884757778786165, 0.0007506175674633202, -0.0012693562713750775], [-0.0040405103017175335, 0.00017014842441423424, 0.0006625838538354482, -0.0017088388733314467, -0.0017488532040203018, -0.0006005179028122456, -0.00047222321668374427, 0.010540108050076227, -0.0006361536850106025, -0.0034594785606403143], [-0.010219932270133, -0.0019023881540424774, -0.00024926567790760503, -0.004436689558282454, -0.004287426910401175, 0.0021701046188941347, -0.0020158568712311795, 0.011384351570737975, 0.00048247684468982115, 0.0013102155035098148], [-0.010515230235462341, -0.001660466866149041, -0.011059726732090056, -0.006987391084813605, -0.0043888437779732005, 0.006361635651958158, -0.0020173771722680495, 0.002110387912558885, -0.0002397194292735797, 0.011812779523900393], [-0.0035824531738121936, 0.0005342010185956945, -0.019931939241417444, -0.009999422414278874, -0.0017100557115288435, 0.011858432565371408, 0.001847667492973182, -0.007514934261850604, -0.0027541684906293583, 0.017300869276555515], [-0.00022640416041962998, 0.0006390868998176222, -0.016426433747739926, -0.01305425064339623, -0.002264982958939574, 0.012018699084098002, 0.0038961566727954236, -0.008787060892848583, -0.0032352829973976926, 0.019328654156299897], [0.0008671402173223519, -0.0012720611860449263, -0.010750083763354358, -0.011370779483431811, -0.0017227376135094208, 0.012029676748509216, 0.0013856165116877574, -0.0073964269589088015, -0.001438648607897757, 0.016038828423377952], [0.0015441028825363785, -0.0012614262889455807, -0.015483091884874211, -0.01044841529686028, 0.006741973994155127, 0.008138836424042738, -0.002135844110076418, -0.010946101543245839, 0.0017037489391299068, 0.014329804415637325], [0.0011959429523898885, 0.0007505150328986168, -0.02444964102047267, -0.01157237286251724, 0.01635223287644396, 0.012603455782056426, -0.007488167124664605, -0.012503105054811229, -0.0011426485514967936, 0.007258558717262793], [-0.005594502731375942, -0.014442150720283781, -0.032757485925703794, -0.0071444334691853064, 0.014998070118228617, 0.019101261720676735, 0.0056243198376602944, -0.008957482308890308, 0.012996210041004036, -0.004922706810128498], [-0.004655250853316364, -0.043288102071942516, -0.024056468971382958, 0.01003355969533027, 0.003190867678906423, 0.02245890840432496, 0.017578597023495887, -0.008829601999517578, 0.037921844924627884, -0.004148973601971238], [-0.01247586086627166, -0.006158880323131536, -0.026628074752529107, 0.018523908438350105, 0.0015537559421099495, 0.014992139047301031, 0.004567647374696773, -0.014682453173954385, 0.026047049645476696, -0.0013237966600929073], [-0.04397249860945044, 0.06959298873031275, -0.04926001580407565, 0.01890629320742866, -0.006197768552486218, -0.007973989372262492, -0.014388814954523339, -0.023684761579093584, -0.01047423101083851, -0.0012580573267620613], [-0.027452149405151755, 0.028506306156032214, -0.01807932980556477, 0.01460888553272201, 0.0007371513058386534, -0.009487727137351616, -0.008096625727990713, -0.010952001079438863, -0.008564982930212319, 0.01171599860907892], [-0.01088717579863403, -0.026527101177454788, 0.00015120211832321922, 0.014478785666074594, 0.012861927222357182, -0.008771660842636015, 0.002570649776558608, 0.0062836697965136835, 0.005945089908246839, 0.015017322244931757], [-0.018332855692787847, -0.018740338869715552, -0.00991878866679588, 0.0062969921863231205, 0.015417356860385764, -0.017280425701127228, -0.003644867448190945, 0.010616943625847511, 0.007902258816945005, 0.011238156706315111], [-0.014847049073639432, 0.0028058992438193234, -0.001223147880032401, -0.00182888333252475, 0.0024853404705913514, -0.015266425769062316, -0.004022000172032591, 0.00744434498988351, 0.008382136749961393, 0.012234636166587109], [-0.004838780183181234, 0.0037372505752927307, 0.008331385646650803, -0.0034329118773553384, -0.009100413051600524, -0.012435374012463956, 0.0008725701064780646, 0.002900607778834206, 0.010131656133019945, 0.016236392805470765], [0.004457024188686762, 0.00044505102571251986, 0.005074508445924237, -0.0038934754467480795, -0.010900024221886264, -0.013221374542943915, 0.0019507326102117986, 0.001961157249738868, 0.0076085010093197595, 0.014608908166245564], [0.014830162005370687, 0.002559375655844747, -0.005684970978112426, -0.009371875915757635, -0.007720852879116178, -0.02397559686157527, 0.006900271649698289, 0.00022339988632800127, 0.006813966265154344, 0.012636052245075557], [0.025126771006892125, 0.005879329775006508, -0.01842088178112301, -0.007088381172371793, -0.0029725384836691493, -0.03634650310009126, 0.00707222914484365, -0.0030551089379524275, 0.002651234851456956, 0.012203685969346853], [0.02398256562479856, 0.004712241024590759, -0.020797081454934425, -0.0017826536831805643, 0.0012807707780062541, -0.03605944143463592, 0.005956457059165705, -0.005880879772837688, 0.0028199722795925327, 0.004919733918908387], [0.0059516160864959596, 0.0013913994695596878, -0.007663169212991703, 0.0030510386564930603, -8.261824920275995e-06, -0.016989995680674205, 0.002884206373693075, -0.0015431674433105378, 0.002142895633454613, -0.00044980479646282505], [-0.0019095087952198777, -0.0007652152961824685, 0.001325748095835366, 0.0023258456701576932, -0.000920148795416439, 0.0014536955461431052, 0.0001420179610093971, 0.0010886869768305845, 0.002476459382244162, -0.0017733001954415933], [-0.00019124377203406261, 0.0009311842208610355, 0.0012249687644824885, 0.0014879991867001972, -9.178532631283776e-05, 0.0008253382025150152, -0.0006707723850059929, 0.001301608983865665, 0.0012953521881179375, -0.000553218190942954], [0.00038419246212420793, 0.0003128961061325905, 0.00010838144426013449, 0.0005397197220941335, 0.000930969923998616, 0.0010937788905319742, 2.2532368169072717e-05, 0.0013024090518681084, 0.0006095723844373633, 0.0006274723710884396], [0.001019062903447416, 0.0010639947244489637, 0.0007925416121096935, 0.0008278693170177535, 0.0012631796043484993, 0.0011448408809375619, 0.000403246485043337, 0.0011590955359869507, 9.737672820824663e-05, 0.0010462670483195103], [0.0006165454450013904, 0.0003319402046407968, 0.0009507811257614618, 0.00016837687436099062, 0.001066112942189856, 0.000436192053074825, -1.0653116346824032e-05, 0.0016631219489817424, 0.0007801833774791849, 5.084313851537472e-06], [-0.0005868881304876205, 0.0007594321067976949, 0.0008793103616969995, -0.00044983415489238405, -0.00011089868612581772, 0.0002167319422165668, 3.61336947195531e-06, 0.0032272468497332404, 0.00029801206854922826, -6.455283448338973e-05], [-0.0031426947400755483, -0.0008845542967704359, 0.0004957498786548042, -0.0018267656425429374, -0.002112222044573202, 0.00038955694034892605, -0.00010224464928758925, 0.006370402064438872, 0.00044354623659825977, -0.00018233456757607035], [-0.009292038780986955, -0.001245381478976788, -0.0035365089827325467, -0.00435511284628913, -0.0008625307733178217, 0.0025401819225032416, -0.0020436437933198416, 0.0043011565954767204, -0.0010314234123081063, 0.005680578260910631], [-0.0058505082368951996, -0.00026480911790282527, -0.01786041676904346, -0.0041386366275276, 0.005294793223790842, 0.0060605053025964235, -0.0031694083141687117, -0.007296376383736041, -0.006295063617774456, 0.01540399776263876], [-0.0011364852296850431, 0.0013640158679592124, -0.02421916497572702, -0.004766368067214713, 0.011638142874885574, 0.007178395410648949, 0.0014011227525127692, -0.014564550292044499, -0.011650562245333803, 0.016393313152521106], [0.002470694834027099, 7.239523129014054e-05, -0.01929535989710253, -0.004708668694318984, 0.01261448606600548, 0.0069312922833712634, 0.002491350093972465, -0.01469435535576488, -0.010915401624280105, 0.01455585291023163], [0.0012964701409498617, -0.0007171914456998505, -0.014633741282420244, -0.0026894315830522956, 0.009905072617886843, 0.0064585020161352395, 0.002663782037897477, -0.012140159702135207, -0.008279182121746057, 0.01428204039640515], [0.003592098658257726, 0.002052315356199164, -0.019920925805051223, -0.0046848439199351595, 0.014439165822961363, 0.00961200217659839, -0.00229055333331495, -0.014984872437569683, -0.011347541390753743, 0.010563497957335872], [0.000969868949511857, 0.0024783277602231364, -0.026036564000199592, -0.0032166952883170095, 0.018037541785016833, 0.011609588830658747, 0.0011431029032159474, -0.01480208060908152, -0.021770737682313742, 0.004019484051274646], [-0.004393878778337375, -0.02316813036679531, -0.020126420563031478, 0.007282419301068298, 0.007269417356734989, 0.016690954615406785, 0.016489576345350813, -0.013260236150032455, 0.0026800439912979795, -0.0029365410214850993], [-0.0048872661997280235, -0.053968062933670055, 0.0008828792914337036, 0.02492234169546362, -0.003983671581020397, 0.02178645445744037, 0.016302566144456992, -0.01093295975668527, 0.037763966264669, -0.00021411625289433282], [-0.021861027928574334, 0.014842015225659587, -0.0121588265089682, 0.011003356096940711, -0.0019620112885727573, 0.007586744187461453, -0.005548149941984662, -0.018396583813730154, 0.02104352510051362, -0.00017864426754374236], [-0.045026052894914945, 0.06789073905001222, -0.0372515438175981, -0.0036290334824770963, -0.011048907158863117, -0.009364253855128969, -0.012556002667479527, -0.025950310026004977, -0.007038954613378997, 0.0056144943451868256], [-0.0217759890027867, 0.014875853176772464, -0.015963862543468682, -0.0015235901213054705, -0.00430151849344482, -0.007382773525803864, 0.0032712682978098804, -0.00799331499053456, 0.004126112989013489, 0.015153578845972751], [-0.010944850320433536, -0.03326289616898819, -0.0021335946803833594, 0.018066765802540092, 0.00910848689142249, -0.004603354879865481, 0.006469481162340734, 0.006190403324506694, 0.009094209046031813, 0.014160080584816716], [-0.03152591459034002, -0.018965557480526446, -0.012215222924344956, 0.01386182460022226, 0.013764087307254598, -0.012469777926807766, 0.0010191273524824762, 0.008357972591328481, -0.0019580035169817376, 0.011999333632408755], [-0.03014965168707633, 0.0059697097752772765, -0.005421861669720438, 0.003603576527256736, -0.0005506544997416975, -0.00434973654907605, 0.003546366397635463, 0.0016495934651784528, -0.0049161308992384245, 0.014205716690362075], [-0.017839369274508802, 0.004411984898223192, 0.0026851589946085613, -0.0017895735777083144, -0.006601429931731135, 0.001455535290591941, 0.007635394784195064, 0.0034606653231755383, -0.002208380879513791, 0.01368528819103204], [-0.004644982323881064, 0.0012362334996970955, -0.0012680181605103, -0.002305866287064202, -0.002717115140097494, -0.0035297614303786123, 0.007155799651864031, 0.002437224653247196, -0.0005242145789074987, 0.007887670241791758], [0.013641916605710491, 0.002735558179938248, -0.016189109302289933, -0.006242573211222191, -0.0011449850237589625, -0.016253964570364425, 0.014449137031849977, -0.0010916293465780783, -0.0037264268928067475, 0.004925450411682636], [0.02459885586805291, 0.005483875621706908, -0.025310525256295055, -0.005156820280465872, 0.0019692933787646256, -0.024885161309540063, 0.01801890344885334, -0.002610209614495749, -0.006159909619011888, 0.002722137756539723], [0.020412980256196336, 0.003633061764882265, -0.024286320748281378, 0.0010655638798860777, 0.002881178878054053, -0.025573487418862974, 0.01750639955660463, -0.005204672099453547, -0.0058703022401460575, -0.0019929754359053406], [0.003781322876359477, -0.0004952029947208688, -0.011821025655549232, 0.005055706705162225, 0.0006664360232910223, -0.011461072056318803, 0.008811221522570929, -0.0011224367114268596, -0.00365044671923448, -0.0031541691488302975], [-0.0010974481300601354, -0.001665383006455466, 0.0015585724140682977, 0.001820091206072288, -9.356629119670528e-05, 0.0006836875211262488, 0.0015475749332537188, 0.0009580390855538178, -5.4280587136710136e-05, -0.0014460370370242982], [-0.0002789683553541843, -0.00037163109483575197, 0.0025672051480655255, 0.00010357150331443595, 0.000715729411423479, -0.00012246195337092193, 0.00014823361664206939, 0.00029969740444319364, 4.438486676434901e-05, 7.304478913200928e-05], [0.0008107088703795299, 0.0003023763342874622, 0.0008301945165030893, 0.000912061398635227, 0.0011327395837822773, 0.0008623838831711472, 0.00025403431549410435, 0.0010818479741847708, 0.0010209090143025606, 0.0005241528930071299], [0.0004976396509424357, 0.0004410687806078796, 0.0006629496096995648, 0.000272945305295079, 0.0001539729164477546, 0.001190696476412823, 0.0008403011269659254, 0.0006687084129433494, 0.0003112442812909866, 0.000938555051292321], [0.00041469134711770125, 3.1064009338513686e-05, 0.0006989051116061672, 0.0004091746218549251, 0.0009220484995369231, 0.00022745067753072063, 0.0007783841556081122, 0.0012058349086404945, 0.00010390101666689931, 0.0010139962998140352], [0.00023493893172095654, 0.0005053655511326168, 0.0011888732997326359, 0.00053679446915052, 0.0005554499491652805, 0.00023268028399071712, 0.00010316970971486111, 0.0017089424339211616, 0.000983693120794194, -0.0003680271352116509], [-0.002648763336717817, 0.00047033822277187115, -0.0005488611750220323, -0.0008593028460962126, 6.547031936125013e-05, 0.0001550229534266274, -0.00020526304541024505, 0.003055849681131642, -0.00033913995283854984, 0.0007861414368720634], [-0.007244984321204373, -9.000835919431658e-05, -0.004394167242710217, -0.001981978740634404, 0.005522918094677188, 0.001140465405391134, -0.0039902607378047685, -0.00029616338726407124, -0.0022016472363044597, 0.0055436548435266065], [-0.00039588016842963464, 0.001148546958217145, -0.018912135252299917, -0.00016392082144004735, 0.018481179563361417, -0.0017289256442136864, -0.005270266718000279, -0.01244984812921743, -0.009818141553141115, 0.009422802155272742], [0.0045738354171815, 0.0015208062189338086, -0.021191974265442132, -0.0009162598856312644, 0.028031051732013444, -0.005449151779092867, -0.002051738332578682, -0.015740113595187056, -0.014192790617301396, 0.006821895092593748], [0.006916859246395817, -0.00033603204363284907, -0.0155114450988149, -0.0009409192658630269, 0.025819565340819483, -0.0046867887877714, 0.0011717281775984849, -0.013982188798752824, -0.012221043254356356, 0.005142636589925249], [0.008498763428461642, 0.00011767417615195737, -0.012530028457435683, 0.0004041429875890189, 0.020572561995946814, -0.0014483353594456814, -0.00034777825326958226, -0.014026976272189504, -0.012301696350907304, 0.006990373350374731], [0.010494264880227807, 0.003774572882878052, -0.015646486721077213, -0.002498397741666451, 0.015523165672732592, 0.0024779788201548026, -0.00034775189917622717, -0.01834675336083055, -0.022754566735672232, 0.009017860586348934], [0.00729004445434434, 0.00036105041598927685, -0.01267038395072685, -0.004943488659008766, 0.010875069308559084, 0.00488200259110427, 0.0070823640315245346, -0.01948591780229163, -0.026868795656315066, 0.006120650599974155], [-0.002390192311589913, -0.03190988180092824, 0.005225374909431843, 0.00367585829353463, 0.0031999462397756607, 0.008028999593869938, 0.020165258772407057, -0.01543889659936579, 0.002683531461937719, 0.004394374020476985], [-0.004629770980246457, -0.04337902959980349, 0.022277415273109228, 0.012748898508460322, 0.0031668903450858183, 0.014209399324231911, 0.006434293527443412, -0.01000685352382457, 0.02862447612991209, 0.009443835099402038], [-0.02159782181595664, 0.03549851336406338, -0.008163955437074754, -0.008545633088094313, -0.0009040557832035921, -0.0029570336130326446, -0.014249828499978766, -0.022270479304789956, 0.014391670025137466, 0.004565778101019893], [-0.03563150133837984, 0.05316039194830053, -0.03084332747789911, -0.010632431123938484, -0.00919176860373333, -0.012856520759756952, -0.004706928700846782, -0.023561273874148442, 0.00313844559546849, 0.004063270000286992], [-0.012432075341368193, 0.010338105465291904, -0.016560431468675113, 0.0005964923564455466, -0.0024574517757750564, -0.00320691455756832, 0.008089228538557914, -0.0017898157398794098, 0.0039025290319150744, 0.0017599226620648271], [-0.013754448740555958, -0.038545508410166865, -0.0036169240723962766, 0.022206050239638925, 0.009496530709023638, -0.006456290760182672, 0.012885199861875021, 0.010641411939102783, 0.0046496033200429145, 0.008724918870070026], [-0.036376808217706856, -0.012476332868450127, -0.019249757313221254, 0.01849453273362367, 0.015429502924373647, -0.019392525298613218, -0.00014839267469437633, 0.007776503829478049, -0.012754241219325215, 0.012234980714485264], [-0.028546759360002873, 0.007175336599724133, -0.0076743539212089824, 0.012022612013449582, 0.007546246360184711, -0.00517819517072523, -0.0011182865846232866, 0.004274539797496776, -0.017266996217900777, 0.005110550578949098], [-0.016907525670678478, 0.0017402383416871936, -0.0040731967731904226, 0.005406083721367779, 0.012882665015340165, -0.0014268599700060067, 0.0013668991461094182, 0.008104346626289194, -0.01029716253072264, -0.00269411238322707], [-9.857043425866703e-07, -0.0010403455762071656, -0.00911800588905389, 1.0601499876099385e-05, 0.011867557282559707, -0.005732306676038171, 0.003825847117134074, 0.005593220316382851, -0.007482536852113136, -0.007464925512489651], [0.014917250079995883, 0.0009031348749926083, -0.018653729257248276, 0.00021625637595605504, 0.007834712830979473, -0.011717650888488662, 0.013923469882779269, 0.002797121430158456, -0.00797420924733025, -0.007813330006044188], [0.015633300612050968, 0.0022488893138396773, -0.024808289782233785, -0.00010341480597989011, 0.0066041840757498325, -0.015763734993229653, 0.021598947223183694, 0.002454135566447033, -0.009807838162355198, -0.007883004377317331], [0.014222579941599256, 0.002376713104067257, -0.024951593464791953, 0.004186684467387848, 0.0066169437145511024, -0.014554631151891618, 0.018411242626498094, -0.0026362037694998763, -0.008477586198419018, -0.007921051599511878], [0.0019702389628801506, 0.00013594560178226923, -0.01294623029476284, 0.006725976189147536, -0.0002219637669889982, -0.0064909832752393995, 0.010981554010982303, -0.0014081883854290334, -0.005049438008372939, -0.005706422635660256], [-0.002730724147206607, -0.0016874924539300037, 0.0034622967128016087, 0.0012941741039653738, -0.001415010273150767, 0.00011958660896635518, 0.0018202827133009267, 0.0019624417005838853, -0.0005951043593177386, -0.0012924319845513078], [0.0002541300920984606, -0.00025841507325443226, 0.003323293021433313, 0.0006570642595788798, 0.00024973243042443466, -8.085131347787537e-05, -0.0002932697127011303, 0.0005334022981698304, 0.0006037834546087178, 1.0727291121473737e-05], [0.00010245737512527175, 0.0010174437716399835, 0.00039047527789278657, 0.0008486859779163518, 0.00027179025890845896, 0.0009289491598890793, 1.3181366481802682e-05, 0.00024100782952129462, 0.00039015415622704094, 0.0011020848162922449], [0.00015324847507073764, 0.0011738977714063907, 0.0005742507880240463, 0.0011937417226211026, 0.00034213581897598477, 0.0009047640748865388, 0.0004440579898818814, 0.0004262534611973705, 0.0011384554155468428, 0.00013524235128829732], [0.0010084631070769589, 9.906313484064662e-05, 0.0008770684767846717, 0.0003519341456827683, 0.001132200894934897, 0.0010999498863678689, 0.0010484344998041488, 0.0011132578311392413, 0.0008766672722509444, 0.0010716134344164459], [-9.420283252417275e-05, 8.628020887867252e-05, -4.54059384683299e-05, 0.00042494906751356574, 0.0007997011186485689, 0.0005189353879131844, 0.0010776068082621944, 0.001481042584682976, 0.0006720283113331752, -0.00012245475984355185], [-0.004143322947627209, -0.00022000199544188308, -0.0009209947845333996, 0.0014130933630972999, 0.0016706807798168408, 0.0001246935299348179, -0.00026430985445091606, 0.0022311611233172945, -0.0002805491099702061, 0.0004989350865499575], [-0.00413512042772283, -0.00026694037403320145, -0.0020224786895647884, 0.0015472147625885402, 0.009314233848731132, -0.0008038127443216054, -0.0048925299895857125, -0.003245516861197568, -0.0013444574199432872, 0.002569626018768421], [0.005036260016798008, 0.0007468716201539928, -0.01101067205516595, 0.002090962012782489, 0.02361407744177342, -0.010936110816042193, -0.008121607425618266, -0.011271226156856677, -0.008560027938400463, 0.0008839565411143326], [0.007293595732949315, 0.0008923890325468795, -0.010887530117281647, 0.0006220014121786204, 0.03176892121948745, -0.01682549256510578, -0.003874443323457287, -0.009801682936466228, -0.010004736984883964, -0.0028381127559348462], [0.010183042699954304, -1.158728643565606e-05, -0.007181306007683571, -0.0008643076463731904, 0.027947019168421166, -0.014162802018915278, -0.0016424174717252647, -0.00970813683945948, -0.008437188297794143, -0.0024093156220493135], [0.011402334594543134, 0.00041112605662104877, -0.005427956380892533, -0.0016563203917235605, 0.02304309535290018, -0.006848662396596166, -0.003128168371640175, -0.014633676437666342, -0.01348715590289384, 0.0009511212768978809], [0.012419143032818719, 0.0029229397281599736, -0.007965163114835796, -0.005846450242193959, 0.011279686009654635, -0.004511229076304906, 0.0028307543812609924, -0.017456880091966512, -0.02051079605887017, 0.00641532737673538], [0.006687308662584863, -0.005292920176444, -0.0019960953414657396, -0.008588072158107626, 0.008027334038426603, -0.0031882383213228697, 0.01019651173751685, -0.016182526892918114, -0.019930530236617987, 0.008247537079322747], [-0.0034105912141388865, -0.03124187070944651, 0.015767273976793804, -0.0026402366998263447, 0.014058788976497087, 0.001717116890464059, 0.012505379096676929, -0.012418000230050196, 0.004850620118339286, 0.007480046139646915], [-0.008564569732279337, -0.02403925455158507, 0.023313450814926938, 0.002409093734956481, 0.016577813044708876, 0.005164437074526429, 