[[[0.00025271803567629664, 7.616493267385342e-05, 2.530711012583779e-05, 9.340443942929866e-06, 0.0011162039003649934, 0.00015013489646961456, 0.0011491610078510248, 0.0011943473474533767, 0.00028673736177772216, 0.00013731705476992574], [0.0006965831124640073, 0.0008259771391222059, 0.0011956682539393975, 0.0005967034821104293, 0.0005618885352877992, 0.0005376834739254527, 0.0008962144969513437, 0.0011623873335313238, 0.000608213233976374, 0.0006924674044589641], [0.0008557328777471026, 0.0008634931698987643, 0.0009956625444419863, 0.000286880999897445, 0.00015905292732122528, 0.0007794084160869632, 0.0010373388284185957, 0.0009141616577664675, 0.001155223802653899, 0.0004662750513313071], [0.0011122424380445204, 1.7157122371574678e-05, 0.0010105909115502465, 0.00026802134565067975, 7.467350265085165e-06, 0.0002264886726186225, 0.0003701231903078362, 9.876100476316725e-05, 0.0008628225968591476, 0.0007801086424090991], [0.00027432807573171577, 0.00026045891491986207, 0.0004125998986844677, 0.000305700312353556, 0.0006592310630649257, 0.0009736944963602074, 0.000537286250689898, 0.0008595224158859648, 0.0010862316162443758, 2.673784322681366e-05], [2.1417490137804257e-06, 0.00011097178805431067, 0.001194879815422581, 0.001187693516200461, 5.3116054119769766e-05, 0.000680750963774533, 0.0008644016710526641, 0.000438336006628038, 0.00012650571380583866, 0.0012547606639787931], [6.509094135875745e-05, 0.00014225448439487647, 0.0004915700100122088, 0.0004384363628192624, 0.0010205606860418813, 0.0009183195996242598, 0.0009965298717725423, 0.0006590536643238388, 0.0010275987821795765, 0.00015964423618710177], [0.00020505954287472567, 0.00120394407531661, 0.00034071553138453024, 0.0012421553896251787, 2.5040350582074124e-05, 0.001166121099989684, 0.0007254849858957016, 0.00022386185337788713, 0.0012340421817564685, 0.000697837651609725], [0.0005929886793896816, 0.0006566332730376541, 0.0007295007886549979, 0.00012132659732522071, 0.0002203012666231953, 0.000689414429721005, 0.0010764083564520665, 0.0011762691669525715, 0.0005447395652618158, 6.24305369008113e-05], [0.000740725685125142, 0.00048649325725176265, 0.0010830529312300095, 0.00024162188956377038, 0.0012735395605346174, 0.0010374817343350635, 0.00037637489905577174, 0.0010760721456095125, 3.90921589751146e-05, 0.00029999018967964496], [0.000230430765446626, 0.0012533509369476023, 0.0012027426355989731, 0.0012442980189569183, 0.001100372696079675, 0.0007506829607582059, 0.0007527780364362315, 0.000843851463346535, 0.0007072627801955145, 3.709721802376978e-05], [0.00018001774568702402, 0.0011371146295128698, 0.00015114962725278338, 0.0006068420006873009, 0.00017450366938828689, 0.0006510986517306833, 0.0006912286384590661, 0.0004931665354958641, 8.046245969692703e-05, 0.00016538298154862658], [0.0004592276440924387, 0.0009074128527256656, 0.0004670743646966966, 0.0004382452171825635, -5.861622584068519e-05, 0.0004629418279403869, 0.0005452914153720592, 0.0007315224240260635, 0.000869760953899712, 0.0010435461899673975], [0.00017713405122261278, 0.0003856404191572941, 0.0013165266232514103, 0.0004204553133957229, 0.000701760834440834, 0.0009785582688653855, 0.00037906555558623505, 0.0004963419784655202, 0.0005281214346393399, 0.00025527036070778063], [0.00010886493009977763, 0.0003884725656769551, 0.0006862403961317153, 0.0008510568711602047, -0.00018179241171002267, 0.0002387007225928308, 0.0005083530789343463, 6.335986679021218e-05, 0.0012228527500972963, 1.5800460236171566e-05], [0.0004718062997864958, 0.0009918599164218495, 0.0002123086664560071, 0.0009792664607624864, 0.0002728432352776694, 0.00015771923794451873, 9.521197545523863e-06, 0.0007023476347695634, 0.0010754490654198605, 4.269202611038402e-05], [0.0007071512954710153, 0.00030108199693069384, 0.0004967264161611573, 0.00020408932659639247, 0.0010445942885200913, 0.0010361503690003338, 0.00010026653036602596, 0.0009437754720932577, 0.0003118541166356283, 0.0010170229740673082], [0.0011079169646336748, 4.850249573833928e-05, 0.00023420766273835993, 0.001240178798624353, 0.0003157800095173566, 0.0012148300030767922, 0.0005114395113778187, 0.0005734467527499935, 0.0010813955584931653, 0.0003291081327089624], [0.000618721513055859, 0.0003804795931442242, 0.0003831358906497045, 0.0001662086851275709, 0.0009515225465870177, 0.0012554683059689425, 0.0011805142992556412, 0.0008707669190758633, 0.0011009417702547506, 0.0011726614189215142], [0.0008929934794750598, 0.0004376319157765417, 0.0009751197910789256, 0.0007465879217724893, 0.00035400554829468636, 0.0011768974859012943, 8.426230550115135e-05, 5.496714672048413e-05, 0.0010156794878828277, 0.0005350170457168257], [0.0010010146094259836, 0.00025404493391574805, 4.4108139451273274e-05, 0.0008988488419712512, 0.0008687220047607586, 0.0010695586719907326, 0.0006758329916390981, 0.0008254366577898236, 0.0003876465849704703, 0.0009852326131595652], [0.0011510312352601805, 4.924553700490842e-05, 0.0010406010485367887, 0.000477540805553202, 0.000188118614631617, 0.0007869843227059318, 0.0009450304993872406, 0.0011530339264608617, 0.0010650863758136513, 0.0004979004420578424], [0.00040945683904163597, 0.0002966375450869398, 0.001106776870581084, 0.0005953791225481065, 0.000671342623876017, 0.0004301441451175137, 0.00038350926465104536, 0.0007516541811574143, 0.00041677800253113304, 1.4000048422717347e-05], [0.0006787223167125509, 0.000478054060200504, 0.0006216440297469629, 8.583686947623886e-05, 6.184104066035756e-05, 0.0009863077633802475, 0.0008720927349184349, 0.00042325428290082535, 0.0005413549517511163, 0.0011922701258719726], [0.0012715053775781923, 0.0004858962772352513, 0.0004020037241599471, 0.0007923254609087667, 0.0006571592651178599, 0.0005721129178102333, 0.0010785404880038847, 0.0006969361467610706, 0.00037065624268184437, 0.0002674284857099154], [0.00025325995537478057, 0.0007899999295042438, 0.0006212301795634752, 0.00038749077945450115, 9.113611326178716e-05, 0.0005254166073436856, 0.0011872495617678699, 0.0003510565739988785, 0.0005235804859434472, 0.0010983559855619648], [0.000890535394865341, 0.0008055232453023815, 0.0008152280205233307, 0.0012304790863603185, 0.0005890223548209698, 0.0009683169885870325, 0.0006861966277230234, 0.0009940837046382518, 0.0011347018337324192, 0.0006017155771951009], [0.0006726125117297397, 0.0006648944998209062, 0.0009604627462009812, 0.0006425914399242752, 0.0008880737883213258, 0.001261265400564878, 0.00017954536183161388, 0.0008573589459899832, 0.00018001746046973418, 0.0006496407959426448], [5.393776345982109e-05, 0.00017292738852929575, 0.0005912984272060178, 0.0007347094948580297, 0.0006975358748864465, 0.0005592554040131326, 0.0007220093002158457, 7.869211782037883e-05, 0.0009746971185638191, 0.0002416073013642572], [9.68627395664707e-05, 0.0012153817349761268, 0.0007133206635284202, 0.0005510995003520218, 0.0011610890919039492, 0.0007570064878575203, 0.0012445508087687665, 0.0004858827701762481, 0.0006802421776418676, 0.00039748936455916644], [0.0005041941267867517, 0.0010461719314732473, 0.0011755540621479522, 0.0011270568649805394, 0.0006695557703696325, 0.0010646518696195285, 0.0003015379918998823, 0.0012016903221349782, 0.0007531125263614184, 0.0008014918978881085], [0.0003257505644798371, 0.00011818886878242645, 0.0002184319859838996, 0.00011369341349924592, 0.0003508676359692859, 0.0004027541006704451, 0.00016751398327760113, 0.001106522957081911, 0.001109797552261272, 0.00031239944469411263], [0.000693096121340078, 0.0006378915620850237, 0.0004351320720278479, 0.0003973567836405722, 6.411619958371149e-06, 0.0010549247787347941, 0.00044342669838025875, 0.0008914473040739152, 0.0010943418162119478, 0.0010739497163949172], [0.00021454374229242738, 0.0010843072442910744, 0.00014207493458002845, 0.0010034556976709172, 0.001221363513039043, 0.0009178303325907106, 0.001051538264686549, 0.00012864401516391632, 0.001192026121480603, 0.00034526248187986597], [0.0007384323541648475, 0.0005871473640872682, 0.0002294203858007291, 0.0002770655868874087, -0.0002568966409982943, 0.0007756096203317268, 0.001163191406468517, 0.00012877961487745395, 0.0007552568904972979, 0.0008163643990879959], [0.0004873110543099984, 0.0006318460141952709, -0.0004948667153633078, 0.0007814729648166456, -0.0011936958089556384, -8.393974516180793e-05, 0.0030080278182630597, 0.0004846518006633013, 0.0013239889785966535, -0.00012093724817249976], [0.0005842143529866517, -0.0001427096887621695, -0.0016086811245265376, 0.001241933920128412, -0.002540303329146706, 0.00011340195333002196, 0.005054451800968548, 0.0008216246600020559, 0.001217570812275004, 0.00019146902291731577], [-0.0002902065818405151, 0.00031174399908348365, -0.002328953658938303, 0.0014912024663895226, -0.0031032101055169983, 0.0012162011975242902, 0.005328562710499888, 0.0002449232035143168, 0.0011683408350475052, 0.00038179157844339613], [0.00028123075813244586, -0.000627385587174758, -0.0036057767728083444, 0.002137531992712452, -0.005083478421102408, 0.000880107810220404, 0.008154451001056372, 0.0005238618923771706, 0.001472439024230441, 0.0004608425953946565], [0.0007221926724198281, -0.0012773265725451394, -0.005113836552055978, 0.002973920160268948, -0.005965867233022358, 0.0002123723380218445, 0.009645220412222707, -0.0012313531458885785, 0.001289248209745981, 0.0001614618180604845], [0.0012876210244105143, -0.0008630788102703681, -0.0049861675914457965, 0.002328548021166507, -0.005458745119178838, 8.982621134234569e-05, 0.011506886485193423, -0.0005433893743525671, -0.00014179811547375046, -0.0011704065177934606], [0.0013421208739905497, -0.000840666493844247, -0.004518573326007631, 0.0021786733233225583, -0.005078326849533945, -0.0010683254476496992, 0.010856729545570362, 0.0006031502773165467, 0.0008788889052077639, -0.0006736540565778983], [-0.00029903535277680203, -0.0020523989309527303, -0.0030456749189019397, 0.0021598169519364816, -0.0029919737679968235, -0.0010597668658663647, 0.007783090507624493, 1.729034000013668e-05, 0.001622797901210577, -0.00023083588299927386], [-0.0011840201834419813, -0.0012910971787206513, -0.0023970382667457013, 0.0018423386341890281, -0.0031520801466374147, -0.0007599334686044415, 0.006180780386108178, -0.0002936525298965112, 0.0016870264986653524, 0.00025142898532754546], [-0.0008800744542601408, -0.0016801112812068187, 0.0002172515047159887, 0.002628210932078692, -0.0037595867199384987, -0.0007513546689129227, 0.00537806376902751, -0.001054272918644805, 0.0012835782252630862, -0.0008834301344474867], [-0.00022593496388235366, -0.0015007729390678548, -0.001219520160037601, 0.001871469974671836, -0.003397644443562651, -0.0005585430928360008, 0.007262885124406156, 3.862455050718564e-05, -0.00026335068280030873, -0.0008591192129696475], [0.0002442492163835587, -0.0007411745014648091, -0.002431487186672677, 0.002811167545221371, -0.0019396005217217013, 0.00015350195312276003, 0.006697450634962298, 0.001245669890903167, 0.00012621762663106803, -0.0009744010999672101], [0.00026844733697166807, -0.00021887452950458057, -0.0011611609086230323, 0.001368823534649472, -0.0014324479650461332, -0.0003212362646819261, 0.004938951654251453, 0.0003732887421721741, 0.00031751489947082917, 0.0003825131467824444], [-0.00015950459891788088, -0.0006520361301899952, -0.0012759472374775408, 0.00021195296183347222, -0.0005199315204731032, 0.0003973350140627881, 0.004844799015545336, 0.001190883258731001, 0.00026221037241233326, -4.7713977217842035e-05], [0.0006386907612066435, -0.00012457640862339193, 0.0005692757859322245, 0.0005380053271000168, -0.0009357601056282465, 0.001250536929303153, 0.003272760902318792, 0.0010478228003332351, 4.8648482218522504e-05, 0.00041216677052645216], [0.0003536365252599367, -5.456722458544743e-05, 0.0005345182891090826, 0.0013199909288443355, -0.00021142157920197872, 0.0008078201222968082, 0.0009586245505083509, 0.0013644977277536216, 0.0005980750407714386, -0.00017702929996007798], [0.00014115150490705703, 0.00025328455715983725, 0.0007031043776252506, 0.0009843647324183943, 0.0001370476796160131, -2.5179831074376507e-05, 0.0014305585409420246, 0.0003737126502939216, 0.00028411231040696916, 0.0007599229688530187], [0.0006845546616116856, 0.001062930150514754, 0.001090577428903324, 0.0008559006172375545, 0.00042327257979799746, 0.0007872737501605616, 0.00042446932284686715, 0.0001625652631811448, 0.000531773968949581, 3.213855690609083e-05], [0.0008119853630408216, 0.0005410671698928247, 0.0004305009341076239, 0.0003029746906467081, 0.0006305708700675876, 9.137101340824782e-05, 0.0006023171481001581, 0.000741559927116858, 0.0011322361598529436, 0.000496395097746059], [0.0009602954192616014, 0.0005773553032104781, 0.0005827377465553288, 0.0004760056986525468, 0.0007494227489815242, 0.0007317544038726325, 0.0011906650843911718, 0.000720836698796738, 8.112248343797495e-05, 0.0007752514929123379], [0.0005533544698854074, 0.0006851863628194009, 0.0003258946500895338, 0.0011656266148448865, 0.0007997468289387991, 0.0008947409918065697, 0.00031668365918417833, 0.00046450150919246405, 0.0009576729980615455, 0.0006913219098862907], [0.00016092536758420835, 0.001146736334344262, 0.0006651818209819964, 0.0009948972299777814, 0.00018792116609325598, 0.0012380493267352957, 0.0006298717576838328, 0.00020631416994187245, 0.0006865769585088884, 0.0012638738477231887], [0.000602225166591515, 0.0006413448061817407, 0.0009150473165020882, 0.000557635584623467, 0.0006899698715864411, 0.0011771684830268164, 0.00017251945225663104, 0.0005288495751201208, 0.0005035393511621635, 0.0002973087517397914], [0.0009429367056617818, 0.00035431894946004157, 0.000726690386411639, 0.0010756314367479367, 0.000874098795751183, 0.0006748760823655528, 4.9798687232375445e-05, 0.0009163183821429453, 0.00014921262600695333, 6.185984262900427e-05], [0.00013941866378948596, 0.0006439132430897218, 0.0007888105279507745, 0.0012592704042578395, 0.0005692073129442631, 0.0007745369451531514, 3.814432272147775e-05, 0.0003056672982972151, 0.0012381937124754524, 0.0002790757522515637], [0.00035994757448584486, 0.0008912509509681348, -3.190330732263673e-05, 0.0006212316255147563, 0.00016795431491460535, -0.00011333063448772489, 0.0007872569321314652, 0.00036144804702836325, 0.00031904809471869556, 0.0012118363154709501], [0.0001340595255027425, 0.00040885599596857916, 0.0011353944996832974, 0.000968739504183796, 0.0005038059159451961, 0.0011292465287021582, 0.001105990922486913, 0.000767086433530788, 0.00034845009946784313, 0.0006516348636863222], [-0.0005679246893418044, -0.0004845643618196459, -0.0006111711114494404, 0.0003406223082620394, -0.002783236739573323, 0.001802270469010603, 0.002959155448181152, 0.00032824466996085166, 0.0012494269516177214, 0.00017601636248275996], [-0.0006350082663615042, -0.0004714440937726282, -0.0025599121528310006, -0.00038754632191202135, -0.008247078954830482, 0.0014471126059284333, 0.007824029093685719, 0.00016398486540415193, 0.002379748378772849, 2.7032105871899567e-05], [-0.0025992323432888144, -0.0013678262459912033, -0.005366219092328995, -0.00013895330821354497, -0.012860943468505586, 0.004610915271574773, 0.014460406352768075, -0.0008719660579049693, 0.0028951817604219126, 0.0005780506047328968], [-0.006704292074286399, -0.004623905282325377, -0.008118068868640508, 0.00084328069727479, -0.020177945976771357, 0.007079274515897299, 0.022901015172677994, -0.00035325260332078463, 0.003042116318766833, 0.001690502450295553], [-0.007693543131190358, -0.006288614975595714, -0.014270649205952552, 0.002961235146955287, -0.02981304489411558, 0.0063623208960879385, 0.039200737699909026, -0.00279201599220799, 0.004221075385571047, 0.0001447955825305057], [-0.004009042384159265, -0.004597381497638121, -0.020611596342706394, 0.006974264426089665, -0.038774577274328176, 0.0004327565707416444, 0.0480117385114247, -0.0005498789845145817, 0.00442081142786244, -0.002617848811650889], [-0.005485977614558747, -0.0013176097216582514, -0.029119790083915787, 0.007304669592058236, -0.043780886524442154, -0.005084975555903917, 0.06590457052049668, -0.00018812355657695298, 0.0033355575085188514, -0.00717691413658131], [-0.0058412465057104904, -0.0022684408014179897, -0.03918972774305223, 0.012089485268669951, -0.04544645124275076, -0.006562539455850385, 0.07990260385407012, 0.005237069614194806, 0.0013952554503063313, -0.009075972764626624], [-0.009541679977215233, -0.00839725464687679, -0.040107277085343694, 0.013277919258654191, -0.04072014781021547, -0.01002894955331491, 0.08372378611150735, 0.00750898915616425, 0.00036280099102028687, -0.009593416056157805], [-0.015728955339497554, -0.007952660859820647, -0.03803622829878789, 0.014833386443073754, -0.03387559574155177, -0.014486595489194582, 0.07860735378182099, 0.007856004999744377, 0.0015568082508355058, -0.009798713323585551], [-0.0229598513767034, -0.008744671179403769, -0.03894250333542767, 0.017573698624029244, -0.030763002763023285, -0.012114415111040104, 0.07829234182613376, 0.005683660661666437, 0.005150080015410727, -0.010670495403683566], [-0.018923505634200623, -0.007140056431098729, -0.037648785372566294, 0.019855306039316286, -0.02586247516488117, -0.009874504176614661, 0.06817428411839324, 0.005926722312463932, 0.005781671680131129, -0.009320308338451594], [-0.018554807218267137, -0.010069670329326697, -0.03245254815606869, 0.01634830037918792, -0.019301073285899053, -0.010725054687959708, 0.06272721283751004, 0.00686471111596964, 0.005933669314322818, -0.006960524975779411], [-0.0185372600367674, -0.011239719325091243, -0.02509883144764695, 0.01224154830040714, -0.011737083069736795, -0.011864209004194807, 0.054443130998834285, 0.008297476238194228, 0.004021607949487798, -0.006144188889457087], [-0.01411538093567969, -0.011772329918132696, -0.014938690904682835, 0.009292848959343653, -0.010332610144590856, -0.01192296559653154, 0.04313361293217881, 0.008046480938249275, 0.005594519725587003, -0.0017410972832219782], [-0.00745725993603435, -0.008704487700749124, -0.00911257334616406, 0.0067839276406021646, -0.008705375524248103, -0.009888569074910336, 0.03396052383289212, 0.005820605281043305, 0.005197284118624993, -0.0002552983426593262], [-0.005289258130370845, -0.0048629792482836, -0.005936177228098896, 0.004872016536530516, -0.005644995406044205, -0.006795049881165691, 0.020467506360914385, 0.0029027760484101983, 0.0027677335167568947, 0.0007102524905877197], [-0.001871776946610115, -0.0010285863351052573, -0.0006891698613509068, 0.0017401709961164765, -0.002117073760040427, -0.002816674895549311, 0.008647218031776732, 0.002137438592294317, 3.286805154820261e-05, 0.00032456492944592225], [0.00026390736842897425, 0.00028134987491921837, 0.0008030465970317625, 0.0014581183266729391, -0.0010539932273391226, -0.0005427890567603244, 0.002716789318984945, 0.0012893440979119726, 0.00042828031054228, 0.001379277409157433], [0.0009675828209684962, 0.0010612185650550941, 0.001542127003680117, 0.0013078389750353857, 0.0006757716595812108, 0.000761022823468044, 0.0013652687409206046, 0.00043057530869705706, -4.339899671129671e-05, 6.92292349727365e-05], [0.000408980196244778, 0.00081292222703183, 0.0003410710680111625, 0.0012483115791438945, 0.0012447267515024723, 0.0001544363285101104, 5.107556096774524e-05, 0.0002948814625383024, 0.0006186500464505536, 0.0007760719946498079], [4.7341375125578617e-05, 0.0005133707647279861, 0.0005004802284840512, 0.001224271952662918, 0.0012580114013901853, 0.0005001212929556682, 0.0009444708941145494, 0.00019821047110486157, 0.0012441150095819, 0.0003568606541912915], [2.3200083114353414e-05, 0.000655722089554292, 0.000798239329405149, 9.573104100115892e-05, 0.0009119559052305683, 0.0005360038167929573, 0.0007171650268320804, 0.0009502637630125661, 9.754828885630057e-06, 0.0009658845687671895], [0.0007314764940181478, 0.0009029965898468327, 0.0007849595744133527, 0.0004753984214000403, 0.000478021583608438, 0.00023845263649939765, 0.000825146630360079, 6.806215115459376e-05, 0.0005292953074915758, 0.0007538442247446423], [0.0010074047335761234, 0.00027774873819819606, 0.0009253697966051059, 0.0006341870157912802, 4.976127473019967e-05, 0.0011875095330840949, 0.0001091517455822156, 0.0010440477899531558, 0.0008171360983087003, 0.0009831149989039739], [0.0002308694600653242, 0.000444300079613651, 0.0005626735627562026, 0.00023008661339273968, 0.00024724826133908935, 0.0009508912740977195, 0.00127017883519139, 0.0008891651956934714, 0.0009809886642281767, 0.0008524216198661018], [0.0009072593846946978, 0.0005209571228131096, 0.0009996532560476857, 0.00031251643189123424, -0.00014089695714174824, 0.0007043272166741395, 0.000913328672881817, -0.0001326565370143448, 0.001326760734107157, 0.0004842123798275643], [-0.0013210953501578823, 0.00036328088492822613, 0.0004783938062754707, 0.0017139962763039753, -0.0006774159689496267, 0.00017330305831945848, 0.000552201777672916, 0.0011108804863645837, 0.0018171133631626284, 0.0005486481828404706], [-0.002407353511092532, -0.0019202962828850018, 0.0002339725529151976, -0.0015635410948957643, -0.0024905523875997948, 0.002499333148881266, 0.00397865910133834, 0.0019250977995652172, 0.0025384812389640235, 0.0006367480458065176], [-0.0030411295904617004, -0.0036342294110864926, 0.0023760072935815977, -0.00446615405300339, -0.009523639136921428, 0.0034152381715512087, 0.00672755950614142, 0.0024045254583647657, 0.002634370165521724, 0.00047375236484618514], [-0.005324216667439674, -0.008060010271360158, 0.0060077271746072, -0.00946627929324084, -0.01284591119651841, 0.009857199491133216, 0.009569473133318893, 0.002593569075733063, 0.0042110866665788565, 0.0021525864063200416], [-0.011263962751675585, -0.013016734695327754, 0.0120378419535389, -0.01446039593029619, -0.01795419600572178, 0.012022510711080264, 0.013604716885105499, 0.003748414121198279, 0.005420842263794783, 0.002014895774559874], [-0.010524409881871494, -0.016984542641995327, 0.013438334729789312, -0.014466023687123268, -0.028661419575199035, 0.011077435654115024, 0.02071148432123705, 0.0023000303182236165, 0.007564191656671321, -0.0010709549966921013], [-0.0049898007158910435, -0.011999892265247577, 0.009798517056739313, -0.0064828310604244654, -0.030358876469397958, 0.002618486204438671, 0.017535790800919573, 0.0018308633089766766, 0.008181385598261403, -0.0037188918121121885], [-0.004345333364354053, -0.011793715331218532, 0.011044832847799044, 0.0005841710988763512, -0.03289460789383269, 0.002980808182954079, 0.017238324758477207, 0.006145885659503383, 0.007063008379329828, -0.007634782914814731], [0.000159807551604668, -0.010815424845718236, 0.008003719299249836, 0.001760585720866492, -0.03775817451363184, 0.0010694022974228749, 0.02584290347493128, 0.009623228958408876, 0.008222901919940701, -0.007808118383806349], [-0.010455650177832116, -0.013211017796965254, -0.0016647388548185237, 0.012208417844732786, -0.03665418988983073, -0.0071053071008144696, 0.043294722951470244, 0.013801379686072207, 0.001868979337907929, -0.007656527631007559], [-0.01663190098909779, -0.013663593159722074, -0.0070248378527790626, 0.014867269610628656, -0.033422622017866485, -0.015025928522837984, 0.055617932008152265, 0.01856014778321182, -0.0007815230438969687, -0.012670950987891763], [-0.018830076491639897, -0.018528271357013154, -0.006155956369867568, 0.016144244509898306, -0.029849670188155784, -0.01796210531829995, 0.06282339219107157, 0.02135590937351143, -0.005870461465823158, -0.013115490305442623], [-0.028728802677789274, -0.018236292649842906, -0.0144358422992892, 0.020158505312052873, -0.030169677907239, -0.023462820940210655, 0.08330753805046257, 0.018034609015514718, -0.008906923063288039, -0.012829786528656323], [-0.03704330626834118, -0.0249324858497181, -0.02293978731453063, 0.02028238329055579, -0.027717967711171642, -0.021417057168100342, 0.10296887289232548, 0.018082155743762866, -0.007336237957179747, -0.011460077105965768], [-0.03663807644596467, -0.03379244271624223, -0.022429967856942526, 0.01987158381461632, -0.02190094256450069, -0.028369299789519645, 0.1087062852891985, 0.018709018250397048, -0.003772198504988001, -0.011836473605392047], [-0.03160747124169926, -0.0339707355696189, -0.021177626755689224, 0.02204743791093962, -0.019339706620027174, -0.028691414051819936, 0.09714699390612362, 0.016687745235291856, 0.0049382627420513905, -0.004594672207893225], [-0.024020750529754487, -0.02655527529487107, -0.017519227717484848, 0.01774312270773213, -0.01759033823993398, -0.025448830435917977, 0.07506427989495515, 0.012251380519892935, 0.008472223180688606, -0.0009291340350251834], [-0.013613178188701251, -0.015570981392056647, -0.01421803622303356, 0.00919748629758679, -0.010194436461200572, -0.017046405062791942, 0.046999026854739535, 0.006154214101693787, 0.008859998895304515, 0.003190816742305996], [-0.005377152916855545, -0.008127986111729808, -0.008188256796684086, 0.00450824750783887, -0.005612552988942019, -0.00993436528437266, 0.02384783549493477, 0.002570471241687204, 0.0063706160653878435, 0.0022344082320158265], [-0.0012482564507159733, -0.00389710478963032, -0.003380619028684005, 0.0027952316289549086, -0.0036918452587067995, -0.004870070631911527, 0.012748054301435155, 0.002138926776211624, 0.0027829875416292217, 0.002054249885178304], [-0.00023979756085531272, 0.00028413310982614313, 0.00010668944216988573, 0.0016932486419286425, -0.0002746766936347674, 0.0002452257220668879, 0.002536317291648736, 0.001439564664424906, 0.0005674012655912205, 0.0006021097652874828], [0.0006406851960398996, 0.0010330797064550372, 0.0009738080003272277, 0.0008239337626012637, 0.0009479930952906817, 0.0011204573709463906, 0.0015741616697109268, 0.0005317620795582471, 0.0008578813439139365, 0.0009101726595883493], [0.0006363291785688943, 0.00018282020579950235, 0.0002578713708269613, 0.0011690571713891549, 0.0008452143374485983, 0.0006767480369452002, 0.0010805602857139748, 0.00024262960096397274, 0.0010989945909235569, 0.0011243404654624266], [0.0010955897546102555, 0.0008091620972992743, 0.001099304982596725, 0.0009761745961691892, 0.0004059481945342881, 0.0008667226999599318, 0.0009460802148589657, 0.001012552679471616, 0.0009483591414295513, 0.0006627712740591751], [0.00012466331475803513, 0.0010194552400925388, 0.0010522592657449077, 0.0003730399870228818, 0.00039277374583535595, 0.001251186055106041, 0.001180063652530209, 0.00013368248376496438, 0.0010105211188450778, 0.0009901359921141242], [0.0012889669802258464, 0.0013289614320975572, 0.0005526744321739714, 0.0006214583543900176, 0.0003459127863500063, 0.0007253489888643031, 0.0005158449323750596, 0.0009123054689498836, 2.5704133097364344e-05, 0.0011886326543610758], [-6.116838976224792e-05, 0.00038585117309729923, 0.00022468104862201097, 0.001441398556455378, 0.0006238193576121997, 8.469748683710979e-05, 0.0009294189767872314, 0.0005814349567570086, 0.0004405233607423357, 0.00020034313019976068], [-0.00022914521274751003, -0.00022198153303388193, -0.0005042744140718415, 0.003017961521064859, 0.0006938096835640757, -0.0009164857195497786, 0.000441378341693097, 0.00012677786488442204, 0.0016766940603689256, 0.00039781897434595925], [-0.0021158218343467765, -0.0012222025057701804, 0.00020486789970794098, 0.0046439626049502945, 0.0003154471410653338, -0.0014644657408433646, -0.0015896172253528841, 0.0005729679223009261, 0.002604722292072348, 0.0003305750530859378], [-0.005206489612039456, -0.00545631751384749, 0.0038186797348394555, 0.0033828070072719676, 6.20632457316421e-05, -0.003696521465509859, -0.0043777730678165585, 0.00273113639349674, 0.0035372213439132747, 9.266581062296477e-05], [-0.006851650402438358, -0.010938933415781123, 0.007956573865090254, 0.0019749745903595733, 0.0006273722884149763, -0.0022862910837854414, -0.006915433971546759, 0.004835295721670022, 0.004673741798130588, 0.0016676149571612487], [-0.007127813775956007, -0.014516121375432657, 0.00857925424881268, 0.0012815494362851676, 0.0013180291961858753, -0.002175219695774349, -0.007471940963260374, 0.008102984975674361, 0.009446033105550273, 0.0009852275954667833], [-0.01600167861037429, -0.01871149585917131, 0.01888529272442528, 0.0021735601181548, -0.008293572470789908, 0.002013156399930842, -0.009799985642209302, 0.009220121354671273, 0.010986511005001302, 0.0032182551210362367], [-0.013168428967387763, -0.018605371773912922, 0.018701842689330225, 0.009213173557829336, -0.01863887428211778, 0.003496693743029542, -0.008090050010795288, 0.010313091673235414, 0.012030416194505962, 0.0026659493197741376], [-0.007711854247084778, -0.012444455498407938, 0.01927013496514671, 0.012542075135221582, -0.013340279583783865, -0.0031031004567506283, -0.01957186769344703, 0.010041595135663372, 0.009693939925213299, 0.0052108505543565255], [-0.00039592443331709897, -0.0022115248361732633, 0.025862034190194894, 0.002289973090291431, -0.006415152985262875, -0.011122576878649098, -0.021924931390529406, 0.0038082295496019492, 0.006304272922231116, 0.00020423553679132202], [0.006208563080933564, 0.003994203501331094, 0.02275233907439195, -0.0019136433300200833, -0.009435536160124661, -0.015960833360882134, -0.01813264750712155, 0.000475920416244351, 0.00428883816847079, 0.005964273314617527], [-0.0038741552611687717, 0.0014859510359753708, 0.017713601836182945, -0.0030728734507624983, -0.009407839861584642, -0.004713929808642856, -0.0087887868870828, -0.0008657107899406176, -0.0015353655091610533, 0.012043278203380862], [0.005545533585724861, 0.0010213529197190651, 0.011667959199064135, 0.002428211944358747, -0.015126065027860158, -0.001140786129761368, -0.01226435031227962, -0.005287705335594879, -0.008592788325161619, 0.02070453124780428], [0.00045156734890333645, -0.0017350812193158139, 0.022817583252043284, -0.0005041185112264192, -0.010640225770537238, 0.005601282946739779, -0.012744526718058381, 0.0006570752679457611, -0.019479341429480344, 0.018986157692601834], [-0.002575351124095173, 0.007743315643309855, 0.009418927961316322, 0.0029432417089780916, -0.009136363976878767, -0.0009358754639912311, -0.004299548856548703, 0.0030329682793591964, -0.025082380658769523, 0.015159869279084368], [-0.0012345535954618912, 0.005345736410058123, 0.003258445944252216, 0.01062026669466679, -0.014032463991939406, -0.0001015730295800081, 0.0020307564869856227, 0.003122859107299036, -0.020207093934413185, 0.011352300744960716], [0.0006031381381843707, 0.011074639995852016, -0.006708686549991296, 0.007741998094612511, -0.015401458688540825, -0.013467923889692979, 0.008635378410877036, 0.006030430081625079, -0.017422840733962185, 0.011001108910523076], [-0.005190730048875848, 0.00929469881370611, -0.010563360769206494, 0.005681677731429708, -0.013310240998455984, -0.01773511483467962, 0.01757273774445716, 0.010274727725304095, -0.007538294526554375, 0.0068616081555549335], [-0.011849441272526087, 0.0026156845921715623, -0.017648284931530187, -0.0005841409828063264, -0.015088527024642693, -0.0013369850168539242, 0.020013083103645222, 0.01469522670650074, -0.005250762647129417, 0.0030201624694173213], [-0.01925554155104567, -0.0017926313618714228, -0.018763333397526376, 0.002663719900072452, -0.006619379736427453, 0.010964115227540617, 0.01696026946094138, 0.008556634158472746, -0.008036109387604577, 0.004158677068815514], [-0.020264179734425077, -0.00802481945526222, -0.015554673902069409, -0.00024913744794018654, -0.0004880999148662767, 0.022742840927498505, 0.01171590263275783, 0.007163607757555007, -0.0056169731350983595, 0.0019689382936519317], [-0.011920628945816253, -0.011213669875640962, -0.009195726482924675, 0.003790142623913822, -0.0024943160067035274, 0.014916670821241521, 0.004519573608330048, 0.0038719479609603457, -0.0003596544333637471, 0.004278909379150686], [-0.0031052691135911976, -0.0036838853228095916, -0.0020057331738086723, 0.003075121414210853, -0.0018907575324038966, 0.004054200528757941, 0.0020275374459487122, 0.0020545232812608765, 0.0005098402097782508, 0.0015185978121563233], [-0.0004831847372726649, -1.1044603511885126e-05, 0.00013312931084678191, 0.000629154041086642, -0.00030345539849759267, 0.0011982827598027964, 0.00056542207358434, 0.0006156579032644116, 0.0014395446036382842, 0.00020633183183302436], [0.0007678191770091067, 0.0006821859248008163, 0.0007989910909285407, 0.0003676815171482767, 0.00013934520966292968, 6.11760754664229e-05, 0.0011117648678959258, 0.0008838593031420719, 0.0005948163008739232, 0.0008749682266136661], [8.672468741545963e-05, 0.0005742528288196025, 0.0003726367670949618, 0.001186940509765507, 0.00031030486546970514, 6.612621011673718e-05, 0.0005453439171359427, 0.0005455028404535954, 0.0005675751773922466, 0.0002582322505790948], [0.0002163186809288029, 0.00010548796638337346, 0.0008377346879527276, 0.0010466492740010738, 0.0004832101489626645, 0.0007252081589330618, 0.00019551009232947675, 0.0009760834867431834, 0.0011014738348851204, 0.0003542994023828179], [0.0006692414063414425, 0.0007199660159301765, 0.0008634201819441676, 0.0008459602795086668, 0.0010576429035302362, 0.0002819607038192918, 0.0011981374229073122, 0.0007885856959032209, 0.001240922416534262, 0.0003203588483685506], [-0.00014888270237300384, 0.00037590818206783346, 0.00020427251440385057, 0.003220934895001894, 0.00048501537856073104, -0.0009954111564513196, 0.0003601192159242796, 0.0009125511445140161, -3.091886578534252e-05, 0.00032586327892331887], [-0.0010241274140565606, 0.00034214891179554674, -0.001601702744443282, 0.009559932879412798, 0.00022368868791143722, -0.004176160307338408, 5.6902733828952755e-05, 0.00047245813832703335, 0.0014081044921219045, -9.733629877716306e-05], [-0.004256247664966612, -0.002525365999465382, -0.0005641135615365986, 0.015866958900899945, 0.0016263830677216446, -0.00836441542472322, -0.0042073865760288084, 0.0035580018920503757, 0.002759074748660912, -0.0026585060821434185], [-0.0029393222494379975, -0.007798007359282539, -0.0014695054413806222, 0.018409656976041477, 0.008020998811840372, -0.011982971615257548, -0.007688062105621696, 0.004570784893251218, -0.00037567456771946426, -0.0036538322843766833], [-0.0061376585304797416, -0.012678472251764503, 0.0049219639277570575, 0.015597118302650806, 0.011455101500747257, -0.007889917755748533, -0.008902374202400445, 0.0035758972533442212, -0.001663037086707517, -0.0014921921382643945], [-0.010844028234883306, -0.011190592154092023, 0.008108605121939285, 0.012894256412643341, 0.003493326653099539, -0.0029155926766871254, -0.0019915252728244697, 0.0069320442411345325, -0.006824947785805432, 0.0020724041778067206], [-0.01400637543340667, -0.011774146967140464, 0.013126399902722121, 0.012923658977183871, 0.006778880487137433, 0.0003020260562282989, -0.005948778085369083, 0.003973969215435275, -0.010339337437041041, 0.005905420882299432], [-0.00973731743166201, -0.013766634788911882, 0.014359337928873025, 0.022271137545982155, -0.0066225346085456915, 0.005061658833301139, -0.002297257921860323, 0.005120971656795847, -0.017681637922719796, 0.01189255256348535], [-0.0074035164069245546, -0.010669442368676707, 0.018365758637308573, 0.022622960055557483, -0.01609251867841454, 0.0005622886371871523, -0.018285989206598675, -0.0018068724327580314, -0.012114854901245142, 0.02084407821532614], [-0.0044669193965691315, -0.009105793803695418, 0.012884624543686378, 0.01881638634504179, -0.02043302700132669, -0.015330935386161388, -0.0075500625102994665, -0.0007725730065453159, 0.0007629338400445096, 0.014767341475935428], [0.007993037193234754, -0.0015449139100907824, 0.013390646358318006, 0.01630318464287288, -0.014602721596433535, -0.018788333991443206, -0.015523212660754, -0.002346803930549074, 0.0042509660231395624, 0.006014178919647243], [0.004407706716027943, 0.0005037715812559679, 0.010250964751154432, 0.00590347222778099, -0.0020991259157819926, -0.015382112941820712, -0.00983194898346928, 0.00563426510309776, 0.017772513680316227, -0.014950507229163591], [0.00670291034092293, 0.004908233835349874, 0.008728012153346319, 0.000516928193520638, 0.004798930054937313, -0.016700831653789935, -0.011861300241911897, 0.012755622359798689, 0.017229893544716563, -0.026894543107496588], [0.004148807367542166, 0.0004170637590046317, 0.0027929114390143647, -0.0019101965522991932, 0.01103730212821163, -0.016366997576010386, -0.006208535913314155, 0.011684730870610678, 0.02151134289881714, -0.036106263074447566], [0.0013481229415961689, 0.0003475148528181505, 0.011051313559757409, -0.021131763894187985, 0.007153623081364471, -0.002633292131923008, -0.012528387729420486, 0.012608608145135461, 0.028061299460544406, -0.02868799754365651], [-0.001001748304647551, 0.004442224379491027, 0.0013293633724159397, -0.014598823351398678, 0.0037274451801425556, -0.0034856709687885925, -0.007379223853532146, 0.01746641925139331, 0.01960540087207768, -0.019526931839894974], [0.0032455610130852617, 0.00927042673838957, -0.0026818339741576836, -0.010328556937538477, -4.5863126072612004e-05, 0.0008371892954768291, -0.012568361554936104, 0.012219083674480283, 0.008357820867682123, -0.010372021410177424], [-0.00493934852074881, 0.01463040322440868, -0.000864508446615881, -0.01716891272455753, -0.001587327158400948, 0.019982398558233885, -0.0168991518915477, 0.010652445050856654, -0.003399555320080164, -0.006384119975068331], [-0.008146707328928613, 0.013449806975130806, 0.0017991282496711701, -0.018161082402427742, -0.0007116935886562026, 0.02567997051001663, -0.018736371832070386, 0.014515532425279754, -0.01051605406104824, -0.00557701383152571], [-0.02108898074629613, 0.0027390297079473145, -0.0005099662082097713, -0.0097931324339822, 0.005777181671658372, 0.03997651242744299, -0.014902671807068838, 0.016143315330725296, -0.019212447543232217, -0.0048578157913185096], [-0.02941855673153971, -0.006270833518678433, -0.008835548023180904, -0.0021816857242627496, 0.01672586370653455, 0.04647596296733268, -0.009170532432205475, 0.015457887263021912, -0.023312060547578423, -0.008851009952571497], [-0.025220341005979738, -0.015417354524796017, -0.005960834480948631, 0.0027683668117282918, -0.002296493936705399, 0.038492578337427974, -0.003800847334843099, 0.013748452805612488, -0.013495951013372571, -0.002116082514930461], [-0.011449440360090199, -0.011206325455468178, -0.002148790367971008, 0.004146815857272693, -0.006994870532811549, 0.016073162263244452, -0.0020469109437077997, 0.004731926909440351, 0.001067300535268914, 0.0014206873013869969], [-0.0023457950061177724, -0.0008587027595906335, 0.0006443028258021131, 0.001213586998043313, -0.003263554368413239, 0.0052432457466138034, 0.0003090961791651745, 0.0008076326932988348, 0.0008254767391230004, 0.00016240072936628898], [-7.366532923592373e-05, 0.0009466598852082334, 0.0011255833629140635, 5.0527389583791326e-05, 0.001032131292562451, 0.0005000689062221969, 0.0002590106600225851, 0.0008877297911102275, 0.0005771396797696789, 0.0006927126804924473], [0.0007751296494554627, 0.0008365378964816886, 0.0007569467991292389, 0.001231313842586509, 0.0011339071295621268, 0.0007651778387216554, 0.0004937484725604528, 0.0011378006741455875, 0.0005683550011931915, 0.00013666715127959701], [0.0004958221078881543, 0.0010506636954053727, -2.7627898822414982e-08, 0.0005352296664842392, 0.0007315668637237753, 0.001183741011157201, 0.0007563255968408604, 0.00010796249172759916, 0.000905736647210266, 0.0001975070684606975], [-0.00021565317813633365, -0.0005151276137874606, 0.0006142798992115487, 0.001196899488486847, 0.0008650371890038921, 0.0006575504715370524, 0.0004763260566852069, 0.0017826457214788925, 0.00015962097130425861, 0.0006182087251322122], [7.642489448188694e-05, -0.0021578279157197684, -0.0009606833867758769, 0.008999111206830222, 0.00012434034058011272, -0.00463004549260294, -0.0007783584162222978, 0.0010459348865795276, -1.6487968856688128e-05, -0.0011165604618372672], [-0.0004168742063328324, -0.0025625471572347184, -0.003843202798330213, 0.020272392572476344, -0.00023189381562945183, -0.00994320304697195, -0.0006694041854722508, 0.0008987711275028517, 0.001017293003463109, -0.0026747309330375437], [-0.0017465293035719902, -0.0062474492584639555, -0.0035887659821175594, 0.019529188603226583, 0.00011054917365457064, -0.009076759039423628, -0.005434159896422571, 0.003978535286024653, 0.0031717389352270637, -0.002235344816212137], [0.001108354092212865, -0.011220855681266635, 0.0017394376758946926, 0.019606568838549665, 0.0011635440565039771, -0.00798847433868394, -0.008028764208063099, 0.008054007149422051, -0.0017510768789486644, -0.004212763903851149], [-0.0034591144300202196, -0.010672305526306693, 0.006269717374263642, 0.012136832280790728, 0.006215400575030637, -0.009507519366722401, -0.0028508063195466196, 0.008080624254046237, -0.00877570620828756, -0.006613104459092982], [-0.0028788861464057462, -0.016465464382795503, 0.006897747592457085, 0.023158562891093103, 0.0018573440160590535, -0.009164389399021982, -0.002731950519982459, 0.008032961904842572, -0.006106182833334378, -0.0029233992603156954], [-0.008103469452216681, -0.019300147786278605, 0.008287025829734057, 0.0267851406226168, 0.0041679693963216635, -0.007874148172827899, -0.0038014424247633074, 0.00099353052283062, -0.008260354451209675, -6.079460356193599e-05], [-0.007934451432741397, -0.01869491319584041, 0.010051829806248906, 0.024922818565554686, -0.0005729071362641385, 0.0005826827104914628, -0.006668345783721979, 0.0020344438401356446, -0.008221003653002462, 0.0015201167985889174], [-0.004561344192062276, -0.009414955804374759, 0.005399641240481826, 0.021164457625052462, -0.012033351302750227, 0.003997473169514856, -0.009188633598190046, -0.0023849831518441117, -0.0010613423223788765, 0.011199054319237641], [0.0016284175933924813, -0.00872728137629068, 0.007946075068258021, 0.013733358010749114, -0.01487147307425192, -0.0019846958029001876, -0.004244667232021082, -0.005340283260831293, 0.004531388688500548, 0.005743524161968282], [0.008427198083540992, -0.0038408955100416383, 0.0035008154774982354, 0.013490030248934694, -0.02377548760272841, -0.007469238038466184, -0.012073348094812832, -0.005254243455555208, 0.0041352231158473425, 0.014327147584212859], [0.0052922576553362894, -0.0020765542201972025, 0.0038290997819885983, 0.006488878900644851, -0.027708036386210527, 0.006048878961264106, -0.008743379402158961, 0.00010765141310405959, 0.0006661726024005186, 0.012783323073550729], [0.0009497116324708667, -0.009993144072302701, 0.007085232572231565, 0.007649825885222247, -0.020210714666890495, -0.007476165424254935, -0.009740048310631468, -0.004345447094877132, 0.015616515059292015, 0.012328599466185893], [0.003629634245471531, -0.010476414975998456, 0.006276701741911234, 0.010851625635899403, -0.022830766440984966, -0.007899224249177933, -0.009196242761845613, 0.0005424950842799661, 0.0039653179979404945, 0.024293191169941983], [0.0036805113715701766, -0.008240840641873318, 0.005180142647515562, -0.0014753429921306057, -0.018820085199835298, -0.002936042708165496, -0.00879610531895163, -0.004585599771625873, 0.008337457667151838, 0.02616206117863114], [0.003859016052110403, 0.0017283566997957698, 0.0028953338153196897, 0.0007184229546232378, -0.01590950972262695, 0.002847187623545204, -0.014500718425568632, -0.010951905768653673, -0.004236682610705309, 0.026805448535454957], [-0.0004964111920615595, 0.00506346778856902, 0.00129124826214964, -0.00793436015785487, 0.0033087919986605433, 0.009084263752713007, -0.018924168744950655, -0.00447617830560997, 0.005103008687154123, 0.0063390660566220265], [-0.0014737229701390563, 0.005874383523803723, -0.0019335887594933378, -0.0007210039475092061, 0.0077500181076387425, 0.014984276251854677, -0.024266218202545306, -0.0039650616790584715, -0.0008950347354848865, -0.0013080972900938188], [0.006827457469070564, -0.0018066074620633075, -1.5585870829043093e-05, -0.004047735530023731, 0.007845987541127303, 0.014599037807054042, -0.020403128454772584, 0.0066696379407664465, 0.0026376051803545146, -0.011977232100531312], [0.0007161500487737458, -0.004599558762963498, 0.0010386772295054004, -0.006444390789908452, 0.019797083228762183, 0.02615494584294852, -0.01862563390866945, 0.008192019541088395, -0.0028200843058007402, -0.018711236717409648], [-0.02553679962574571, -0.008990281138949624, -0.009548939399575006, -0.002783465040309199, 0.024222084892105603, 0.05357142702490764, -0.015617747375672748, 0.005288387945329466, -0.008136215877913567, -0.018956386305096964], [-0.03994633268089962, -0.01731902298450943, -0.0021442316671514525, 0.0018368020091674806, -0.001425066416053295, 0.077430906046798, -0.011791543508656762, 0.006549077075668514, -0.014167080227058027, -0.015001859538509979], [-0.021582094934407194, -0.014746729687685641, 0.00012265121777230243, 0.006313810967031766, -0.013375064103207638, 0.043751608483786945, -0.0052157345960180835, -0.0001295424174295916, -0.0025208219953685037, -0.002563666859916501], [-0.006178837798110211, -0.003904037500849692, 0.0007217047750710853, 0.004240025321161998, -0.003704829274271606, 0.01331731330469267, -0.0014437497986419196, -0.001355107597537722, -0.000949061785117084, -0.000624451855324023], [0.00015387661044494392, -0.0008167524051964189, 0.0012075671301423909, 0.001274881320498705, 0.0007873928037601859, 0.0015693500248527648, 0.0002195299590112864, 0.0005139026437657698, 0.0012819164058193002, -2.0017498453033163e-05], [0.00020963713986755519, 0.0010193911031375353, 0.0003917523140011832, 0.0009061606187587582, 0.0010953665232658301, 0.0006416384676270028, 0.00011385383190741563, 0.0007126264672662208, 0.0012285439273572493, 0.0010907579678129137], [0.00017733857569369741, -0.0003006373385295347, 0.0001910821539630262, 0.00121020537641348, 0.00031956073197077705, 0.0007192922213303113, 0.0013196532248965166, 0.0011617479779843177, 0.00033413226853297635, 0.00017801227185034106], [-0.0014574938697196728, -0.0009376378529670617, 0.0014572834761183086, -0.0008762784243822274, 5.2787320732873374e-05, -0.0007413413705209265, 0.00046885674025530673, 0.005201906482552907, 0.0008809213276834331, -0.0010053475635936975], [-0.002025503620189371, -0.0034748101748703643, -0.0017541711061368351, 0.009219104419105534, -0.0007071674933833262, -0.005976568515714037, -0.00030676163698122575, 0.006359596994299149, -0.0004872338461191281, -0.0035631539803595755], [-0.00133782108502548, 6.75353247431901e-05, -0.0061512253696500785, 0.022256074385972085, -0.00013493717914463656, -0.012781933950364116, -0.001599057447671127, 0.0027982115363608196, 0.0019055455762673678, -0.005991188147476715], [0.0004333422407860484, -0.004484993963985987, -0.0037592727197804806, 0.01619722044778277, 0.0024458199701826782, -0.00764336155040106, -0.007279795448891867, 0.005421774847851632, 0.004278683553917927, -0.010496966863868383], [0.003254648177122055, -0.006796413097448789, 0.004376609022076906, 0.010037052613188924, -0.002652100919402101, -0.0011455731658378758, -0.005251628661635995, 0.013730374158574971, -0.002006708608313935, -0.009832745606724288], [-2.4980106266015862e-05, -0.004117675770238536, -0.0017979942737264235, -0.0011314436436497812, -0.00022310660773204737, 0.0020385153018092498, -0.0014722797837283506, 0.011268619868360169, 0.004197731316110248, -0.010824335823551044], [-0.0019099181423915294, -0.009913893869618454, -0.001196080631873993, 0.0014280927424175343, -0.0011536904557131761, 0.002546130438428709, -0.004604992692257501, 0.009834413255438436, 0.012850607544318339, -0.00774567196832255], [0.006441517274822376, -0.007752050651312673, -0.007953589260205618, -0.003064717914574134, 0.001496074981460639, 0.0002264784129884891, -0.0020189600142842255, 0.01702388800912525, 0.008876231898495755, -0.015264851979891539], [-0.004477462374601695, -0.011764266446076933, -0.00442609659726269, -0.005236680891506043, 0.0038579697159953166, 0.012407796453023976, -0.0067448268366439405, 0.01735103665650258, 0.01039621381234322, -0.016523497404879645], [0.00319089044410237, -0.010855120162547492, 0.002318058751361781, -0.0044525593462826805, -0.004754409499911069, 0.014226250184606168, -0.005564031119945465, 0.012160966182065894, 0.0026888038232846644, -0.005596423214027576], [0.00796285040654652, -0.0027923561113040968, 0.0008562952945577537, 0.0016451432168285815, -0.01741424439961175, 0.00265294976741178, -0.006355065803028163, 0.011627776622344488, -0.005845060364930148, 0.009004955906087528], [0.011357613214737942, 0.007712949760898465, 0.0027771561573156785, -0.0015792809087963803, -0.020809080244148688, -0.004829741009932367, -0.01344403880664343, -0.002433384622594337, -0.004314170179984848, 0.026293416934252228], [0.015570447604396844, 0.0007612096958592041, 0.002657728044704589, 0.0004094948630881809, -0.03057878938498924, -0.0005367245478526013, -0.012030379839374689, -0.01625483661013067, -0.008553099581383727, 0.04979354451878205], [0.012358313441540068, -0.005805778381913231, -0.004575204798182369, 0.004109940687817061, -0.02838892104427809, -0.014255053374903856, -0.005203415872939868, -0.02215829362961148, 0.0066759544317937704, 0.057801343521629356], [0.0060540493743222994, -0.0036396912315697564, 0.00038421317866602105, 0.002241765098611464, -0.016083761034534915, -0.0019557135085192657, -0.013483182530415732, -0.015735758647627655, -0.0067913298233154, 0.04748425976593682], [0.013000308468869551, 0.006044528943746689, -0.005954395765932306, 0.0033683001482552994, -0.0072073609933457055, -0.0023035195483425584, -0.012579489620231624, -0.006318095561555451, -0.012330970881313626, 0.02019093131335403], [0.013993816595760575, 0.004459549139448657, -0.0005559852071469899, -0.0066576987786145184, -0.0008593621462454096, 0.0007960825709796313, -0.01946912679044742, 0.0017847071877736612, 0.003481877701318155, 0.002413681359427983], [0.00403003874736124, 0.008284288148462493, -0.002754591975288105, 0.0014599770115856165, 0.004401942910133619, -3.0470506632856183e-05, -0.013429288057492862, 0.011788606149274168, -0.01155777071030555, -0.0060039457921962905], [-0.00419194337950929, 0.0044139294961890825, -0.0030575781021659307, 0.006653913580051233, -0.0021074883558181044, 0.002143172146842679, -0.00943006986668154, 0.014422824935847553, 0.0012809196049369921, -0.0035051631767889562], [-0.001888101966497519, -0.0017713683798888527, 0.0048174447489735045, -0.00026295063282929745, 0.0026977230219383855, 0.00180887502531226, -0.009543783553244612, 0.006541532374789392, 0.006823785375816607, -0.00961382587474364], [0.007064289595315399, 0.0037107661147142224, 0.009518097087230327, -0.003996501300575569, 0.009695233601296406, -0.007936756849986033, -0.012605696336205213, 0.008125630460906192, 0.003639528629835637, -0.01395085525517635], [-0.015324897800482818, -0.007108068845813474, -0.010126198381347554, -0.0018172808449884602, 0.00792883882742653, 0.041690855371714186, -0.009943600826514817, -0.00044962514680312786, 0.012198924345634644, -0.01707952760909812], [-0.050981107327177255, -0.019864667948997463, -0.0052272631336908746, -0.00251509480963284, -0.016476219869387406, 0.1040374153314981, -0.009713078184565103, -0.004930616280429115, -0.0009503696046236744, -0.014891760670281341], [-0.03445101773837288, -0.016672684395618722, 0.0006499955174192167, 0.007376376469621987, -0.022303828133207727, 0.0769192210000357, -0.008343722919037086, -0.007353159758872396, -0.010333442945385718, -0.004443683395243408], [-0.008127922227121373, -0.005089665293321645, 0.0024480039752955785, 0.0058051103691928695, -0.006175531911327895, 0.018732307498827795, -0.0022069658245669277, -0.001538328111895351, -0.0023890548136768865, -0.00035634425208704924], [-0.00010957889487035, -0.0005129285834641498, 0.0008431972669666255, 0.0008252725099334099, 0.0008424406229520787, 0.001238745304482075, 0.0006823403783671358, -0.0001349937862687915, 0.001259668341280492, 9.626816798710253e-05], [0.0006546706922193811, 7.027746888538746e-05, 0.00041258863040048157, 0.00046542160973728094, 0.0008067932275162378, 0.0004434178642819413, 0.000544931466722641, 9.588112727579891e-05, 0.0007403533435209834, 9.556537714257059e-05], [-9.008748288325219e-05, 0.0005379193174672681, 0.00045421514329905795, -0.00032685525775600076, -7.796482753513227e-05, 0.000532705023631537, 0.0015593160604609791, 0.003165883862876925, 0.000909965766627378, -0.001447001676020499], [-0.0027389743598648314, -0.001350247484210125, -0.00012952453497882364, -0.006713107599383278, 0.0002585131894729488, -0.00021581036988014643, 0.00032643418620660874, 0.01334345812683682, 0.0006200862675401501, -0.004358712554609691], [-0.006168720245447381, -0.002462736947848372, -0.004062826064137692, 0.0018012076784739443, 0.0015220259492067759, -0.003251141300223052, 0.0019991851864015497, 0.01588915914285399, -3.599875091498418e-05, -0.00868849482563469], [-0.007299186617960455, -0.0005137451827594408, -0.006128320694597588, 0.016224347601009437, 0.003828480560990468, -0.01414727392824033, -0.00419215614397314, 0.008854468407974212, 0.006043455105421666, -0.0110530430245527], [-0.0027852596602941536, -0.005029381589631951, -0.0034663385686116385, 0.01131482453853162, 0.008194038600973067, 0.0018229932465857518, -0.005918323665173727, 0.008002300938952229, 0.005073471379272363, -0.01684933054961009], [0.007486535614363012, -0.0037006481269802756, 0.0009677081195346111, -0.00021051058643601256, 0.0010865960222710713, 0.0012488351009336605, -0.004514108022795535, 0.008086603194496885, 0.007311527810474071, -0.009299928844719113], [0.00027104685591475795, -0.0069221253199225775, -0.0054131841118166164, -0.011195761431562267, 0.004328292827676217, 0.0038713072541069586, -0.0031582683068741234, 0.020463993514771208, 0.01489056091090446, -0.016920947318814265], [0.0012624155563125633, -0.008023117705559645, -0.003160001375481171, -0.019152091661783544, 0.0010080299610984113, 0.009054656985784044, -0.0022273732447370613, 0.019408965670094716, 0.006082723818076336, -0.007186487540509578], [0.00373130259179479, -0.007257639531685316, -0.005141576006553007, -0.011698135588815751, 0.014321338648958489, 0.0015969274468017125, -0.0025042387076957737, 0.019648341342058173, 0.012975909443246638, -0.019806551700299213], [-0.0015931372901649551, -0.009267485182277437, -0.001409908202155207, -0.008558681371321297, 0.007044359838995929, 0.00030370096547062647, -0.005741842633267784, 0.021315808794354362, 0.010876571500669703, -0.017841307033924957], [-0.004070657205441099, -0.014238778762117238, -0.003929896906511068, -0.0018508006102280414, 0.002880571855496544, 0.011378200308933094, 0.003019802159808915, 0.021265052397676346, 0.0002744136245062583, -0.01439130810161333], [0.0032841670222746675, -0.009320267065149875, -0.0023482915972706368, 0.005990304041827196, -0.013044748328474009, -0.0008330191852562091, -0.007294485928386713, 0.016824803332198216, 0.007193824621353701, 0.0006083105398261093], [0.0059263950440882635, 0.009836455463876483, -0.00136416992036649, 0.00030733521812167827, -0.02237141188457728, -0.01025055840155964, -0.008767171798413863, 0.007159183072828142, 0.004690301512300329, 0.016080395903224888], [0.009116786696325804, 0.0031463539768058868, 0.010851185824104161, -0.0023822418212421925, -0.028720167846763463, -0.006566968937604474, -0.00979544115108206, 0.005511719206703232, -0.003820586065841851, 0.017024369872764466], [0.011703966991876407, 0.002858013479961072, 0.002019233060750277, -0.0041601947073521325, -0.019759992893307134, 0.0011601382516232778, -0.011852066460383016, 0.004913317913035099, 6.070338510338488e-05, 0.013377544683077053], [0.018123560237984764, 0.0050249931128221225, -0.006775643497508056, -0.0020109752449193044, -0.015703353252973055, 0.001418378198516463, -0.015561017967578795, 0.0005057282700789876, 0.0018937892401493406, 0.014617421781366005], [0.00951943919798438, 0.01687966945993075, 0.0004784214118072176, 0.0015546276669454872, -0.0038088278785034587, 0.0010697131848676992, -0.017705187655456166, 0.004129463010051032, -0.014677400516937824, 0.0015311528860778249], [0.005509028078340505, 0.004974870015130257, -0.002307361512866232, 0.010384156694379506, 0.00603900322509605, -0.004876384361833053, -0.020899769039668233, -0.0010289791403562897, -0.0050385781590208375, 0.0017257108027169254], [0.008818883747380865, -0.0012303549605015486, 0.00026010808647872647, 0.008723933822654299, 0.004240695478906476, -0.00234203433513644, -0.015437707524386597, 0.00395331373091609, 0.005276378627345782, -0.0077216662676699585], [0.007349487835918704, -0.00595625112627629, 0.002992021534457241, 0.006014615729291925, 0.0038523990783015127, 0.00773496862100642, -0.016972745641535242, -0.0003918780285597045, -0.005214966158745943, 0.0011184701620729532], [-0.007323767997300705, -0.003964258300796209, 0.0023197249752001763, 0.005277709598144851, 0.003460790338993844, 0.006607032056116696, -0.010254285837884635, -0.002114139361894452, 0.0003298317550156899, 0.0013104633556525478], [0.0045912989281081465, -0.00028458849251819464, 0.004115874892449783, 0.0065043364950215085, 0.0025917381594917836, -0.014626830117696225, -0.00995024231790999, 0.00941995027957311, 0.008491350522512695, -0.0014049550097124464], [-0.0069410127581306415, -0.010862996013335801, -0.010743035769766762, -0.007055478580570903, -0.008304585420151622, 0.03316778212935473, -0.0063994594303085715, 0.002084922660722596, 0.017404618169115912, -0.005494858900031304], [-0.05417936904880809, -0.02307861568469513, -0.016370218756539136, -0.00012113754840780745, -0.022535328551881686, 0.12048297560574156, -0.013111859047885501, -0.01503905976788879, 0.005703826043314568, -0.009636960086518013], [-0.04542661127400612, -0.02368409653212309, -0.0034439443937767955, 0.005694565634105782, -0.027036871670438795, 0.1042046224904842, -0.0066515102098766, -0.012340609072421826, -0.01007871471624345, -0.0033859881619647276], [-0.009758293226042186, -0.005831159459198347, 0.002460473458562234, 0.004161091977915512, -0.0075824231612346485, 0.02164755313712879, -0.0031904937792611287, -0.0009894091860371405, -0.00022744359730121334, -0.001166664458862885], [-0.00041595374366146774, -7.68914687311916e-05, 0.0009343898282553513, 0.0012233221271096629, 0.0002135932568120147, 0.0008759269412390618, 0.0003863354565574597, -0.0002546525893234853, 0.00222237538022014, 0.00037124078710136055], [0.0007799129206805063, 0.0011619526694128211, 0.0005603942789814876, 0.0005772834900786972, 0.00024378257497062125, 0.00017571957124868195, -1.861728685494293e-05, 0.0011497441500763234, 0.0008370513789685511, -3.5979294606634975e-05], [2.372101215853326e-06, -0.0001881777893453523, -0.0005976819619566593, -0.001057563499872314, -2.901661855265443e-06, 0.00013956276949590954, 0.0014066386648828569, 0.005540130943658559, 0.0007099267787564522, -0.002672355683620391], [-0.004160125366139051, -0.002203304977879417, -0.0012198384124141124, -0.006739465927977738, 0.0009018199702681336, 0.0011320827196996286, 0.001585942436078537, 0.016156179222444222, -0.0016677305716729957, -0.007093903515125499], [-0.008069005954248998, -0.0041032895230274724, -0.00226702464185532, -0.0028653682176126515, 0.0009167284621689915, -0.0016408610751721684, 0.0003226669172235063, 0.023260889129394443, -0.0034222344959307927, -0.0119728405357614], [-0.009190630902931422, -0.0018821615452960447, 0.00045695828095439076, 0.006396235814754641, 0.003970850678738792, -0.00629804713447936, -0.0019373498753718725, 0.02402882774782506, 0.001036627166672032, -0.022675068621715984], [-0.002039976070946092, -0.005705207721515203, 0.004432388463803193, 0.001131307998507794, 0.004827693914975287, 0.004588236258622769, -0.006309239228223831, 0.020832211085566328, 0.005981537337801169, -0.02013550628087803], [0.003138742397296718, -0.0028598757156077393, -0.003649672908710185, 0.001650256256937545, 0.0011212976057792148, 0.003163513955126279, -0.0006073234536925791, 0.005108105971673898, 0.009493634023795052, -0.009032038688908076], [0.002383408264663533, 0.000831731938678723, -0.011842022469785683, -0.006229589667322606, 0.004867386196984964, 0.002127584737676519, 0.0039381831902486125, 0.012281276333267007, 0.008612618934560713, -0.018486205087336154], [0.0015278055796864578, -0.006130391116943963, -0.013111144071818378, -0.016891010816340868, -0.0006636282674152928, 0.01353778771204152, 0.0022984217235907643, 0.019026617475430236, 0.01369876634392604, -0.015477724877730562], [0.0014448063726194135, -0.004286195183239275, -0.01124242536080655, -0.015992970586568993, 0.002489525834602947, 0.003460392828203665, -0.003480504914337462, 0.018302036996395255, 0.01664114851316071, -0.009827712038413209], [0.00048456425871254037, -0.008203800928891404, -0.005216178700747936, -0.011196218288191001, -6.035490604254647e-05, -0.0019938088484404383, 0.0010929294620876519, 0.012075912132210324, 0.012589171068536067, -0.0006646708533373838], [-0.008751438937710722, -0.016695378131594423, -0.004754426463990047, -0.01067653957297604, -0.011109153937629021, 0.016970438261296582, -0.0005160480260360287, 0.01932698390690867, 0.008220229184344204, 0.0028933945810530972], [0.0004295489904405457, -0.015106597647735781, -0.006385010959298221, -0.003750322650585816, -0.007799092177776982, -0.0014319439853768055, 0.003803962108978406, 0.029575636564996535, 0.002252125160834452, 0.0007163248946247196], [0.010547810842054268, 0.007253598711038541, -0.0017527708012108887, -0.007286451139638707, -0.014243363390952073, -0.004786961341670018, 0.0015684464467924425, 0.02901532620132462, -0.00960840683019063, -0.00991969345571403], [0.01049164024375172, 0.015753743607702122, 0.006802793765833295, -0.004009109128299003, -0.029844179564390595, -0.009730604780196626, -0.0037870744098305, 0.029917929252197314, -0.012346881593792743, -0.005197441595941973], [0.01411158944323563, 0.009010272756555297, 0.007336522230683608, 0.0007016275143135809, -0.014817547853748305, -0.008191725859655809, -0.017849520950565235, 0.02813696038547495, -0.011524725479030466, -0.0064750491490425275], [0.005052796168864644, 0.0009792639070005198, 0.0020632742075830045, 0.004598524928327988, -0.005852157490174065, -0.008819031415611927, -0.018885410233186694, 0.028327097075114303, -0.003271430028726361, -0.012857431824754018], [0.0067620241743672595, 0.0036018222152339424, 0.003336831790590292, 0.004623995236664896, 0.005312394029559954, -0.002548308340001292, -0.023852764512609943, 0.015130970029685789, -0.0034593642656373176, -0.0070010132650084175], [0.007163418019790907, -0.0007071591685954675, 0.003558191188591865, 0.009566560773360553, 0.007588976463826923, -0.00014353931890558142, -0.022897389221826398, 0.00627064294855479, -0.01136807302570301, 0.002611567126102832], [0.013764164107931564, -0.005981664848434429, -0.0005457332798287331, 0.004585863776813893, 0.0016144748674986463, -0.0017139083956171964, -0.017318853931204727, 0.006981186132871615, 0.0011198850886319878, -0.0030129656281393585], [0.012227942296535132, -0.007840687596516816, -0.00911528185841325, 0.009890683462051676, 0.007037286523591301, -0.0072902521029518585, -0.014587320523779432, -0.0016222278201414597, 0.005180861807609892, 0.001911557814287917], [0.003967729589824175, -0.004089847274765158, -0.007825029401042972, 0.0025294740207535225, 0.005356983999213867, 0.005053449106186796, -0.011381613612573713, 0.003875827590960699, 0.009340452384532566, -0.006175742501850797], [0.0024829392650904647, -0.0030199014612574803, 0.0029681838747487675, 0.007272076786285215, 0.0032671863004374024, -0.00625228871209745, -0.014512645126320039, 0.009882939046316146, 0.012929584626332296, -0.00448968779944433], [0.005112730737073224, -0.01163080377751227, -0.0058410670299730676, -0.0006819149409332836, -0.015272900312007445, 0.016609938024797415, -0.012408740170758334, 0.0036545639432535855, 0.02619948492911074, -0.00456048404341559], [-0.042707682125243736, -0.02253884348561812, -0.014290167065260748, 0.005638038200695854, -0.026182028446026562, 0.10933356389905174, -0.013512002780418607, -0.01094491215076966, 0.009632910855555931, -0.01253526372473291], [-0.04709371856849685, -0.020838671550896085, -0.005924905201572033, 0.008804157839868298, -0.022047598464668368, 0.10643056988752617, -0.005042148201367897, -0.01222633920447631, -0.00815442023554789, -0.011306179330757048], [-0.011160593488716158, -0.005650209693461713, 2.7664254117095715e-05, 0.006026759602283975, -0.005495350218880578, 0.021599152557228513, -0.00159286621567682, -0.001794671415675699, 0.0011429355267243869, -0.003782111675329031], [-0.0009788622534265367, -0.0008233976403570623, -6.418368225768292e-05, 0.0008306929796892003, 0.0004875868886825903, 0.0021204262623188926, 0.00011227507619576761, 0.0015957132717051724, 0.00048294989298390333, -0.0003204142043926396], [0.0010614372363660586, 0.0003758608416523103, 7.539317850660394e-05, 0.0008528517903688912, 0.0010460261516041986, 0.0007766083704996504, 4.776637894891775e-06, 0.0006782294471061477, 0.0007915317721005963, 0.00030498504750657514], [-0.001106917295782233, -0.0010857232750162025, -0.0007550215416123565, -0.0011339355037142836, 0.0009587185327743311, -0.0011862884168049243, 0.0005327702990155111, 0.005937739071737179, 0.0013488441975149988, -0.002321345417266902], [-0.00347638003214701, -0.0019003344920086695, -0.0006195513612421285, -0.004938918183318361, 0.001135537909047308, 0.00013581264923443454, 0.0019248793714789977, 0.018405554077129734, -0.001302464506007003, -0.009017328290421832], [-0.008076086856503545, -0.004499845178207288, 0.0028445063686616547, 0.0009155498665900909, 0.0017802112191777646, -0.0027615667354992856, 0.0026854051386166495, 0.029117113212445537, -0.0074767452314612555, -0.017735781657372905], [-0.009169786720578648, -0.003476556215763728, 0.0044268032607950635, -0.0014811452787217266, 0.002099804733349514, -0.00250046238910005, 0.00028612057873773005, 0.034615516762841435, 0.0013561751697292856, -0.02940694726148843], [-0.006335893969945548, -0.00658193186672013, 0.008391558690756347, -0.005046694932797506, -0.002402317355602107, 0.0030584509349108366, -0.005069457245087122, 0.02322629141829676, 0.0065143480254204605, -0.01800726769070636], [-0.003224189387022104, -0.006334670364120252, 0.002296760121026953, -0.006110311757079691, -0.002925196285415544, -0.0023381673937693994, 7.632374736482078e-05, 0.00857009266745783, 0.015049592920640118, -0.006268019501600406], [-0.0013131112629705163, -0.0003795945801935956, -0.009656355509010341, -0.008907140739385366, 0.004026267246790331, 0.004078524738848372, 0.0033257760847198534, 0.010483734240682397, 0.010028954280467808, -0.00931503696658358], [-0.0016548620367559455, -0.003227974762009791, -0.004650344299506896, -0.01248437716729, -0.004921669125264975, 0.0094928122603358, -5.718304603777765e-05, 0.003459925508174918, 0.010035127827592484, 0.008428226059297179], [0.007799784341354194, -0.00402004662027241, -0.004232260856620563, -0.019196119569622586, -0.00025174460041179074, 0.012222228971402018, -0.0053742746815027475, 0.0006372762810894541, 0.008800981798843352, 0.004744921995092957], [0.0022496315789831294, -0.006139701919931927, -0.006222062338457119, -0.021626826995905464, -0.002528130547449556, 0.006665685936075895, -0.00012273985700207387, -0.0004466061901232595, 0.018147163799342957, 0.015952432751119003], [0.0036850644617698798, -0.01271139919163103, -0.00606805305269707, -0.027609998588307785, -0.0049562225363477316, 0.02014753104254559, -0.0046833240747070105, -0.0020028577342899134, 0.01506090028817749, 0.015074034786422738], [0.003418480345887963, -0.018600312318753743, -0.009412070288436249, -0.01718588903037526, 0.01012042709795915, 0.013192433032614134, 0.002265522632249506, 0.002096225065465861, 0.013051644963471979, -0.003097385446698891], [0.006822518048451008, -0.001245160283806503, -0.008869379868327393, -0.004214197237265538, -0.0030447962525116915, 0.007546904138280559, 0.01031676508060321, 0.016795758286721234, -0.010317231753913369, -0.012018574206445544], [0.00384757751938202, 0.034929909493694296, -0.00045832660635075634, 0.011886869861178878, -0.012550596204672942, -0.008572527860098508, -0.006847523426659665, 0.014434881547761163, -0.028245192544610078, -0.01318101035544824], [0.012532769790564974, 0.026008496916189734, -0.0005083561634662984, 0.019502039184040896, -0.005733205301921364, -0.014629587009906436, -0.01775357609320183, 0.01704097270554187, -0.025477136557422824, -0.005585040894092336], [0.006865977157287982, -0.010836767744939654, 0.005915874675946982, 0.019859990002705184, -0.003765764886533636, -0.01730155938306435, -0.02072984419166554, 0.02951150818300004, -0.013569933664990168, -0.0009933113968784988], [0.012516309850223735, -0.002455088385695899, 0.005944013234052285, 0.005338607720131799, 0.009066796037304288, -0.02889556120386252, -0.02050234537624811, 0.01777913619277291, -0.0036815224910567994, -0.00365583127875768], [0.014528268129172375, -0.008527321400556552, 0.009294642872595515, 0.004456935140794733, -0.0045571684253302444, -0.019342431467304345, -0.015936225125691796, 0.009818442263723812, 0.006224182102497909, 0.0037976664138575375], [0.012894910524814437, -0.005238730441185392, 0.0024515043101288776, 0.004147408397750001, 0.001564975806446259, -0.02383134571663645, -0.023277091039445, 0.013573137307267214, 0.012999152332291713, 0.004580160233873841], [0.023738734981272856, -0.0032593635338766702, -0.0035743071247286155, 0.0050696723730192725, 0.00010674377548199396, -0.02587204527298019, -0.01604152036066328, 0.008809039209992382, 0.007959355849045072, -0.004454691759137193], [0.01559504288822561, -0.00356120690871609, -0.00014997081886197728, 0.00450438256675625, 0.004733862904446506, -0.022301614302881394, -0.020318453375354917, 0.010017206117482684, 0.018955824546476686, -0.009783836779554347], [0.01689020899060799, -0.00011318879754217466, 0.001148043279554474, 0.0013961673312759108, 0.003269030793848238, -0.033961286782738485, -0.0249025030195368, 0.015624984408485984, 0.027522711788134743, -0.0014298597774224675], [0.024232348456966774, -0.004986244904436316, 0.0017653944910560138, -2.0488415167338934e-05, -0.012358829623945671, -0.02359084613187278, -0.02239869459562898, 0.0071513243094285224, 0.03359538317137166, 0.002455412346125804], [-0.0229606628045393, -0.0150499289847104, 9.5781753258417e-05, 0.015140020775808198, -0.014449283025599004, 0.043970190757654015, -0.018856692637881402, -0.0011244706311391644, 0.01749291477350597, -0.012116964436665805], [-0.0374801099561867, -0.014818513416511704, -0.005729437764104521, 0.011097197466697312, -0.01261785599025628, 0.07781057162533238, -0.00892921872977373, -0.006740705131690934, 0.0026161905967983135, -0.01628727773105889], [-0.009893365309276233, -0.0038128692363889596, 9.950506992563676e-05, 0.0037213398549155357, -0.0048066456169863605, 0.019825283989132223, -0.0032008866060739597, -0.0016469124714975246, 0.002152827276746886, -0.004291630966830709], [-0.0005199230763455663, -0.0005050947001468899, 0.0005729035657237945, 0.0008716163029635452, 0.00044802349372798984, 0.0007386143898197581, -7.360594641236025e-05, 0.0008697945190045071, 0.0012255406363314313, -0.0008272524925930857], [0.0010060915071355336, 0.00034255912098625344, 0.0009970664350496654, 0.0004897358367801868, 0.00019933608999569838, 2.4384958200433372e-05, 0.0005467104416655212, 0.0011969488447105506, 0.000167633410266948, 0.0005639930699007945], [-0.00046795660887933546, -0.0013083804554282709, 0.00034409607245113505, -0.0008495088063355453, 0.0010724740766264874, -0.0017089741908874942, 0.0008860183468348577, 0.006291450476981095, 0.0006519860894084974, -0.0023585829265004086], [-0.003916016310369868, -0.0021347504614686536, 0.0019258134736546775, -0.0035733966958554977, 4.861331623547623e-05, -0.0035595504357492447, 0.001394838003972199, 0.02166696154493361, -0.001136771952353656, -0.01130091532256997], [-0.008076322129502465, -0.005015367099009028, 0.0077694423800495896, -0.0008350414750068333, -0.00017945326268414203, -0.005295223017740392, 0.0019493810372915427, 0.0337787908003588, -0.0056224887330015615, -0.023251980686024156], [-0.014338705093366665, -0.005638391701694802, 0.012349897798034387, -0.004079729029197353, -0.004375313241869244, 0.00019781092736592486, 0.0011415768176201737, 0.03594385218328966, -0.0007007222947941614, -0.02347030615866555], [-0.01421131502159667, -0.0031468739058430856, 0.007775218295329339, -0.009981463227940099, -0.009433119880459322, 0.007804394724871586, -0.0013982966821532185, 0.012901737502626071, 0.008851954052680763, 0.0017126106707965186], [-0.0012628968689044312, -0.000900679437923711, -0.009720362056929242, -0.010118004372426213, -0.011895784373797963, 0.009725078692463673, 0.0035873370267133094, 0.007787734149594576, 0.014737089907418227, 0.003421156510307278], [0.005346332521846014, -0.0008814787880310232, -0.005710697466775385, -0.020077164798283288, -0.013997568174456475, 0.01302095775151062, 0.0018678759220667274, -0.00012078206067460767, 0.013210620905887899, 0.016669579450402393], [0.00292122913921025, -0.0021300280457224674, -0.004982046824622791, -0.019054961708820244, -0.00690811370502934, 0.004167464409559498, -0.002494934808541813, -0.007974876336248956, 0.01317226730132851, 0.020910702774651773], [0.0013198487947616397, -0.006928419375892468, -0.011234122569789512, -0.019251463258582426, -0.006526992234211379, 0.013341576992903675, 0.00534193174832131, -0.00625603690885811, 0.01466616191929047, 0.013675456782752582], [0.008752334628902087, -0.0023733021510063484, -0.012614590506983837, -0.02462747652933174, 0.004444917128977705, 0.006443740746310727, -0.0019002518531744562, -0.003231394318856875, 0.01412850114691952, 0.013864922826033153], [0.004480042038247044, -0.008567828157762983, -0.015401075434450611, -0.02688430605480241, 0.016291837381173714, 0.016088551564205356, -0.005838927601381934, -0.0030192217068966253, 0.02471846523017635, 0.0008368684653222616], [-0.0057409852113542385, -0.02610691843442858, -0.02035285308327892, -0.0184781046633931, 0.014478604651224133, 0.013050230351983376, 0.003161180746125373, -0.0006282437675578338, 0.03760036038373046, 0.0009615653701497975], [-0.0014037893276917126, -0.019385653864448935, -0.026037598447113584, -0.0021344695996583806, -0.0052340362522945135, 0.016327335277447806, 0.013188355117382734, 0.003981044975270538, 0.02419678691459884, 0.0016534397694784415], [-0.021244401856166016, 0.05691786356573341, -0.02797272917599279, 0.027423910114353026, -0.007668566763613342, -0.007503345002023773, -0.007186630539925464, -0.009150244021986156, -0.010272164878091667, -0.00646206727535911], [-0.011567285188669743, 0.033799617565870514, -0.004626177803682096, 0.03547657066607597, 0.0035820145878392427, -0.01996469380133497, -0.0235911011816378, 0.0011873585622977478, -0.024003831645093572, 0.008761628776993914], [-0.005983489322270269, -0.022376319995513108, 0.009315885185812398, 0.01999284099505761, 0.022703060441743944, -0.011837422267502229, -0.006116916266104376, 0.01181074571151362, -0.015518788949388103, 0.0048634830497742325], [0.001493709752548952, -0.009525761536578725, -0.0013184624897640126, 0.00899445962485347, 0.011672347636110204, -0.02897047299226105, -0.011863767260105152, 0.010973192054653467, 0.002719689392776024, 0.01136251043873792], [0.00503109831451403, 0.0016106851616997622, -0.0005292395807689362, 0.0011585252841231869, 0.000718730406733646, -0.029594024415991935, -0.010033005977068368, 0.014261945269968938, 0.01674851438482025, 0.004603399956046534], [0.012700253307597161, -0.002456784882364914, 0.004880695993307992, 0.0025185028411638306, 0.004062647775809645, -0.0358765824936117, -0.01336967890435305, 0.005186752485233907, 0.013010051293844267, 0.008374625692483373], [0.018790850691757763, 0.0008044199813381033, -0.0017497484485476502, 0.002534934239127733, -0.004716154622687427, -0.039430480447577354, -0.010170974313972592, 0.006080158159186295, 0.010163394218591006, 0.01782890934753218], [0.020377079620916085, 0.005280921446293946, 0.0030521475003243382, -0.012585186871313428, -0.0038038539623588465, -0.034068123100336085, -0.007397028359615444, 0.005798785002448528, 0.014107358567631054, 0.00992371319423467], [0.0222445841713956, 0.005386644424442114, 0.0029623371403039987, -0.007418471871319417, -0.0074191137420946945, -0.05160487603094048, -0.01492424388351163, 0.008033774516162015, 0.023734278627121547, 0.017382808878282363], [0.038230195171348354, 0.0036902517091780477, -0.00291524791635343, -0.0035173499540445516, -0.005649006939944663, -0.056565064515657924, -0.013158044772477645, -0.00331367462812091, 0.027578460684005657, 0.011154022819554014], [0.003580964230643616, -0.004425956007373855, 0.005469592993959489, 0.00941123415650598, -0.008422950971538255, -0.023475961185374483, -0.013470224679927222, 0.00042238989085788525, 0.024675661238692626, 0.00025294895410420094], [-0.02025427813017768, -0.008925667726951638, 0.0009140833191132062, 0.0083444483576194, -0.0076830392062054555, 0.03139734517424404, -0.007014400208031346, -0.003059505836152346, 0.01135977418842756, -0.010471725018616405], [-0.0046590832818171135, -0.0009060968540098874, 0.0006116892292266903, 0.003489506969730147, -0.0016381225747413278, 0.009912041523928652, -0.0032065467928767675, -0.0011099663843302336, 0.005378073073177361, -0.0035534211609694376], [0.0006688205792092064, 0.00012395806122792547, 0.0006444463524152003, 0.0009623898179014009, 0.0009509398993147736, 0.0007485274336071349, 0.00048114644630611213, 0.0009134593100454744, 0.001479839352339417, -5.746690488901452e-05], [0.0010539582929372873, 0.00022213206185128174, 0.00017189435927764146, 0.00024971491893221407, 0.00037474342439710326, 0.0008334752248730578, 0.000652912130002213, 0.001305119739214755, 1.4604660387815166e-05, -0.00017154086202460093], [0.0005473101178085185, -0.00010136378034448034, 0.0007629597678014329, -4.669346180047217e-05, -0.00022945538737433694, -0.0010239807337970373, 0.0005169566780514302, 0.005247413257804216, 0.0006609822802688908, -0.0010712027085502285], [-0.0022500580553503767, -0.0031031977617686037, 0.004447589897438316, -0.002627395492043873, -0.00048326484928760873, -0.0036930637854312174, 0.0004942923341921757, 0.018010526840967694, 0.0002512910790029942, -0.009319628471835224], [-0.00831608452231481, -0.0050122078074054735, 0.008067138421263739, -0.006666705380850791, -0.004691122942417685, -0.003872610732719346, 0.0014530910257684565, 0.03233102346747285, 7.819857708798302e-05, -0.017698621384736695], [-0.01942975288745781, -0.008667585495937867, 0.01402293990264687, -0.0077453398242364, -0.014548446739268282, 0.003659051566159205, -0.003024691458986694, 0.03116322569546336, 0.0033652439098999093, -0.0048141895588357155], [-0.01376116504191927, -0.007144053447917411, -0.0056251699251667064, -0.008935580552380678, -0.01600391399280466, 0.015006357422418678, -0.0028277206832450527, 0.003017779065974776, 0.008219119706019764, 0.019687184435880987], [0.001856273010391385, 0.0012413024820610548, -0.019132092505413305, -0.012879570469430904, -0.011384386744234263, 0.021219994402501413, 0.006139622963336908, -0.008044797492653905, 0.0025001424044957077, 0.022813115396828593], [0.0013573922247574256, 0.0033387477019721674, -0.009652787701196609, -0.017683550863325532, -0.007257812583281804, 0.013754440569043892, 0.003040122350855469, -0.003209821062234667, -0.0019218092118324127, 0.019593251050137067], [0.002264799739780995, 0.0019762029662313023, -0.0063542760354335535, -0.013212868112481076, -0.0011862285688827182, 0.01330856436570748, -0.00029840366018975257, -0.0067612289062113405, -0.005439144471755492, 0.013587191940296572], [0.004044309040024777, -0.0070494092003199485, -0.014967251143635103, -0.007516486046593102, 0.006494197864175519, 0.0032303653475082845, 0.0023547562717085697, -0.01418358902894901, 0.007000785195488974, 0.016775548528132157], [0.008394460702172719, -0.00475211537543934, -0.015416658510607724, -0.0025225802667527527, 0.013759052660232272, 0.012940869180773262, -0.010105986645702463, -0.013209902977985848, 0.002563239879046827, 0.009454140021032169], [-0.00822276924838826, -0.004955850260253293, -0.02825932915581728, -0.0062428715223949915, 0.013970927817001952, 0.019942267833310486, 0.006131702508480031, -0.006803047901986518, 0.011592739755352079, -0.006014700745684021], [-0.0018151330167111264, -0.04354393014109345, -0.027072373603303477, 0.008734045706181614, -0.002200794300175657, 0.01713288633962562, 0.01682793009456878, -0.009338807639822144, 0.04038672069869535, -0.0051035371879634235], [-0.005604086485344954, -0.021473113869372243, -0.02946974953065181, 0.014817821136909411, 0.011340905909612727, 0.022024277365657558, 0.005625403688183536, -0.01159955092460343, 0.02960396284210503, 0.0004884257366998322], [-0.03781043641239462, 0.10047642398527501, -0.040349311788173095, 0.02424202423402049, -0.015217362948346988, -0.004774105283045124, -0.013940983944302016, -0.036786531420520886, -0.001131398723395587, -0.003990207970263354], [-0.01650980489765757, 0.01596547415368743, -0.006136438113679148, 0.013650042368207367, -0.0003048917096398102, -0.0005945756042203342, -0.0038871587728666534, -0.008456909508590292, -0.0003857070465358565, 0.015365492066135867], [-0.015986302035529316, -0.031154431569165583, -0.0036281953944693316, 0.017060734909151498, 0.015952336323733964, -0.005387763853037612, 0.0034374027739483, 0.0076609527086846235, 0.002176585328264411, 0.013215110515667877], [-0.019960614545856046, -0.014928259571772606, -0.006488267035118619, 0.0036104386383385375, 0.01815151521457208, -0.013525586593472791, -0.0055971476973596815, 0.004885877110502231, 0.008707245029381281, 0.009288516804811315], [-0.016181447504921852, 0.0057977941167309584, 0.0012772866906684806, -0.001979130691844258, 0.004872586778409569, -0.004994013215112992, -0.0027683672175140657, 0.006952160738154933, 0.006489376482123369, 0.007445417728112659], [-0.00834803043514583, -0.0009838088159656033, 0.007011743901548068, -0.0032777000505091556, -0.006447782488303384, -0.016025671901901645, 0.0032323216237633264, -0.00042777935527392544, 0.012657083785917494, 0.013543807606707632], [0.0020217560847659993, 0.002761759511958499, 0.0040979106750538155, -0.0017094344147211588, -0.01265828664720939, -0.009109753229004843, 0.0007492295812736843, 0.0013738227182118325, 0.005107797645124191, 0.011758926776386878], [0.010022379536370732, 0.003747523806948218, -0.001800449079362792, -0.01408271008087723, -0.01457507836623597, -0.01606996544049612, 0.010871149719485156, -0.0032149631192957243, 0.010822914445380269, 0.016009604674249407], [0.026444204510102178, 0.005249140389102948, -0.014055192193975526, -0.010821489376957908, -0.0073027762304457, -0.03705117961637696, 0.008891106586743646, -0.007973355250551935, 0.0023539658514729433, 0.02868432636368452], [0.04413418341155039, 0.006582330978096519, -0.022946124474531825, -0.005978390111507041, 0.002833862903003132, -0.05943816872436978, 0.008616503129617207, -0.014327150176291666, 0.005672327433977565, 0.01757718540129704], [0.012754624457848553, -0.0015022236500559867, 0.0004807764081064626, 0.008553713619355694, 0.001107994033697995, -0.041442938302709655, 0.005897113387752942, -0.0040103594757808, 0.004202415306081179, 0.0031074199218896607], [-0.008706981824715758, -0.005032930156959714, 0.007535706175376767, 0.007226666563197413, -0.003289008718100023, 0.006030432390655607, -0.002997082986496955, 0.0007861376250251842, 0.007024517213746793, -0.006889480571870473], [-0.0024446867399655734, -0.00032800043634425126, 0.0044201178063678105, 0.0025813367395775633, -0.00022165397286278893, 0.0028103176735991818, -0.003989337460277403, 0.000541078206503018, 0.0032869216266105798, -0.0019837880295872725], [0.00014873883772736432, 8.478515209180835e-05, 0.0006197972425758376, 0.0007724079244328828, 0.0006951906371069204, 4.6731585784543834e-05, 0.0008638237763671612, 0.001352392223762377, 0.0008708424351740272, 0.0009929647682025745], [0.00033057510786725424, 0.0007919417375568023, 0.0003528483258283496, 0.000987286428040702, 0.001088921537190861, 0.0010667029293139458, 0.0012583768663922757, 0.0006692046379398267, 0.0011899007483172311, 0.0010171291087482997], [0.0008189381857331761, -0.00023719359738674567, 0.00042887294210950793, -0.000459875209590324, 0.0005491681464403561, 0.0003672449216569634, 0.0009411187159038975, 0.0026746941627425495, 0.0008949370232735572, 4.366798556999549e-05], [-0.0014276456510424068, -0.0015760150517121062, 0.0031629400455985986, -0.002194844711080734, -0.0013342268623598229, -0.002443027422660675, 0.0005942185441316123, 0.010925856773648077, 0.0009491222657068083, -0.0051360066930056705], [-0.008142249710701195, -0.004076153959397979, 0.005014439486672715, -0.005620907013577576, -0.006154327092813977, -0.0015221988185102496, 0.0016900378288552224, 0.022120256509915562, 0.00014155268659525643, -0.007082760690716994], [-0.020600289463736876, -0.007571011275510455, 0.006635528411360303, -0.008819731163457354, -0.007306952736669017, 0.007577416011884407, -0.003800861762889012, 0.013890187651153166, -0.0007905293086824165, 0.013528816511815879], [-0.005035129136208418, -0.00563300832915094, -0.01716256087104787, -0.0042500241060128745, -0.0019376645407545498, 0.018676972338311497, -0.0007448677075749586, -0.015093729429430068, -0.008330217564473198, 0.030569913691361476], [0.0031632147131055465, -0.0007286034817552942, -0.02344935920491447, -0.0022964529709859492, 0.006576525436548406, 0.014871040210928754, 0.008381824209733118, -0.0162755051059278, -0.014187134502579088, 0.020725145177454146], [0.0038046565494030088, -0.0014144535596998476, -0.01663465495940938, -0.0029604505466170675, 0.011424661590967418, 0.009826699554808404, 0.001051210598159942, -0.014045919504839896, -0.012066477745569916, 0.01595030208694979], [-0.0038492196173620544, -7.198478408313944e-06, -0.016987102257848323, 0.0010532294340761202, 0.008730485171723203, 0.008218479028427053, 0.00520167473068254, -0.012605100904570328, -0.007545568046380416, 0.016992000747044572], [0.006659488410041723, -0.006781901054894365, -0.016326950797296503, -0.004928635361369352, 0.01613881099091913, 0.010796534555526968, 0.0004153468388988606, -0.016189678740368838, -0.0025713193650784296, 0.011452021752167451], [0.008350407333835451, -0.0013350257452033464, -0.017268289550186496, -0.0011513556509363907, 0.024398759346119913, 0.011320969790848437, 0.004382709463659006, -0.011267311198472948, -0.024011856261298394, 0.006745055533656007], [-0.0012347058401393997, -0.008714933350138022, -0.01716619469930039, 0.005702686990893189, 0.006403589652439927, 0.012835008017262044, 0.017386175813090647, -0.01456402592577483, -0.004312575172523006, -0.0021638742983681085], [-0.010904658846316584, -0.07117944187491597, -0.0068906634788581285, 0.037410461507593994, -0.01127203459562943, 0.01752814366091318, 0.01492334383233411, -0.007596487709869046, 0.04365087726726195, 0.0009732709253508074], [-0.015064622369711365, 0.016375448371480424, -0.008703426260550214, 0.009540108663924317, 0.009965420094175365, 0.006180593486019903, -0.006010932332095276, -0.010258552784988481, 0.01920171845566277, -0.00642104383969376], [-0.03362852422778374, 0.08867760237501389, -0.007621987401381801, -0.007258852728525722, -0.020100158514414122, -0.009492624545515051, -0.009298431356792732, -0.03881433168280437, -0.004837588496664993, 0.008575808435627299], [-0.010832688692503235, -0.0018827173061717252, -0.009196537822219502, -0.011803987467831047, -0.001404819823868342, -0.0013540647379582794, 0.011245841932041485, -0.0009021795408387235, 0.01660677675788134, 0.01867799035226129], [-0.011295872856031015, -0.03048456694495118, -0.004463447487005592, 0.023754176795892402, 0.007985314696233887, -0.002548644932234033, 0.0013638431212130838, 0.004151994809682677, 0.005119172782597604, 0.012847022191221281], [-0.026592922171227162, -0.02146423712792804, 0.0022594573872266157, 0.012511626174510689, 0.02124266023600396, -0.012117366859927528, -0.0008596379550402329, 0.0051656222157956035, -0.004098380599886339, 0.012903234969612655], [-0.024160443182859075, 0.005206617245441742, 0.0013780683024873222, 0.005128116240170414, -0.0007672418421625091, 0.005872706523785329, 0.008525843306021384, -0.006663200075790396, -0.005164881132275327, 0.017111952512458038], [-0.01948624190922716, 0.0029011003575102412, -0.0012396522933192445, -0.004090049522839575, -0.009200872166830394, 0.00695677691460163, 0.0099594936990215, 0.002453227933397684, -0.004193740950422764, 0.018251929097991528], [-0.012330679238619942, 0.004454805858577819, -0.00022600201050282912, 0.000746222235226605, -0.0026735022097484793, -0.0002914596691571855, 0.002987009100937391, 0.0023684881676061783, -4.9512120080414995e-05, 0.007319899939468875], [0.011746389467005677, 0.0004845989601445023, -0.017104780360640292, -0.004509932959923223, -0.0018322100570897976, -0.010349539638221023, 0.017138667875248585, -0.0036673743212206084, -0.006495694239276042, 0.006867056018930064], [0.032587799625811306, 0.005593406158352106, -0.02831724950220456, -0.01007547124741558, 0.0018660214798589655, -0.015033035638439203, 0.0212226733126981, -0.0051342442955916254, -0.010482015085200679, 0.008866467671457125], [0.03490596964790456, 0.004738813972664186, -0.02734220317542978, 1.0712601922453797e-05, 0.005125411662490615, -0.028356154975026342, 0.030614488277706086, -0.010619696709716278, -0.01392031864027654, -0.000654952981255631], [0.0015001917731138615, -0.006814375779939678, -0.007712088498563962, 0.01232753696501266, -0.002496924250009229, -0.014054944798668046, 0.022483163018633713, -0.0012091526052729002, -0.012573279019503955, -0.006343604908947185], [-0.007791538101740871, -0.008518626984224842, 0.014484839874200068, 0.00451160735757365, -0.004845781076583207, 0.0018687513456111988, 0.0007160338945554753, 0.0031247822680430465, 0.0014857376321931145, -0.004553128254380922], [-0.0016539489963194546, -0.001931068770079278, 0.010455469067164878, 0.0005314759837096821, -0.0004387021417344642, -0.00026769024044861545, -0.0045493311215901305, -8.435097166137548e-05, 0.0012634296306693184, -0.0011076201604276225], [0.000628845646654607, -0.0003074500762158771, 0.0030925164376908072, 0.0008908911350886382, 0.0005368109973089197, 0.0003999006573331722, 3.812493539871308e-05, 0.0004299533623735642, 0.0001468238321531012, 0.0009411142092610186], [3.0370298008325684e-05, -1.6489169249153176e-05, 0.0002730042444781282, 0.0003931570400083566, 0.0002015370257713115, 0.001168197695200422, 0.0002681639690076793, 0.000631721409004815, 0.0005983535278210824, 0.0006670701243229726], [0.0006983379845357408, 0.00018903024012162497, 0.0008417311072777756, 0.00040584053363365325, 0.0009772269115341306, 0.00024370428915811843, 0.0002511657024262318, 0.0007202901883099401, 0.00034519771182390293, -0.00018863740720929112], [-0.0008908120517278682, -0.0006190793824734407, 0.0008127054552011686, -0.0005192471818695762, -0.00047199050215456477, -0.0012264657275939477, 0.0011872921110315322, 0.005742184266094758, 0.001670915531207704, -0.0023472432621410586], [-0.009082832471697359, -0.001995065626359501, 0.0010984381145937492, -0.0027785722000152496, -0.0015856789459820389, -0.0014397847818033598, 0.002443897975645646, 0.011672760653677743, 0.0005873932195468849, -0.0013007149202059834], [-0.018813349423305942, -0.005003627835894241, 0.0019909747656991867, -0.0019294540536846743, 0.011904778298952371, 0.0035556727372921607, -0.006134179974065819, 0.00046826874959003196, -0.004083106171007977, 0.012232457941555136], [0.005436099767257952, -0.0039018659661518513, -0.019606522104376706, 0.003343829427760656, 0.02851384739072064, -0.0008458228677075395, -0.0059445364993484925, -0.01983055030519467, -0.012255011039353165, 0.012329164562953136], [0.008083135422970155, -0.0008724150781225145, -0.014858463224743422, 0.003192374140471072, 0.03588496581896805, -0.006854175545002736, 0.0016514499179304542, -0.017720914064739156, -0.01927976030095065, 0.006744795174921515], [0.009938423566869525, -0.0018846389647824509, -0.010812182689028768, 0.0007232113839487047, 0.028055834895175203, -0.0077133346753181335, 0.0029303532752693747, -0.013546710774783127, -0.014540219023134248, 0.002507536660992917], [0.007271374308560865, 0.00045571097888375147, -0.009835783616702483, 0.003804912384764524, 0.020672845561289174, -0.004762677636618712, 0.00010269356280002678, -0.012476863644026105, -0.01247908397365007, 0.007653500874370768], [0.01274375826240938, -0.004918358957619851, -0.008407334011257822, 0.0037260571341041337, 0.012318471883500834, 0.0026451879507107205, 0.003654266568697726, -0.017553409678841128, -0.017944851754213766, 0.012058613096053642], [0.020760486257401293, 0.005200609448599847, -0.0016436189787122865, -0.00757643794524762, 0.010625819135268305, 0.0069356903331872725, 0.004425832120606542, -0.020227094975853146, -0.025753142946827182, 0.007179507119683156], [-0.0032020528104385517, -0.02860826887414465, 0.009821038625376881, -0.004881535408871457, 0.0008208634434075735, -0.0009062548056512523, 0.024356172553961643, -0.024239284449478368, 0.011860860430748204, 0.003205598518692222], [-0.013154909266633938, -0.0579827995624896, 0.007949467019900017, 0.020405424059901516, 0.008162641697054133, 0.016416340606637065, 0.004346562402838215, -0.0036248998804755865, 0.024311815410991425, 0.011065191638453242], [-0.007815090736004815, 0.054903735353062345, -0.005609215101720006, -0.01820004727308135, 0.003278135546547856, -0.005155550702705085, -0.018376577224763994, -0.025504272024232645, 0.013936024524054519, 0.005017176296227149], [-0.02822519849074576, 0.04467394200070615, -0.007414307685853783, -0.002654452600810794, -0.018073583022560034, -0.012733346202792362, 0.0025850908254312806, -0.033532412012172885, 0.01780870082585386, 0.017220090223506145], [-0.002968271904522991, 0.013887781143990256, -0.012868261475800153, -0.0033243576265028873, -0.0009753862466288058, 0.00697724265598711, 0.002092702704163564, 0.0020535222151009678, -0.0006982233290647409, 0.001179255681821663], [-0.015538712011809303, -0.044001344228094846, 0.0023956770545044913, 0.024198631017914266, 0.008093651660275408, 0.0012941226304927667, 0.01078701363921503, 0.009384700200867235, 0.0036507038292708793, 0.005260430689800849], [-0.02466388102439509, -0.013674417545665658, -0.002742406006176065, 0.018868609407860306, 0.01950915784686989, -0.024126276489812856, -0.0007993939203872371, -0.0003306835500267085, -0.0033844281607762596, 0.015177030117818804], [-0.01568383494298275, 0.006113553163781703, 0.0037119941961258427, 0.015413279798689693, 0.0026421555388234483, -0.0006118002953373081, 0.0013260418692736464, 0.0010779245214487727, -0.01503782821210976, 0.007609903595285691], [-0.01966634400389704, -0.002804445108871236, -0.0023357710163085244, 0.00610822178001234, 0.020801618739069144, -0.00785197396547917, 0.0023478953521251294, 0.010155920469781705, -0.00953373272410794, -0.005328134388364606], [0.005842102540859099, -0.001909615227201343, -0.0037303236298728724, 0.0003866158936476535, 0.01936020642286064, -0.008483732948837301, -0.001998539725389644, 0.001793425772837925, -0.008087857440393736, -0.008200450323875917], [0.024098742856610827, 0.00013373846722990198, -0.01750988764320877, 0.004384379682176364, 0.009318238782598411, -0.011557114939399885, 0.006660971934342681, 0.0013667934027340705, -0.009653144959360677, -0.009867838405691012], [0.015006169882960876, -0.00011704660203295175, -0.021490149688947118, -0.0014841831367136346, 0.011990816460722845, -0.008863527533235722, 0.02079089800102415, 0.009568586157102058, -0.015832081633604424, -0.0096302467527685], [0.018099641395619183, -0.0006844203310718945, -0.02732957149460106, 0.004477680744217993, 0.011009023831989597, -0.007638136447768655, 0.02698511686293459, 0.0005123923301672419, -0.016449634104557846, -0.01327603211465657], [-0.001633274500368727, -0.004907086642845659, -0.01785541251128921, 0.015933070001922053, -0.007895131774546617, 0.005326941096152215, 0.02250540432677161, 0.001437547720206005, -0.00928442543608947, -0.01116106944459497], [-0.008430556854775988, -0.006884211030024623, 0.015306522835942723, 0.0031439431601037494, -0.009189933396301392, 0.0017847995103898624, 0.004921981345484578, 0.004168836530806064, -0.00010536671171751163, -0.0026553317957327812], [-0.001962988355216845, -0.0014832711098765564, 0.013421572166605828, -0.002061359172375741, -2.550132222337574e-05, -0.001970493410824991, -0.005007548500911699, -0.0006583935724501694, -0.0005992187963084624, 0.0009110520187806623], [0.0009983215440869133, 0.0005790948718919443, 0.0013411344915569545, 0.000671641574646799, 0.001101516492394525, 0.0004879819530418474, -7.667000079457125e-05, 0.0009784163118019271, 0.0005781105757859195, 0.0007195221421038647], [0.00011748421198271418, 0.0010782574410177438, 0.0008577901547234914, 0.00014825950464659318, 0.0006793241721236336, 0.0011192515230600908, 9.347840587451821e-05, 0.0010973900098929883, 9.541114710727664e-05, 0.0010856732356659083], [0.000954563747796409, 0.00027508360186623304, 0.0008555107550681612, 0.0015745789372948074, 0.00043892841940193137, -0.0001382991399416486, 0.0008430474759262868, 0.0003271133225463726, 0.0006723377551494278, 0.0008213404958537197], [0.00011327239085569274, 0.0002094394533901669, 7.16629789824598e-05, 0.0027281049879927413, 0.0008659689364299033, -0.0005147644330240374, 0.0014369385526339883, 0.0024951453978108366, 0.0012788044337774286, -0.0003944512566390108], [-0.01113613392165121, -0.003863190059674178, 0.0016657490025182682, 0.002085729571630096, 0.001363261589529109, -0.0010074700276176954, 0.0005073429951741043, 0.00667698844980718, 0.0011910392820016142, -0.0019750280806276176], [-0.009335583612473117, -0.004043140455782509, 0.0009853863152967097, 0.003094905575529062, 0.018763623790824035, -0.00040776462751937714, -0.009679030551793224, -0.007122694208939052, 0.0009317499984329361, 0.0033373967435767057], [0.015404162956048687, -0.003354238550717517, -0.0035918796135182987, 0.011553943692748097, 0.03727834262062375, -0.021793615063664288, -0.011527150676810004, -0.01779544669482464, -0.007329798090984842, -0.00440051729710796], [0.004606780843039028, 0.0008777475181807508, -0.0034032711380876444, 0.006431824085994347, 0.03566976957276595, -0.02043121535354311, 0.0006400340625058313, -0.0018420669278159077, -0.010227662706270645, -0.008471658832236656], [0.011752426099523195, -0.0012451548399356192, -0.003336568435574981, -0.0019546127414045555, 0.02674447136792394, -0.014965183141573864, -0.00011890872514730247, -0.007863031099131567, -0.0032309204958242068, -0.004183609823635479], [0.014254427697179516, -0.0030733411759941206, -0.00023559253810534996, -0.006834262718976853, 0.02841626753547864, -0.0043565418184558, -0.006090657066432249, -0.01765078651233187, -0.00996486120294013, 0.0005544168598190455], [0.01789683896496267, -0.002460158941034501, -0.0012704446153544114, -0.007954876685886385, 0.007453070387354204, -0.0039058035132399386, 0.005746749902946231, -0.013730581143055861, -0.011093994627165878, 0.008345242853925456], [0.015575924498193705, -0.0026267364461954636, 0.0027122608783798946, -0.011935673387993175, 0.001395990010613915, -0.0022260533041834124, 0.012719196749642787, -0.013028641117980659, -0.016007105368185618, 0.011479309180908179], [-0.008848801313476507, -0.02704479651583886, 0.008890843018052232, -0.0058830659674837145, 0.01535191475723808, -0.0033652734256546784, 0.01845630333717757, -0.013263228452173082, 0.006624845119250914, 0.004153516392273376], [-0.012050312767511121, -0.027153763204429686, 0.004494371790340226, 0.010566424847061455, 0.020443989138440002, 0.009578544173298141, -0.006382078918016986, -0.0035925512223416497, 0.013334747702045752, 0.009101413815437491], [-0.016169621843413178, 0.04280379257668465, 0.008139522393119762, -0.009390565312773897, -0.0008671789420792501, -0.014143976740390078, -0.011761756349437439, -0.03461767192742277, 0.028715192240551198, -0.00027449965640219057], [-0.02920580250295792, 0.03317638552783252, -0.00996852689304472, 0.0006442233292549656, 0.004542500933725848, -0.024946372058983497, 0.012608411282526964, -0.01766514003973894, 