[[[0.0001565043925646305, 0.000943659412368229, 0.0003792847606988352, 0.0012394328287830701, 0.00035308740013736506, 0.00067815030902806, 8.300746407292013e-05, 0.0008355299962390556, 0.00011821034579043465, 0.0011688087526822604], [0.001050189276838743, 0.0005629001978361643, 0.0008971465110478604, 0.0008426892749423809, 0.00045990366009673975, 0.0007785062690520866, 0.0007576112510230857, 0.0008369083226518529, 0.0008304122834724684, 0.0007678917448065403], [0.000563428157127386, 0.0006426167966973417, 9.611318628533692e-05, 0.0009272462128690266, 0.0004546117082530999, 0.0009055133005595422, 0.0012243421211426552, 5.942180986459925e-05, 0.0009376794037469852, 0.001176846794794953], [0.0012478903146207968, 0.00013570939565753337, 1.7032653285872974e-05, 0.0005923681839188562, 0.0012051931279370132, 0.001127131653830529, 0.0010024923078107016, 0.0012724362126481825, 0.0003164050820684286, 0.000673401852936335], [0.0006280577932067319, 0.0005741956370955261, 1.6013640860528006e-05, 0.0002755818352433262, 0.0005979841616232358, 0.0004780015380714737, 0.0012315174770031675, 0.0008052278450647972, 0.0006360026127563349, 0.00013946496086100497], [0.0010220129821825366, 0.000537772408706948, 0.0008419877592892132, 0.00010720696424918233, 0.0012240123113834308, 4.560901757449078e-05, 0.0011126644083702193, 0.0007084513072559582, 2.9895599108254947e-05, 0.00017456359701573462], [0.0005989197603508773, 0.0008873776645719998, 0.0008330884521330991, 0.0012452196554732663, 0.0011771099719346942, 0.00035683132654145544, 0.00038582197672453036, 0.0005816456580093496, 0.0009547038814068111, 0.00025496906797398274], [0.0011523800558456954, 0.0011480729763398091, 0.0009872109955193153, 0.0007732599179122794, 0.0010180435969065734, 0.0003211522059562107, 0.0008378681435892038, 0.000557072486170927, 0.0009172308955613406, 0.00017853256361745028], [0.000743059049403104, 0.0009589711507279658, 0.0008610380094415435, 0.0010141597499622565, 0.0005267129785829782, 0.00012917547941123343, 1.8678448458953366e-05, 0.001152342179851535, 0.00026021155846207047, 0.00010821103410429499], [0.0008322775931530879, 0.00042859479924785293, 0.00015542198212047914, 0.0006049015669863684, 0.0008762426073774955, 0.0008601590322287247, 0.00016958349207112783, 0.0007677014010419248, 0.000991830595760103, 0.0009829552262023821], [0.0004531959232513793, 0.00022773566316028137, 0.0006079824310630369, 4.896267225334571e-05, 0.0011286074150715518, 0.0006667692108533404, 0.0004158126933237709, 0.0008147925683450508, 0.00010171066766808483, 0.0010289942274943347], [0.00016890460458957233, 5.6795655382220784e-05, 8.367596032028917e-05, 6.713065412719925e-05, 0.0007147565898802165, 0.0010720972823753119, 0.0008004503540803166, 0.0009062856529285411, 6.553138810509828e-05, 0.0007490005431952598], [0.0011000219518325534, 0.0011818605886490987, 0.001025488826478418, 0.0003145526328418415, 0.0009183382747256651, 0.0011212395021675133, 0.001191128628101625, 0.0008299619435268653, 0.001239268315902995, 0.0007089167686496641], [0.0012760062207238243, -0.00011806253765830173, 0.00017205367342746356, 0.00047806367560033314, 0.000558366041729432, 6.0866821440706223e-05, 0.0014179249474871583, 0.0006099490620219102, 0.0009411271282440525, 0.00042411137883634176], [0.0008823886817595731, 0.0005089682934763307, 0.000918789800375642, 0.0006009083013068956, 0.0006395705464124963, 0.00046234770388548787, 0.0007197150819118638, 0.0001861548262416849, 0.00044974271809125713, 0.001125447700053795], [0.0009171482468997688, 0.00045125682520850475, 0.0011521069182221578, 0.00015282743458550503, 0.00040462715361334585, 0.0005590774686150283, 0.0005626323430192965, 0.0001256415717200968, 0.0011125894201642734, 0.0005324711533050654], [0.0009854252347481778, 0.0005283271739717265, 0.00020572809048939302, 0.001085875706142383, 0.0012401694189843873, 0.0007743786357692675, 0.0009633081568812275, 0.0003273293193063694, 0.0009833632809672166, 0.000672293531965354], [0.00022348659736490036, 0.0008308188500642209, 0.0010539928935102455, 0.0007077814054923476, 0.0006636513549114939, 0.0007350569659964157, 0.0010221946895164744, 9.218072482904707e-05, 0.00011103942544168272, 0.0006735527540169612], [0.0007207895631001624, 0.00010712275922538935, 1.4301566392501502e-05, 0.0006688767264571783, 0.0011235973261681264, 0.0008842388554331622, 0.0006920012114680441, 0.000994381959080716, 0.0006618878948598117, 7.917655044261718e-05], [0.00028233708338663545, 0.0011753070719470679, 0.0010748138569983694, 0.0010133705059070534, 7.973321932651844e-05, 0.0008123476975391127, 0.0010197419390416686, 0.0007575918973871991, 0.0009246216423046841, 0.0012383616970681334], [0.0007318982929165518, 5.809187677602329e-05, 0.0010976609248284893, 0.00010569626720383325, 0.00014383303433302872, 0.0006134949068867783, 8.10981919194208e-05, 0.0004821630806482405, 0.0012145601324649413, 0.0002993578661772842], [0.0005634662424921479, 0.0009475480175220803, 0.00023199235393097525, 0.00026623097276638595, 0.0012621240054879683, 0.0007950454868394802, 0.000527703149695531, 0.00042348044183560055, 0.0008356920566200481, 0.00026066868161976576], [0.0005853491716503781, 0.0001664786387734625, 0.0003441951052997514, 0.0010990305943200912, 0.0005575838793786931, 0.001198057869854789, 0.0005285315367250904, 0.0008205550376142418, 0.0005244935778200942, 0.0003584706433141603], [0.0008006615064937546, 0.0003069725762523748, 0.001193798338627353, 0.0010384269702681755, 0.0011770492106627712, 1.689543908894269e-06, 0.000844135278700784, 0.0004875385757711795, 0.00024330942211743688, 0.0011319918661852803], [0.000984343783745482, 0.0008957112711846782, 0.0005303260313230581, 0.00019730022350779718, 0.0001953341784404214, 0.001218870158393381, 0.0004239008383579744, 0.00021062634334012082, 0.0009127777232018831, 0.0009237429452117564], [0.00043642901120577275, 0.0004846987965589324, 0.0007876419758350261, 0.000959624683827886, 0.000959141683771011, 0.00095814205909274, 0.0005133552084717821, 0.00081495121393137, 0.001006497876552974, 1.278720414097503e-05], [0.0011791263233540147, 0.0003911021660455394, 0.000832122130224639, 0.0008665816005324985, 0.0007122711713143958, 0.0011350018235242213, 0.0005318976936572612, 0.0004898051613642046, 0.001049222661570698, 0.00037138113113605395], [0.0010895373400906796, 0.0003798497218859808, 0.00035552741953152997, 0.0003480569913294715, 0.0010659542661756393, 0.0004905468771449056, 0.001044097900555201, 0.0006354607693110075, 0.0008187090437064201, 0.0006077375752756666], [0.0004912687746538286, 0.00017248329116041698, 0.00012143675154947626, 0.0011316911078814835, 0.001190757257501265, 0.000423362867439349, 0.0011057957035583053, 0.0010639030615795949, 9.259277431420845e-05, 0.0006462983558918804], [0.0004341142304936396, 0.0011600391824816048, 0.0005769601404467692, 0.0011240974901699512, 8.445900263789163e-05, 0.0007414716069364998, 0.00018456102140494983, 0.0006844097484569686, 3.7891936781052036e-05, 0.0009634665926629522], [0.0009489312076370421, 0.0009958442268090952, 0.0006513257908261036, 0.00047310428335030276, 0.0004774403706592618, 0.0007459436899495257, 0.0005080104491299944, 0.00033391365156774564, 0.0007544898460222069, 0.00044193443321131003], [0.0004904442693378563, 0.0006436285333525395, 0.0004557075050395037, 0.0010311792250913986, 0.0001291525290539955, 0.00024768638049124897, 0.0005363783838923517, 0.0002017051890792299, 0.00048769438459638246, 0.0009237331654495866], [0.0002313644380844847, 0.00018615465346694603, 0.0010798488394334381, 0.0006901682677282289, 7.992227494522281e-05, 0.0010413045021907563, 0.0002529031620474541, 0.0012537121677269009, 0.0004908944230613089, 0.0007990305080990275], [0.00035797880605067576, 0.0005735454964119584, 0.0004970725866464934, 0.0006674424605174088, 0.0005242650380804007, 0.0007200420778109457, 0.000972081146001197, 0.00043153870909179567, 0.0012738164830220983, 0.0011320998421790866], [0.0005674284706436542, 0.0006436452130587244, -0.00010853328519362944, 0.00022258715989515327, -0.0008237784966967796, 0.0009719880917070826, 0.0019301066186412305, 0.0005603898402915147, 0.0013518512929903694, 0.0006567361648143955], [0.0007128783964147974, 0.0010818038820473558, -0.0011521801400608022, 0.0010746646668366574, -0.0018374906530218595, -3.504068703895491e-05, 0.0028891189042661823, 4.3633707388026296e-05, 0.0013478093745365426, 0.00046552709483825127], [0.0004828936843209285, 0.0007845550642215139, -0.0010698487871371183, 0.00032830420012872725, -0.002174910464469502, 0.0012187427375096153, 0.004985199544533379, 9.136270291796664e-05, 0.0013528998800190538, -0.00031761907094809895], [-0.0005552859734016272, -0.0003041019041581801, -0.002392687416497591, 0.0011253388214941473, -0.0033696158719355336, 0.0020739620515285383, 0.006309343112071077, 0.0008676372719201406, 0.0004895475561500733, 0.0009199517500656887], [1.5882734477150846e-05, 0.000310977674419119, -0.0038643126549339013, 0.002269733324217755, -0.005617512599965994, 0.0015864907058268352, 0.00799709422599662, -0.00016614887024362065, 0.00014142061475829116, -0.00026310212590191013], [0.0018160307919673168, -0.0012035102949576482, -0.004743235471585873, 0.0029480641198009745, -0.00712235389087625, 0.00023011129865212912, 0.010552490431402621, -0.0010167715413881696, 0.0009450277338518571, -0.0004629261209459897], [0.0013234923068508161, 7.010179146278546e-05, -0.00488249191585142, 0.0032534129578204026, -0.007662417901543715, -6.82423002319858e-05, 0.011618019828157815, -0.000796348576668216, -9.738721687714917e-05, -0.001812638381558173], [0.0016680703096755365, -0.000765498400547008, -0.004921876831441913, 0.0024885792125471044, -0.006315566580675636, -0.0012503702826580786, 0.011249217996761925, 0.00020630489565930004, 0.0005718224820762306, -0.001211473518975015], [0.0006649194384128341, -0.0005133290348622042, -0.0030236304562907493, 0.0024987551273796525, -0.004811516719025128, -0.0007339793198677967, 0.007578450356228195, 0.00014453289072217387, 0.0011744402370282576, -0.00028977288712186695], [-0.0009475427273531683, -0.0011115619680958533, -0.002019098153459961, 0.0023129997380135388, -0.004029857166577934, -0.0007035710825422619, 0.006602077300560294, -0.0008023690940156086, 0.0009122629443001026, -0.0012613992199726621], [-0.0005216195717082369, -0.0016989607014697016, 0.0012889120161760986, 0.0025054894174218506, -0.006042224587140605, -0.0003765522209559223, 0.00659788658094237, -0.0007283268246065874, 0.00022912693223337075, -0.0006757470676869347], [0.00037823618372289915, -0.0005140420449235626, -0.0014596098732627108, 0.0021321269131493086, -0.004613196401139371, -0.00048741115423287895, 0.008115514259599528, -0.0003995253055651885, -0.0006461949814999102, -0.0011137424215454034], [0.00024151188975169845, -0.0015273739939373008, -0.002518761471738513, 0.002892445942593479, -0.0017501710633807666, 0.0007456519816997926, 0.0064992807238373855, 0.0005572405837879818, -4.939034852984987e-05, -0.0007013519685211036], [9.042744048204519e-05, -0.0006531469592644625, -0.0015542420406882468, 0.0009812666950345106, -0.0021612699327004966, -0.00025517062950342523, 0.005676430539950955, 0.0011309965935593972, 0.0001784354531477928, 0.0003260771973855871], [0.0006333879887881143, 8.917947240641532e-05, -0.0007284023262891544, 0.0005122508024521463, -0.0005712143686029182, -0.00029660803451268494, 0.004944787297520579, 0.0005216197376118441, 0.00020976160744692608, -0.0004489568683872468], [0.0006344526221307032, -0.000497544974349147, -0.0002644446603651918, 0.001330427167726942, -0.00011784315194535265, 0.0012669558780329263, 0.002191066009246213, 0.0007735281758481468, 0.000722462513019535, -0.0003650045403797208], [0.00030141395150877666, 0.0009319589662728822, 0.0006093993369999013, 0.0007469772522489383, -0.00011828130504428424, 0.0006851171924644672, 0.0012622187081067705, 0.00018219106784816535, 0.0005389569508410036, -0.00010118835198274156], [8.577305515525929e-05, 3.216470056895442e-05, 0.0007345621796658324, 0.0012428543350085609, 0.0005003618600905382, 0.00015402414419465887, 0.0014401960461963529, 0.00038582351011083805, 0.001000215302829786, 0.00033993763937676665], [0.00037538692355133763, 0.0006547905928860997, 0.0008746376008582532, 0.0003580680912465294, 0.00021162814581196098, 0.0007070685860347109, 6.588921022466911e-05, 0.00045237721700841613, 0.0001884420449573843, 0.0007208439879268606], [0.00019033310117215965, 0.0005147412481797044, 3.103501502218628e-05, 0.0010139269167644283, 0.0009414690953328126, 0.0005381251663739976, 0.00017869351880567318, 0.0012066336584721199, 0.0012664295626527012, 0.0003699934112671037], [0.0005574809237281713, 0.0005310619686166323, 6.286048529130307e-06, 0.00036313707459418627, 0.000317664851991995, 0.0002752534587705643, 8.554875063009994e-05, 0.0009612677215418805, 0.0011400613368469268, 0.00029584887456072644], [0.00018075810212500696, 0.000180668231092083, 0.0006839166852936963, 0.000442109986629634, 6.403621253368964e-05, 0.00046327709453004124, 0.0005264325513269543, 0.0010577918442271341, 0.0002966051025925234, 0.00063900461107452], [0.0010732679368028895, 0.00027344460488123193, 0.0011252688033481263, 7.595361516267865e-05, 0.0008459537390788323, 0.001040034543464775, 0.0008308096341098099, 0.0002706414423231319, 0.0010907725173486256, 0.0006486793004804785], [0.0010988176104750416, 0.0007631350619611539, 0.0008995680675551036, 0.0006810612606946776, 0.0003858769004468024, 0.0012648538751118357, 0.0012429431988170716, 0.0006651252762323387, 9.4289241547734e-05, 0.00019689281121238023], [0.0008066428127462071, 0.001104893838855422, 0.0006496214586352682, 0.0003264795042502801, 0.0008076689117139334, 0.0011445839630560316, 0.0001719038450572833, 0.0009112654351774185, 0.000899454787811722, 0.0009182070610104525], [0.0007338317782508559, 0.0008899616570390445, 0.00020932548357678016, 0.00043746825748609814, 0.0010067690790666127, 0.0007343734475424468, 0.0011486892878946827, 0.0010759060340999735, 0.0006038997868655546, 0.0001268506751929913], [0.0011620323406480828, 0.00011376347571250877, 0.0002999971454909571, 0.0005359322581036775, -9.79558424654978e-05, 0.00020393669434107982, 0.0010490321722108312, 9.689766523746084e-05, 0.0002787675991584507, 0.0009362616799134898], [4.758564334201079e-05, 0.0012482931852953532, 0.0006990293529051477, -3.1571152175218048e-06, 0.0006222104050624817, 0.0010272989709223062, 0.00028047782959135476, 0.0004968312619128514, 0.00044241791931956564, 0.0007940538105866097], [0.0002986302495614488, 4.3659771339285057e-05, 0.0002853890369661369, 0.0006724638058508553, -0.0029724285480205006, 0.001573775190988489, 0.0037254035911964364, 0.0010536420697696111, 0.0011717277443125196, 0.0005540542720625212], [9.389325472616193e-05, -0.0002823970787801819, -0.0013763541554680377, 0.000287182295190975, -0.00929108815193754, 0.0010009076316671334, 0.008902139508336336, 0.0005399207225971217, 0.0026715775655243245, -0.0007709101910177738], [-0.0015058184104129475, -0.0007595150400856917, -0.005437840270333689, -0.0005831172557833556, -0.0152231998333702, 0.003714743832453104, 0.014197534798833207, -0.00044456261493478237, 0.0030686350598108027, 0.00044250084333457526], [-0.005628128916437628, -0.0031757998909117554, -0.007353151166638064, 0.001286356296291077, -0.020956820249482106, 0.007193883034520588, 0.02318397213980868, -0.0006096088027361268, 0.0026207364324749515, 0.0014758505420593934], [-0.004744034031648534, -0.005457663237938122, -0.013708267507511937, 0.004033287004566393, -0.034635894680873365, 0.005467452531093359, 0.040053815972925455, -0.0016418145321109698, 0.0020990457267705273, -0.0011958319637311924], [-0.00036493595313080555, -0.003689010697737001, -0.01974940310932573, 0.00797994111682272, -0.04215125226552279, -0.0005905240430439415, 0.04967785632249329, -0.0005288935795047067, 0.002734349415231502, -0.0045367846256665215], [-0.001549509175010883, 0.0004402951943632937, -0.028691569904401353, 0.008949711484252222, -0.04920745418068467, -0.006464176490713303, 0.06767961738199757, 0.0013015088513259126, 0.001952059239945104, -0.009511708531190516], [-0.003358023455462892, -0.0009874134374430901, -0.03754332935239252, 0.013372454291693191, -0.04916950071919818, -0.006742631223667273, 0.08067423762565298, 0.005385658484042426, -0.00020035501644072087, -0.01067427155732489], [-0.006265861882522257, -0.005784866823357488, -0.03965719766337588, 0.01479385084268246, -0.04503358267320934, -0.011032948067791433, 0.08436924617930634, 0.008353074341502821, -0.0010557227182565988, -0.01087256651128761], [-0.012006131265651008, -0.006151673117656922, -0.036274562105329845, 0.016220816810576917, -0.038652547407432285, -0.014415719556324104, 0.0790932580528387, 0.008652617315894437, 0.0007213341496609156, -0.011455808974829505], [-0.019233574217408955, -0.006300447768624171, -0.03780955277521359, 0.018899240987587263, -0.03594277991872286, -0.013253376885582471, 0.08068752415269881, 0.006329599154118544, 0.003875524951465685, -0.013188655082425373], [-0.017187344327822925, -0.006400124667793156, -0.03733700137617537, 0.020805654231075936, -0.02853955005752698, -0.010299151948641724, 0.06874712834234184, 0.006630494045155787, 0.004653989503203089, -0.009905666710809675], [-0.01671196717266171, -0.009343492537491446, -0.03176655379584709, 0.017024727677157438, -0.02193796011108339, -0.011383609417485913, 0.06409184570355492, 0.006692308984344817, 0.004282315921427176, -0.008708921518246485], [-0.017575321232210464, -0.010541197942549022, -0.024978687220214908, 0.013388214474856228, -0.0150702312125893, -0.012514969794803895, 0.055935381316837424, 0.009614445955372737, 0.002866800650235777, -0.0075461620041662285], [-0.013845505929873148, -0.010924071662705, -0.015108336205235351, 0.009425010905748562, -0.011366328637071415, -0.012791281650299717, 0.0435879801917428, 0.007914424857440606, 0.005589970423109885, -0.0023113683750264164], [-0.007343644949383657, -0.009164724186727343, -0.009769834290958864, 0.00664891402159264, -0.008644820323844019, -0.01105429291381724, 0.03376155253521866, 0.005557216217902973, 0.004327847560212076, -0.0005674126277014074], [-0.0037600921411358634, -0.004950212738194118, -0.005437774208504306, 0.004284535168876097, -0.0056271251100860715, -0.0066778106848666636, 0.02131015925946533, 0.003674540415202986, 0.002670675181281524, 0.0005431370812635274], [-0.0009510556456677054, -0.000810139918923652, -0.001280447994771728, 0.002571802441725269, -0.0026799322087944113, -0.00242150974617416, 0.008514800977364317, 0.0016797829555436274, 0.0007534826771030427, 0.0009245613380130533], [2.8348064263764036e-05, -0.0006450521535132206, 0.001312509841179252, 0.0016433396256552728, -0.000979703646837803, -0.00096947371041808, 0.003366507978887321, 0.0015221090327998937, 0.00010122625463689841, 0.0013485296239366317], [0.000974314888007537, 0.0010755600451229517, 0.0011478897395184968, 0.0015733661873012078, -0.00016837492194389487, 0.0003581367007468273, 0.0007727190656294941, 0.0011966889484256269, -0.00023511060763410323, 0.00038942408845723484], [0.0005955828092391587, 0.0008566358993896538, 0.00042823187607401775, 0.001117929696389402, 0.0005246505898339448, 0.0010737609748620645, 0.0005930527897029343, 4.212276053369641e-05, 0.000721642061630588, 0.0007634908058122746], [0.0010445434930088223, 0.00023018396153665982, 0.0008396033784413276, 0.001096833933809887, 0.0005592005487815759, 0.0009026414408446293, 0.001081166333954328, 5.480771723479788e-05, 0.0009346015778971367, 0.001117442779715305], [0.0005996133602716735, 0.0004411328183376119, 0.0007702473539389726, 0.0006005693594889872, 0.00020624503308702688, 0.00032930147220940244, 0.00029123770427411425, 0.0006938394005685952, 0.0010150219132016862, 0.0005875485964561039], [0.0007839803076635975, 0.0008344556738019385, 0.0005556119356826434, 9.754504924769793e-06, 0.0002311618856121784, 0.0011351752877092392, 0.0005073429412076688, 0.0009509789146418787, 0.00013634795514695525, 0.00013343118636451994], [0.0006079058476405738, 0.00010616024561135878, 0.0006204549665959005, 0.0011758231846665302, 0.0008405858326282773, 0.0010635618512211107, 0.0004838387987317834, 0.0010677277418346838, 0.0005318702637327635, 7.280984579352402e-05], [0.00035232191676083587, 0.0008415595274638707, 0.0009565263112787762, 0.0012919241617345516, 0.0007780315088693323, 0.0002134809678016626, 0.0010173682581963558, 0.00038796255393205365, 0.000954324693817843, -1.32162776703856e-05], [0.0008236643350020335, 0.0010716549705321753, 0.0011037999701528649, 0.0009836472914438745, 1.46932526082983e-05, 0.0007536865562796787, 0.0016168015103766782, 0.0002896297467867262, 0.0015380054336959592, 0.0010690233732984962], [-0.0009516113097386837, 0.0010601294060003548, 0.0006043026070125392, 0.002258549892376819, -0.0009577975615371277, 0.0002719055986942776, 0.001329369629013399, 0.0006297907955663494, 0.001902978151584859, -0.0003185680330788217], [-0.0007207653342172827, -0.001636285110215033, 0.0004744060826049272, -0.0016164974304289411, -0.00456563770540685, 0.001340500921239118, 0.0032625563304015024, 0.0017604441990707162, 0.001491055687484339, 0.0004023416212552705], [-0.0011688724997047457, -0.003558987781545909, 0.002893543441283702, -0.0042950337998960185, -0.01159037695174402, 0.0036946898607816397, 0.006615014778288545, 0.0017354859092042936, 0.0026320525108743118, 0.0005023328747265829], [-0.004037557143861415, -0.0073894367316212775, 0.0065931731705891955, -0.01009343270073077, -0.014857997320567445, 0.009558463006281796, 0.009499975792749915, 0.0017541641562143855, 0.003742872688674951, 0.0013158079305150743], [-0.00936255122426823, -0.01121186477035437, 0.012601682161066847, -0.01371697877859426, -0.020809798218555997, 0.011563847578540594, 0.014666974266799864, 0.004072610728620789, 0.005758964142518326, 0.0015417043966327868], [-0.0077750447539197175, -0.015458684074509477, 0.014271304614252422, -0.012423754096437567, -0.032606288635702405, 0.011562981535217806, 0.022412834689344397, 0.002786115903677167, 0.0067794036048424945, -0.002062354537200122], [-0.0014982675528507996, -0.010173389671256755, 0.009671786647047691, -0.00469622192853439, -0.03495025462272784, 0.002215298732815352, 0.019470105139883818, 0.0022018990762036825, 0.0068773661470729035, -0.005314148995395592], [-0.0018930019311385183, -0.010206735971619006, 0.01132850469167343, 0.0014515251171705235, -0.03583760622322809, 0.0024317724233869136, 0.018274395658574888, 0.006558883249840189, 0.005986610638596912, -0.00816320019992004], [0.0010128621018205884, -0.010611022905779156, 0.007701223795765893, 0.0026435280701574476, -0.03868519038042545, 0.0014645337620691455, 0.025396441354598235, 0.010222068565742386, 0.007718686900766953, -0.008299675169040734], [-0.009368081154837133, -0.012950048965337834, -0.0013672859856140428, 0.012710695450353785, -0.038001919114579764, -0.006749994428320851, 0.04350386858060555, 0.014547833617817106, 0.0010009679479894321, -0.009060435949258469], [-0.013338786872665846, -0.012551698905464533, -0.006080570352976063, 0.014195099278880331, -0.03565144293284194, -0.015423515889790403, 0.056268958410446185, 0.019358283166345712, -0.0022638832597188727, -0.014199970802180493], [-0.016641929977188233, -0.01744137551935282, -0.005670614039815672, 0.01735723301802348, -0.031751515291558174, -0.018644709206164036, 0.06321086767713614, 0.02115159167730028, -0.006838873738665588, -0.012975085574211913], [-0.024631490057049038, -0.0173697752916692, -0.013794530791571958, 0.020708432864292674, -0.034153319044642756, -0.023755696500990024, 0.0832181242285593, 0.018891603661098218, -0.00944764797501054, -0.014616287097265049], [-0.034252793471769724, -0.0243022531890989, -0.02255397355460598, 0.022205089886023877, -0.03026108867844067, -0.02245061322357433, 0.10447800346699604, 0.01843287385985963, -0.008206673818831106, -0.012774073093581324], [-0.03391779022020303, -0.033018954484060135, -0.022081692473474353, 0.02046678408222785, -0.024181753323402232, -0.028262082407573812, 0.11018254450496003, 0.018635727664992482, -0.0041117547338967225, -0.012550544165279134], [-0.03181608044228616, -0.03410857286554132, -0.022040111930400907, 0.021805116568348586, -0.01943676492732229, -0.02800682147288728, 0.09782337131581721, 0.01669538363215351, 0.005330394339926912, -0.0045923189605692576], [-0.023967973602223153, -0.026625129248269496, -0.017815162200817854, 0.016782335578584176, -0.01757649259816453, -0.025806204265996682, 0.07504109745269259, 0.0115980018977058, 0.008320454968751445, -0.0009601707301506039], [-0.013492367041692424, -0.014857987599786921, -0.013814950674880115, 0.009895099665997468, -0.01083850610282279, -0.016750937457338837, 0.04723838784180258, 0.006445716400379199, 0.007975552044659237, 0.0022275310853483903], [-0.006017717696631809, -0.007459433587305571, -0.008375240483596665, 0.004632593303085448, -0.006101563684478319, -0.009756441183568991, 0.02475350136237316, 0.002542899105873153, 0.006216506736611195, 0.002978498529189132], [-0.00117727193581515, -0.0038611785458190885, -0.0032019950981066175, 0.002987144458421958, -0.003976783983058319, -0.0048671874318400735, 0.01279780347071703, 0.0020891055483024173, 0.003128368642334715, 0.0020469731995559877], [-0.00033441769178959555, -0.00041782199693136404, 0.0005966194134687037, 0.001500883296976776, -0.0005079138359358253, 0.00021237600818192659, 0.001787008267404876, 0.0010439362447435968, 0.00027960452671488506, 0.0003404915863795904], [0.00037354137981020566, 0.0010488979148714048, 0.00038041885016325033, 0.0008975503243295636, 0.0008554379311861226, 0.0008389356441859944, 0.0015644617527043735, 0.0006263198942226209, 0.00013539742388806738, 0.0010277675629028634], [0.0006762802402064142, 0.0010648799287560008, 0.0008101516406850225, 0.0011954189373953382, 0.0010172392127139776, 0.00016867563075699516, 0.0001378459482253045, 0.0006322398868689559, 0.00010494069158949762, 0.0012610730451139427], [0.0002719777065163374, 0.0002360751943171669, 0.00046380192361030945, 0.0011824600643925228, 0.0006088091864351026, 0.0007062814001988311, 0.0002350716530888501, 0.0002598908240720293, 0.000873818447603126, 1.4338173113294042e-05], [0.0005603012488918524, 2.0101973979726714e-05, 0.00044829045552986075, 6.071445195119137e-05, 0.0008306176610164911, 2.5821853469417683e-05, 3.714883988983246e-05, 0.0006845600496852361, 0.0008171705821617297, 0.0004703965814059184], [0.0008236333583679597, 0.0013499857179461766, 0.0001910120536294144, 0.0011149876003210737, 0.0011391504160119697, 0.0004935934991716735, 0.0005097410596216756, 0.0008535501253253243, 0.0010237380158087984, 0.0005897892134652289], [0.0002695114000559703, 0.0008769065768764067, 9.325182899872852e-06, 0.0007079209541531709, 0.0007573753883737681, 0.0005768189436283233, 0.00033643689985379604, 0.0014950901745744722, 0.0009529798395072806, 0.00015132761921698526], [0.00034037056783856246, -0.00013067405204195365, -0.00084698802545718, 0.0029825295170447467, 3.4990590142052185e-05, 0.000163926639165902, 0.0008084025330647568, 0.00040934542012521454, 0.0009901345296923008, 0.0012580334053483985], [-0.0023616111296591654, -0.001690898560911048, 0.0005212210114654008, 0.004924644392391552, -0.0012010745965460624, -0.001284241042567621, -0.0010875666899884259, 0.0008357498771815607, 0.002096126528484225, -0.001054667842197296], [-0.004003503064211376, -0.0045216200336172735, 0.004655358700397686, 0.003690255515906696, -0.001905375508998865, -0.003705838272820123, -0.0034374703667261154, 0.00338189930861847, 0.0019530330690178594, -0.0006933771688890554], [-0.00514540227113787, -0.010510003615471929, 0.007515136728079889, 0.002492705903380744, -0.0013430495337733266, -0.003149560710969258, -0.0052959287855357425, 0.004535384401849642, 0.004057322428313498, 0.001126993650876769], [-0.007707973399920429, -0.013722208738090718, 0.007937670821665964, 0.0011659354026428818, -0.00045224353102351624, -0.0025740642508516706, -0.006982015906055602, 0.00881946036377523, 0.009842461441094921, 0.0008872686712636179], [-0.015158669649856928, -0.017317217132740023, 0.018735199797240455, 0.0014426984959579876, -0.010508380422576952, 0.0022893727727745163, -0.008528440613643617, 0.01004409507499424, 0.010611337371884544, 0.0024106238627999927], [-0.012979275404360238, -0.018411547403760022, 0.017670120135506912, 0.009903085564505266, -0.020876187153869866, 0.0026603580450197894, -0.0068711788893578134, 0.010590235038351346, 0.012960145533954304, 0.0023973782768741216], [-0.00710953731128526, -0.012018980043501742, 0.017078139116357537, 0.013139061241438245, -0.013443708585471252, -0.002359113708272243, -0.01929930808642307, 0.009872439885695156, 0.009674908606802948, 0.005259107506292588], [0.0012911662163771762, -0.001968085574822215, 0.02498164325160679, 0.002767707405570413, -0.00826142684351659, -0.012042214584296385, -0.020663716007409648, 0.003749784656944424, 0.005632472604066214, -6.138943432785767e-05], [0.007383702005382401, 0.003603909536521575, 0.02309949720731352, -0.0014022620713460279, -0.009846459527222762, -0.01684462944775064, -0.0180773958334198, 0.001981030516513616, 0.004303118489171936, 0.006120280422274525], [-0.0032271279826872603, 0.0016933581181131593, 0.017813716194491735, -0.0034042986825248015, -0.009908276730817909, -0.006012587415761262, -0.009294364009047174, -0.000871957583012373, -0.0015729037980292816, 0.011750170979166143], [0.007551357269500174, 0.0005662072683208947, 0.012831039597534934, 0.0019900290897727903, -0.015393760924888549, -0.0023434076464267377, -0.013618832368593832, -0.004576676537819035, -0.007465899084394834, 0.021948282428987612], [0.00116826538224085, -0.0027272120449972647, 0.022503325364298422, -0.0008874441298983587, -0.009912416298535887, 0.004540382241340127, -0.014250253017761505, 0.000334588950876309, -0.018999065140619966, 0.020099847805141274], [-0.0016066308109437472, 0.0069914557278209, 0.00984374385220403, 0.0036763392203208677, -0.010048898745613141, -0.0013001326594041546, -0.003270479101363144, 0.0022858804731275546, -0.024539315514785952, 0.01539944429598299], [-0.001238416538093666, 0.004570724428766203, 0.0025292084881416957, 0.010710391327878318, -0.014625579128778023, 0.00013247724495188873, 0.003101291307657619, 0.0025703187568957737, -0.020447215477686752, 0.011980753189813433], [0.001992334633836135, 0.011398367350854187, -0.006828381177806331, 0.008233324683604902, -0.016453248565770878, -0.012116658676558721, 0.009924885095814172, 0.005432682383101093, -0.017924649219933617, 0.01107737120952145], [-0.005096709872116728, 0.008926714838651111, -0.01032098815102006, 0.005897608053007502, -0.01459864643903205, -0.016793037908483556, 0.018854825067195737, 0.009976189520639752, -0.008422537931500024, 0.005879149413130223], [-0.009760386326270775, 0.002918205112001275, -0.01680922588377451, -0.0007596024454048099, -0.018003138452352872, -0.0004739457161180184, 0.02088146009479214, 0.014378896614156304, -0.005605222492892615, 0.0024648477841500544], [-0.01762856941078653, -0.0004903894334510222, -0.018805686172261225, 0.0031960079003840697, -0.008813422325785204, 0.011624083385454441, 0.018633619934490045, 0.009494051301660337, -0.008656517186671642, 0.0021941496535279503], [-0.01831860062113029, -0.007180630924011019, -0.015064892940734579, 0.0008984304424139811, -0.0040057322441850824, 0.022588385148557856, 0.012432223051239134, 0.007385011578838782, -0.006086347232289827, -2.638199304709317e-05], [-0.010891004399987365, -0.010003885902368507, -0.008211875742871971, 0.004570238268867472, -0.0035368719804078448, 0.013765925279364747, 0.006338632228278955, 0.003922949990758034, -0.0013909105913174013, 0.0033220871173651797], [-0.0026033523579877672, -0.0035790705784662104, -0.0014041401825989404, 0.003627089223401501, -0.0022981760084419796, 0.0033300834065129463, 0.0018844993482952925, 0.002340601410897986, 0.00059160546766516, 0.0017042401311253628], [0.00015712243415040743, 0.0005946850380608668, 0.0005701171817546786, 0.000857505960951296, -0.0005992332387737634, 0.0008919010735122335, -0.00012344131400066627, 0.0006571988121920102, 0.0015568457754040778, 0.0003723193142107287], [0.0002994698043421421, 0.00044253778587287275, 0.0007515094617693617, 0.0012671360841516608, 0.0004709971060526034, -0.00014731142775815294, 0.000904325749949763, 0.0008963998276742795, 0.0004868814649900985, 0.0012468671563022988], [0.001135566571634224, 0.0002391659897559142, 0.000545129096536505, 0.001044046826876418, 0.000846919790252641, 0.0002218520160151206, 0.0004296225599477532, 0.0005484373499854735, 0.0005052384550346425, 0.0007523279642904596], [0.00029127519441546356, 0.00012433819773609964, 0.0005504539142715602, 0.0005667624958914182, 0.00025133532647339936, 0.0005381374623604573, 0.000357109560621228, 0.00040297387872481263, 0.0007764374754389917, 0.0010230543376282242], [-0.00023234816771356537, 0.0011488848049771548, 0.0004655359388357477, 0.0012235243719592825, 0.000866650861777592, 0.0008565742309830451, 0.0012829894339134594, 0.000380569855273272, 0.00047659128413982533, 0.0008955262830385998], [0.0006476538501955309, 0.0003583127904568523, 0.0003746088066203413, 0.0030072058432501062, -3.070356866504048e-05, -0.0005787665840214505, 0.0005602408361989156, 0.0003420769589500752, -0.00025711362741360236, 0.0003543361923043331], [-0.0005649351000151981, 0.0005715087179887659, -0.0024303457293067855, 0.009207989834312402, -0.00037469662919838056, -0.004432911320389985, 0.0006077931051025633, 0.0004664074032481408, 0.0016114078534383964, -0.0006868217038595758], [-0.003228960651403914, -0.002200039344334727, -0.0010505044813285706, 0.016061588802594628, 0.0007218493121372727, -0.009278218835822784, -0.003992255487211199, 0.00461581046011606, 0.0021281935051294886, -0.003382923212397779], [-0.0022009029567033787, -0.007210999890905948, -0.0006159510098481839, 0.018332224647425732, 0.007204486095776262, -0.011269627074953782, -0.0069398048303162775, 0.004874669673146099, 0.0005069554611978011, -0.004533062049593014], [-0.005976901734710727, -0.01231343252368732, 0.004211350525988475, 0.01578329008085051, 0.01082371766790378, -0.008247484636789976, -0.007795433009509885, 0.003608361954100326, -0.0013439086338836242, -0.001239966319003622], [-0.010670847101860365, -0.01112259505964932, 0.006913636135567302, 0.011889267398167293, 0.0036046955751674855, -0.0029729233389192097, -0.0009121441415853061, 0.007494233057014689, -0.0055852095535943985, 0.0029591025624021243], [-0.01364487614066058, -0.011168770378444654, 0.011591752957455693, 0.011753934092525958, 0.006506572552811908, -0.0001078152756302889, -0.004954361670920186, 0.003657436292673382, -0.009778552589095537, 0.006358274107377471], [-0.011213831185736203, -0.014516264879021966, 0.012302693495157637, 0.02211237832281886, -0.004938716056736937, 0.004337476482459211, -0.0013046150900761068, 0.004911144020784446, -0.01749321078088102, 0.013267673028254125], [-0.006038361496784846, -0.010850016425530786, 0.017247208387760865, 0.022971975028880272, -0.018027272513146644, 0.0008186282926134093, -0.01679193182124878, -0.0005508874948301283, -0.012259952320910783, 0.020946958564360612], [-0.002428675238387365, -0.007989699980289432, 0.01260805500011129, 0.01868428127106493, -0.0227425544766774, -0.01509888838892049, -0.005862469836419804, 0.0012455056921582507, -0.0011447140031631967, 0.013356529559246865], [0.009063324785730412, -0.0010289055545658478, 0.014255151462743369, 0.015648904265221815, -0.015741243035299068, -0.018852952214697037, -0.01617292843857203, 8.62560459432712e-05, 0.004291683730698679, 0.004806920070400856], [0.0035926924351778527, 0.0003245712904690888, 0.010974599392780308, 0.004860059442227386, -0.0025613371912974908, -0.016319695332857227, -0.010848415761481496, 0.006967624598513118, 0.017984490582727965, -0.01430479268617493], [0.0074192002320272125, 0.003741293410501356, 0.010387880842096419, -3.908709565906195e-05, 0.004460175940301255, -0.017256579249294867, -0.012328522365957457, 0.012951259975276774, 0.017237567030446776, -0.026375337886687958], [0.006058963052826458, 0.0004048577125276609, 0.005510134599305791, -0.0015489224382578596, 0.0077255011360049565, -0.015805013290245706, -0.006097792821199106, 0.011565539284093367, 0.02033270440001631, -0.03608177170825042], [0.0029972779116466106, 0.000785387083467359, 0.011291738434683533, -0.02224424121684601, 0.004649704277722674, -0.001464951163288906, -0.011554644809905363, 0.012581740391821836, 0.02718731396121284, -0.028707636530564528], [-0.0011988081721447175, 0.004302670452319066, 0.0020964214990116248, -0.01624587872406356, 0.004309428855288152, -0.0019049982471940768, -0.0073548255563761575, 0.016582448274711954, 0.018602508747523422, -0.019305454667615678], [0.0035170163642581913, 0.008446979517444629, -0.0017720022648292579, -0.010357384824988717, -0.0002970490233268912, 0.0021759086582562293, -0.012153119288237202, 0.011685226842918306, 0.006971764603714523, -0.009791363745722885], [-0.004613705975647958, 0.014343660037891198, 9.627793495466992e-05, -0.017808700815410757, -0.001975663055970031, 0.021689793266505854, -0.016118193535297035, 0.00964934804240276, -0.0038276035154920394, -0.006232793043120754], [-0.007680208406469668, 0.013272569641470059, 0.002341830122404368, -0.01871813062492368, -0.0015940151835701208, 0.026958794440493036, -0.01864874115306235, 0.013961828910952101, -0.010169960749461278, -0.006123308113632458], [-0.019656965150387312, 0.002864869147019811, 0.0001796023214397744, -0.010444911884057528, 0.004662784859218867, 0.041028496833479394, -0.014628773988515776, 0.01548627513016086, -0.01921971405227306, -0.005442338378323203], [-0.027198859226097976, -0.005342071483948654, -0.008090347020330815, -0.002064076906054884, 0.013789018071946374, 0.045693795840320364, -0.008816475196724063, 0.015119965926340068, -0.023904846005097003, -0.009766303975617233], [-0.022733861524931478, -0.014312692605012806, -0.0045783366321500004, 0.00266474558455446, -0.006194466516814293, 0.03944995226052749, -0.002724273342953632, 0.014604449617955442, -0.013365581161117463, -0.0037455080212241555], [-0.009251496608514442, -0.010390461681003804, -0.0019219832440438432, 0.005410813431852764, -0.009221322990657761, 0.015293919474308693, -0.0017088764719438891, 0.004679144153420881, 0.00022938739982798, -0.0006186069780957232], [-0.0026258405509763934, -0.001653396465356188, 0.00042876429200508866, 0.0022520466841696395, -0.0041653227775509324, 0.005072791207553609, -4.664923651740506e-05, 0.0011538846506554217, 0.0015497356448388431, 0.0005293156205301297], [8.054907936008893e-05, 0.0007920123415192967, 0.001265760331228277, 0.0005118626198292018, 6.747742875008149e-05, 0.00015293100725111668, 0.0010322052029372428, 0.0010130635825967317, 0.0006927811303191131, 0.000800317689069242], [0.00037488281948820727, 0.0006308951610169393, 0.000757787950948844, 0.0010338411807655963, 0.0010868723802259885, 0.0004633157910785088, 2.1062283217112298e-05, 0.00033995225643195453, 0.00017124575617590433, 0.0011769047640559757], [0.00014843463208354379, 0.0005083717190274117, 0.0005271680911848024, 0.00014353993447169087, 0.0010591396246741628, 4.958285484189483e-05, 0.0011804398485738062, 0.0003090931879291472, 0.00045936747769209895, 0.0003604929323576139], [0.0006790522585008054, -0.00014815256464342834, 0.0003069423811793774, 0.0011024288781018143, -4.034024305398963e-05, 4.343543404881981e-05, 0.00024799689971890816, 0.0016231047937536795, -0.0002722633803926273, -0.0004448725114115123], [0.00033852054378865227, -0.0009985052346226377, 0.00011356978228116238, 0.009692052154385811, -0.0019172686281324505, -0.004812495181196513, -0.001104069525564218, 0.0013331044951977215, -0.000478440684234917, -0.001723938754739841], [-0.0001923992362687595, -0.0012363629853268383, -0.0043333124914105466, 0.02022141788168349, -0.00014801561676734977, -0.010962938665774654, -0.0007286184748632973, 0.0006424461300315549, 0.000748532892325637, -0.003901170627012526], [-0.0017784570341166368, -0.0059286564966814, -0.0037104626093911455, 0.019626218574352945, -0.000641322963139164, -0.009547650131059137, -0.005302962534704537, 0.0038502902207659707, 0.002898505099881974, -0.0018470628005308437], [0.0011232440047829178, -0.011801595306784547, 0.0023126198983659902, 0.0201752105063474, -0.0003312933237895701, -0.008317940688877075, -0.007547794159224578, 0.008197412093965267, -0.002370728923737295, -0.004396700455068655], [-0.0010850236014079318, -0.010244602331698587, 0.00612700195846758, 0.01289479118693534, 0.004015947374882687, -0.010057189151390793, -0.0012998348435373308, 0.00880841547649951, -0.009865618344819825, -0.00703075644996778], [-0.0027142187963069206, -0.015949712362490508, 0.006703605262535633, 0.02306811590710582, 0.0006284984829708483, -0.010239548231617815, -0.0010079886400704704, 0.008038401124544821, -0.0065153019367085, -0.003140470188577421], [-0.006494908021675678, -0.01849914650478844, 0.008548341785450123, 0.026316786843880443, 0.0016816732567278446, -0.009053028861870881, -0.0015815259915285054, 0.0023233693371837467, -0.009219431850894175, -0.00012714710319525636], [-0.007196570281195635, -0.018451553206681466, 0.01052776061108211, 0.025547228564918693, -0.00047848687820647556, -6.850494002993935e-05, -0.00486192083717569, 0.001518040173725293, -0.009695414368348466, 0.0016333269185640033], [-0.004940942194401948, -0.01040527455783814, 0.006011345104637598, 0.021282086614346954, -0.010615470884896581, 0.003086270209275605, -0.00863555834647667, -0.0029128602847833247, -0.002764774769001096, 0.011222090822400211], [0.0023431509267993226, -0.008711490438796949, 0.010081551876270387, 0.013437474754135224, -0.014878611040930315, -0.0035411917923366294, -0.004872753736053513, -0.004042377418619732, 0.003202966343037853, 0.0057159390320098155], [0.00952625931117746, -0.003213271010198032, 0.005369452010504879, 0.013164550559647511, -0.024933517372386672, -0.008605253948167805, -0.012825525522235854, -0.003102520333577171, 0.00450720579797516, 0.012197164262695674], [0.004862845388353622, -0.0014624664461092363, 0.005557955300437633, 0.007652695593906174, -0.027158368207925533, 0.0053261446208428265, -0.010895428279241625, 0.0011402827087890882, 0.0013455647774591607, 0.011346194795449212], [0.0016240222713588084, -0.008653309746633, 0.009482985185938769, 0.008813125641939496, -0.022140490676954297, -0.007763838014985948, -0.009936800338213756, -0.0035306471983724106, 0.013826747604988008, 0.01093300946327461], [0.0036611989828412767, -0.009837281554596311, 0.007129709047399936, 0.010397843751674086, -0.023235110411682414, -0.006708284047020281, -0.009744880701557117, 0.0011306546899957554, 0.002974435696105535, 0.022638653964977072], [0.004636509960991267, -0.006874856376606804, 0.006453472129579616, -0.004460552365064768, -0.020134858277806134, -0.0014412522038859538, -0.00857165178720515, -0.003751307386127593, 0.007499514136931272, 0.024844678195224994], [0.00558029191947479, 0.002750517876622048, 0.004552705716831154, -0.0004919050745858845, -0.017210618241606745, 0.004414688700356394, -0.013015903819433686, -0.009771878270013919, -0.006713283699512412, 0.025038640190094653], [-0.0008198978964832668, 0.004717112225800542, 0.0019181262466511852, -0.008667582686901841, 0.0047213273571851296, 0.01019204669152295, -0.018457299174533228, -0.004763381442157377, 0.0038293995193646553, 0.005535840886059231], [-0.000499481277372764, 0.005205618542142103, -0.00033064454518138804, -0.0015021210889557583, 0.007476584278970477, 0.016345817074269676, -0.02442218949072525, -0.004424092597737689, -0.0025750122458442944, -0.001475449360411751], [0.006411315806193604, -0.0021432472121911336, 0.0008784593494381619, -0.0045567778619966855, 0.008127626045101017, 0.015970583716675237, -0.020338260829628852, 0.0060922171740714565, 0.0031021791670085746, -0.011731472751544835], [0.00047589921006009823, -0.0056565774208087, 0.0011127437576165986, -0.007561510468395325, 0.020710547342886083, 0.026130872396701577, -0.01954417118715005, 0.007556058075488161, -0.0017999098506107068, -0.017961652195744394], [-0.023734031985925226, -0.008205919517307234, -0.008885693602374657, -0.003468773775599819, 0.022305607532154593, 0.053997830290211137, -0.01508218838971365, 0.006033106975413437, -0.007261214363916493, -0.019268390876603887], [-0.03686394232854054, -0.015657678529049902, -0.0010414452346746651, 0.0030803866600136055, -0.006944105802549438, 0.0761428789356841, -0.010184542992899333, 0.007474195089141002, -0.014654464116948155, -0.016884461819524254], [-0.018868386680315843, -0.01375605394078076, 0.0012622095786895922, 0.007301087038872992, -0.017179358017086397, 0.042695635925250136, -0.00432264001198989, -0.00013480110804519818, -0.00379248669057451, -0.004253827051134768], [-0.006027869532758294, -0.0029622489461204452, 0.0019754942274615847, 0.004692883298322227, -0.005055374937160621, 0.012300812736555342, -0.0008617891824264304, -0.0015417482956725543, -0.00026042245571484244, -0.0012323325824089375], [0.0005970342730127744, 0.00013928908003994582, 0.0008980646261093735, 0.0009257219357550959, -0.00015670464083751258, 0.0017178312535870808, 0.00017833240115956982, 0.00033671841795310134, 0.0009675169597488235, 0.00019883371874816275], [0.00020077326817602816, 0.0006322306588898055, 0.0006422188031851866, 0.0010354710117997312, 7.300277848083691e-05, 0.0006040710932998658, 0.0009631049599986358, 0.00034078692796789544, 0.0010708577323750303, 0.0009962547815798354], [0.0002708505330841249, -0.00011168195192514062, 0.0006323025738128394, 0.001325240822570339, 0.0005453387946274784, 0.00046783980930888825, 0.000748201061681736, 0.0013257009463639446, 0.0006358991676234548, -0.0007506367858146658], [-0.0010564281838957431, -0.00046336492014324113, 0.0017196413800145472, -0.0006172045653776103, -0.0010598863791911341, -0.000843335197976515, 0.0008523495606479174, 0.004868119101241839, -0.0001957453206957102, -0.0012592987208934678], [-0.0009083169951961572, -0.0032453421629236195, -0.0015492693547202816, 0.008559050312776366, -0.002601009821516526, -0.005780756988206333, -0.0004356033697527091, 0.007194978404605547, -0.0007152570122931425, -0.004184857700166979], [-0.0014955350558918197, 0.00013734061749756058, -0.0060186324187969644, 0.0223151363203164, -5.008769430671382e-05, -0.013168073605633069, -0.0015159812406524455, 0.002410258875238644, 0.0018429202689362776, -0.00633204344902545], [0.0006999994915767215, -0.0036266032751596797, -0.0038521588696447734, 0.017473403891930993, 0.0014082237750203887, -0.007268720910241419, -0.0062565804645594155, 0.005548720553372026, 0.0036908789910753215, -0.010359170184356127], [0.0040044394643158465, -0.0071465673756744, 0.004862181721962784, 0.008931005842227023, -0.0021591536522240305, -0.0011951717559674977, -0.0049693519559289925, 0.013092475618107427, -0.002709224886389489, -0.009484239776375024], [0.00011070953865983615, -0.003221906115769293, -0.0011066033741099315, -0.0005037683608632322, -0.001374057420517077, 0.0024091303989993394, -0.000984311920096071, 0.010967899516821901, 0.003137584442050011, -0.010462264636684484], [-0.0018028303230129383, -0.009301464171576564, -0.0007823435181235174, 0.0017850312061507326, -0.0014768503896272582, 0.0017519266915441702, -0.003841434871096141, 0.009889919164569981, 0.011165029632067744, -0.006929921424263111], [0.006023969571204997, -0.00735335105250985, -0.006306000601947121, -0.0008494730786230267, 0.001078154233812728, -0.0013046156431891726, -0.00045868320194617624, 0.016146505670979503, 0.006564545789729292, -0.01564629043912001], [-0.0029929213123513136, -0.011457701485864422, -0.0031672685036073754, -0.003861093877827656, 0.002434492698496276, 0.011123639258849462, -0.0056297314801405695, 0.016535057007293318, 0.008106052957144123, -0.015517824021823497], [0.003371302096641955, -0.011793776342385204, 0.00401711663192214, -0.004605835742543457, -0.002819428264301863, 0.013142945483852407, -0.005301696125504927, 0.011322604966170947, 0.001037204857344548, -0.0058454498376881376], [0.00858936999424334, -0.002741015362755722, 0.0024136234259425644, 0.0005372575965919633, -0.01570608770412924, 0.0025640951039962788, -0.007618439997249475, 0.012038007134655762, -0.005571325347905371, 0.008515185268852558], [0.010567702025979155, 0.007404530176106555, 0.004240491777595347, -0.0022975644772597194, -0.01918657264558807, -0.004563831605183931, -0.015012560043889414, -0.00107784992020918, -0.0038219131236732783, 0.02341654174448006], [0.015203035271474758, 0.0012739180260643225, 0.00330267459198126, 0.0006245054424857184, -0.02971766397168544, -0.0004608227221509851, -0.013174845019881275, -0.014629386688098139, -0.009262820144012467, 0.047621535713922504], [0.012642681650979258, -0.004117735612474314, -0.004560429310556758, 0.004279342913676086, -0.028335013701025088, -0.013927834200518513, -0.005150843063451372, -0.021077486949828986, 0.0054215821944915395, 0.05566731136410342], [0.007329165915442473, -0.0020276613445541327, 0.0007649207417800443, 0.0007325483539978184, -0.017649530227584198, -0.0014691600378980367, -0.013201453799233289, -0.013889664851274108, -0.0073034783809071534, 0.04552060122497464], [0.014615010672991431, 0.007480902061228459, -0.005282552927287597, 0.002047699866634939, -0.009744965413372397, -0.0015818815510033606, -0.012303771998109734, -0.004829081400727153, -0.01210015949629979, 0.017823540793830403], [0.01460079211422963, 0.005769295163279056, -0.0004804717581349752, -0.008683474042304656, -0.001743371855010804, 0.001973091454986522, -0.01816923750871899, 0.002191861962897512, 0.0024757104861731667, 0.001043763614627855], [0.004761162908263159, 0.008076972955751563, -0.001779839567894765, 0.0018815419968448484, 0.0048373423821198545, 0.0005315431454044086, -0.012618444170934703, 0.011933420047566418, -0.013660985303155846, -0.007003324857476127], [-0.006057989066436255, 0.0033487765140740072, -0.002767630337858275, 0.00794683970186387, 0.001884059808394624, 0.0025820190878707303, -0.01067618448609604, 0.014092878479190146, 2.2770437148379385e-05, -0.0033319915915994546], [-0.0019727432158734926, -0.0027530199923157016, 0.00562468113081271, -0.0008448278435732239, 0.002644382971332243, 0.001781841004244676, -0.009788438962260526, 0.006130379393215353, 0.006680888908726363, -0.008122201758318712], [0.0073016734580642235, 0.0028573195951862463, 0.009659565474436475, -0.004608712028991668, 0.009409069987377613, -0.008182876319501483, -0.013414486985426362, 0.00825457260946993, 0.004601982746089417, -0.013480629065595566], [-0.014962574639980221, -0.007333212678098803, -0.00936606469814171, -0.0028106944999059208, 0.0075649425896210975, 0.04090461686328979, -0.010281742116371114, -0.0003635075709195894, 0.013453884858090565, -0.01619257703210101], [-0.04615868198126063, -0.017818059023400452, -0.0035992276893416345, -0.0008142175887921184, -0.022963092064107217, 0.10184103590243102, -0.008113948129909258, -0.0043630008699939255, -0.002288241535557065, -0.01747170045424706], [-0.03000069820914976, -0.014763395340644914, 0.0022893052185689504, 0.00834518183067323, -0.027886505400675103, 0.07675242980956386, -0.0054712338999243024, -0.006219703080168695, -0.011359613029528494, -0.006533115360606274], [-0.008047099634148104, -0.003930567174560987, 0.002070380743002173, 0.0061174648458677035, -0.007947433013217682, 0.018496899158497757, -0.002423304260913242, -0.00041457262678264666, -0.00264318433819352, -0.0017995964561568272], [0.0005101040153903708, -0.0006224483482308971, 0.000992405744296413, 0.0015123422700564224, -6.720758142823936e-06, 0.0019670575568527084, -0.00013813186650141985, 0.00032919451977701824, 0.0013812719270138252, 0.0009642324167365069], [0.00045232003295602406, 0.001191496004289991, -9.665452118615306e-05, 0.0001666604285770395, 0.001085210461284982, 0.000385878486352181, 0.00025931310761939116, 0.00032095343916373003, 0.0003694448011365166, 6.0057078444127304e-05], [0.000189606954470688, 0.0010395794039968977, 0.0009749103467877586, 0.00029119060502283124, 0.00017547707158985693, 0.0009535715440706079, 0.001632071832558079, 0.0029918135466960715, 0.00024068849968479042, -0.0020089349749761154], [-0.0020898128071570295, -0.0007172495433462111, 5.712327236969567e-05, -0.0058535045614850605, -0.001526303413205977, -0.00040646551138790653, 0.0016027081786598313, 0.012886080199178739, -0.0007726752650521419, -0.005847747741932807], [-0.0038064985545685475, -0.002132814061779036, -0.0033716228300264117, 0.0028805706543586595, -0.0003241793405334495, -0.003987440772352133, 0.002730126035972426, 0.015832171632351982, -0.00169180349183584, -0.009997641996674194], [-0.00537088314329392, -0.00020049577897460525, -0.005938859867600107, 0.017397847697976452, 0.0017166042559554897, -0.014742114412314851, -0.0038675959823300165, 0.008167431991651064, 0.004691133822119194, -0.01174052205631005], [-0.002477493721718251, -0.0042723987735347815, -0.0031491104683479547, 0.01120485299675319, 0.009697328255292868, 0.0017710557975523997, -0.0058111098678750184, 0.007228987306490919, 0.005328657284971511, -0.016066678656194495], [0.005316607390278215, -0.0042859409041437835, 0.0010239505834534382, -0.0001699828795305448, 0.0029013659181272664, 0.0022861536872046707, -0.005938757411798548, 0.006950773166752401, 0.007048923838967305, -0.0076585558998059555], [0.0005262571348588599, -0.006381935230610261, -0.005379306798677502, -0.010694386418793203, 0.003791748886217934, 0.003144153414004376, -0.0020408853928854075, 0.01846217193910477, 0.012604191594076776, -0.0152452800739398], [0.0017515356682471775, -0.007114128615271806, -0.0021915774275068946, -0.017849789946376184, 0.00034624670043687314, 0.007950514902051987, -0.0009981423976642256, 0.01780659403560073, 0.004856296354109321, -0.007041403521527939], [0.0025719234635114678, -0.007508216858186849, -0.004997068664953148, -0.011304796796002294, 0.015617021562358181, 0.0014411557141591042, -0.0016848771935343155, 0.017685587959513336, 0.01209735832478184, -0.018541787507776485], [-0.0005446784136889774, -0.009210076918482739, 7.082455417136486e-05, -0.008074189910759833, 0.006039744096946611, -0.0005655475888196906, -0.004324719129352616, 0.02078220224126291, 0.010674817330726928, -0.017933999525309], [-0.0037116994776691735, -0.015365252453665325, -0.0012890483764605512, -0.0029389180109365984, 0.0028009713087587406, 0.011966594468997739, 0.0026409508369193355, 0.020404707890364162, -8.580211882079147e-05, -0.014977717044615937], [0.0026732572245978864, -0.011064978159652341, 0.00013690007174099267, 0.0058231884391657445, -0.011820506098848388, 0.0007620237963087653, -0.009459806252507778, 0.017239420066445653, 0.007264324445603111, -0.001665578874599041], [0.0055887283197149544, 0.009560983532142554, 0.0010896839524711026, -7.341145303692557e-05, -0.020919006457448566, -0.008060028601851944, -0.010786596145903523, 0.007252956957275755, 0.005819841713143599, 0.014006882659785695], [0.009836734783644243, 0.003831156620029477, 0.011982998438856174, -0.00223562337299008, -0.03065073462928349, -0.005376230010966182, -0.009633863998363745, 0.00613575717105256, -0.0041140167608845705, 0.014461664201714469], [0.011849383224630111, 0.0029136697376519753, 0.0015706097886200843, -0.004419716536401604, -0.02080532787958505, 0.0009320840097201799, -0.01114830190638319, 0.005097565598412989, 0.001928857243221354, 0.012638071247781888], [0.017874918630434066, 0.004943679249144917, -0.008309624148488057, -0.0017126312977013207, -0.01674386610710972, 0.0014724474016868708, -0.015537494760162902, 0.0011159094825434893, 0.003826681370150461, 0.014348406853051566], [0.01001874764932776, 0.016341055074284988, -0.0004966326059235721, 0.0005148117106540107, -0.006006381730399644, 0.001254094079339077, -0.01697049094915188, 0.00526403592906893, -0.012417533189168686, 0.001895146560298281], [0.006541177707107215, 0.005374492257409369, -0.0015130756698412148, 0.010543600524030201, 0.0024508556620409126, -0.005314284204034833, -0.019467772827257365, 0.00017868155303345912, -0.004728860120419692, 0.00136227795157304], [0.007100095920773419, -0.0027385616723129905, 0.0005463120469702723, 0.010103770208530156, 0.005304920617789224, -0.003061959184389745, -0.015515314533209463, 0.004669791728085043, 0.0047939487862254295, -0.007988027096752523], [0.005428579563601788, -0.006459332429000712, 0.0031545779014516967, 0.006744675147355496, 0.005017027845353338, 0.006833516156417878, -0.01690747116639651, 0.0009756332788451889, -0.0057492964013378944, 0.0014155268169183195], [-0.007993084532990512, -0.004112073836569649, 0.0030626002228281097, 0.0063600448829884, 0.0016125062816877396, 0.0054162503691824685, -0.009348888824177873, -0.001150061194153223, 0.0010556259341099293, 0.001115053522850781], [0.0033897801099979684, -0.0017806027978375, 0.004222849721737849, 0.004802755497005732, 0.003307285037642447, -0.01555575517359187, -0.009960872620753975, 0.009743014769201207, 0.009913049821346973, -2.7283220022967405e-05], [-0.0056393317584005846, -0.010073257869155828, -0.01007721611941489, -0.006594737053350835, -0.011083817703369081, 0.032933306707720676, -0.005661658633273751, 0.002774802143655288, 0.017936187245677988, -0.006263042538877622], [-0.04912967451461206, -0.021033347230212548, -0.013904947827091113, 0.001604535570180012, -0.030337876003201744, 0.11942470181444484, -0.010413047056790754, -0.013423152914493162, 0.0036274343711092476, -0.012132647665291632], [-0.04135837903355024, -0.021468339387016883, -0.0016239571928772319, 0.007575439164124415, -0.03450887144847997, 0.10234133945256339, -0.003881892922690593, -0.01119978557337817, -0.011637781850791095, -0.0066803146685737655], [-0.008845108657302295, -0.004488695263071752, 0.0022422138780202813, 0.005445678277358486, -0.008839809573478491, 0.02146783578658961, -0.0017323510453841596, -0.001110490912567655, -0.00014979163745018522, -0.001527154074439471], [-0.0004076579151096478, 0.0003477966118244083, 0.000309909386428698, 0.0007576669677169184, 0.00039269401710003224, 0.0018641661702503648, 0.0005077209993951396, -0.00040787123841127615, 0.0019158950633068063, 0.00047723415632222675], [0.000765119187608777, 0.0011929243117048123, 0.0011366059282105524, 0.0009172747392462028, -0.00015542080272598144, 0.001058373482537229, 0.00019948463616995291, 0.0011102612028142578, 0.0005445108894959544, 6.654429933738374e-05], [0.00033104916884269566, 0.0008982465796473774, 0.0006413004976826361, -0.0009409891142448, 0.00010753941650063016, 1.3169309763343846e-05, 0.001742486007671277, 0.005122981300808945, 0.0006090633466255262, -0.002165701699596806], [-0.002871113960469005, -0.0011242590727864935, -0.0011972204851476726, -0.0062907124643082095, -0.001021963512971432, 0.0008914599795165593, 0.002501931208227883, 0.016726857054214853, -0.0025195914890005183, -0.007619220231355964], [-0.006450861326496467, -0.002715103383528988, -0.0015363470097373147, -0.0028193101660626435, -0.001992976295565294, -0.0017261456735875819, 0.001968369261131865, 0.02397693723282256, -0.0035137254714242886, -0.012623413617526181], [-0.007562009254426474, -0.0015765471320534285, 0.001238307771496703, 0.006510366598563536, 0.002128643456571879, -0.006246908296960522, -0.0010706505415867913, 0.02394357354409166, 0.0009432431649122554, -0.022378159657888516], [-0.00404401393047256, -0.006466451984459593, 0.0045509508180580464, 0.0006781708879065747, 0.00600475969615773, 0.00483248524694758, -0.006776855163304381, 0.01895873660940236, 0.00518866826257411, -0.019161628430886975], [0.002044840586173121, -0.002269799357216646, -0.004233639369772702, 0.000920724478039069, 0.0031202640127755144, 0.0036061093617619396, -0.0013748718139899938, 0.003220117581109292, 0.008860851584052228, -0.00592188123361387], [0.0022951683596701324, 0.0015655262353391002, -0.012278070520858548, -0.0055189109665320585, 0.004644784591473431, 0.0022352626988355407, 0.005071169679105728, 0.011182569866321414, 0.007983500197218957, -0.017029199190922484], [0.0012763383562598147, -0.005442923828851928, -0.012597236049126293, -0.01646922309808393, -0.0005826112052778834, 0.0121627389086181, 0.0030678661383555577, 0.017615108666851616, 0.014235485840307831, -0.0155036348988979], [0.0015981695812450913, -0.0039689647099362384, -0.010138726730984912, -0.016678821956917413, 0.001882993628823815, 0.0032570353224701297, -0.002990560006863626, 0.01820758155984238, 0.017554826298539085, -0.010865559141789393], [0.001468019035542999, -0.007816902997877549, -0.004526110009523523, -0.011810283152958184, -0.001189653415534238, -0.002240993711695444, 0.0012183308888267773, 0.012839869166872775, 0.012003039103987428, -0.002666416022835381], [-0.007956294256406796, -0.01680395414513865, -0.0020828328040775573, -0.010791585186666858, -0.01207713272919715, 0.01797739128696796, -0.0005602175394138573, 0.020760678065287978, 0.00863094270702448, 0.00048223749926380873], [-9.966509245159731e-05, -0.016714980036026242, -0.0035360536079721773, -0.004854749745101882, -0.008822229419111, 0.0007531899034597046, 0.0018241085083504744, 0.029909199199960487, 0.0030882816160650414, -0.0011279158964411545], [0.010615271391749953, 0.005076691965802457, 0.0004539981544817746, -0.007407963264996209, -0.015923346616130887, -0.0037249611212031184, 0.0005746057736702281, 0.029654800614137538, -0.00790411880206693, -0.010345281564854505], [0.011303535386173978, 0.015158483619129767, 0.007776298966484727, -0.00482667414775743, -0.03309084050763658, -0.010047458353155025, -0.004193692768001338, 0.03071344766350623, -0.01049316399063927, -0.005432997535588954], [0.013812048581215196, 0.007221125322633335, 0.007138473294007388, 0.0003103134393597931, -0.016646448827108615, -0.008234193633303667, -0.018031525083274408, 0.028583659912003036, -0.008062414874581243, -0.00524561748657105], [0.006692518247064717, 0.000801690185221642, 0.0015695027791161416, 0.005401032134389927, -0.008967519599415207, -0.008961397311914726, -0.01729955354958883, 0.028723379636411816, -0.0015091686527763928, -0.012779928354138532], [0.006117933195035074, 0.002449862236905186, 0.0016582524908950365, 0.004783824477682883, 0.003151733414547846, -0.0026892000627497786, -0.022684343318297825, 0.015617065048578797, -0.0017397661584806477, -0.006626327223644082], [0.006402573511985682, -0.0008021629484082272, 0.0036778520151520173, 0.00932880804643374, 0.007020387466832685, -0.0009921377121502502, -0.02248182740996629, 0.0074132207239113925, -0.009690236015017728, 0.0025979768352961713], [0.013451907547118978, -0.0061771570592295145, -9.207083081423084e-05, 0.004763305274974528, 0.0013976160572649853, -0.001780692812596438, -0.01739451170921973, 0.007821984833471527, 0.0013906739557103536, -0.003469898527359384], [0.01248923160796895, -0.007693713941718867, -0.008285027286352659, 0.011109740814711264, 0.006735256007699294, -0.006974460475417218, -0.014794136716819242, -0.0011749510219219129, 0.0050673485697735506, 0.0004193774688173647], [0.0030194713318341185, -0.004901148430929932, -0.006868706867148357, 0.0014999890563719758, 0.006331596432846071, 0.006051520475752433, -0.011661677527429522, 0.004794255909548391, 0.009627340220469138, -0.006428722676755785], [0.0006315123333686054, -0.003821527590781062, 0.0029976698650127026, 0.006176172249289318, 0.005424184159313973, -0.005590651797400998, -0.015437266914941527, 0.0094841619999321, 0.01232394271750842, -0.003368704045607062], [0.004478912340539051, -0.01200312753373383, -0.006000709137786902, -0.0005675872770950098, -0.014999406757059814, 0.01692692998661624, -0.012256874634050943, 0.0037539119067230187, 0.026360697363863025, -0.003822456172899475], [-0.03954703954271097, -0.021200561661095525, -0.01252942530218657, 0.006555972557646863, -0.031921290172399565, 0.10874920622524276, -0.012129460345487474, -0.010872669787816418, 0.007491749958349362, -0.01457334290632071], [-0.04284323322272832, -0.019278120238503775, -0.0048219792024896384, 0.010266458016480962, -0.027010239703558394, 0.1049560692698024, -0.0030244790433306746, -0.01072459313331091, -0.010026845364305653, -0.014213756102329028], [-0.00953134538372424, -0.004342423730559781, 0.0013095525840275718, 0.005641986372319303, -0.007318224509736936, 0.021594271064460352, -0.002036272558669708, -0.002139194346035203, 0.0017214728241324868, -0.0042881614710786045], [7.454440959426388e-05, -7.846654770136757e-06, 0.0010299405278118689, 0.0010581218327324312, -0.0006894616459198043, 0.0021964296576275086, -0.0002444683145799084, 0.001469318203697487, 0.0009470137294716988, -0.00016942703795429887], [0.0006959347600282862, 0.00111664862155753, 0.0009390409807960644, 0.0009619188331987889, -0.00016279734923056082, 0.00013713943766994937, 0.0012460338534835726, 0.0018116840402333267, 0.0010977631060281113, -5.738726002371686e-06], [0.0004322933044048956, 0.00020153328786246227, 0.00046510583313247447, -0.0005686652859493123, 0.00023138732032574873, -0.0010070347255864787, 0.0006099618228485821, 0.005828447682346493, 0.0007296110892599989, -0.0031046173161545037], [-0.003033201083928473, -0.0022639986738492773, -0.0005412717613915198, -0.004386823864151026, 0.0002904305188413914, -0.0012409596780330891, 0.0024253613102834287, 0.01837897240068486, -0.0023099803709350436, -0.009737125618417539], [-0.006946797643967419, -0.003764057472258887, 0.0032331973073598417, 0.0008775932276936357, 0.000154318770705767, -0.0028141587168225945, 0.0025562944213415534, 0.029206880085290807, -0.0076164113636682795, -0.018362051091197474], [-0.008808611820755216, -0.003435610900353186, 0.0040952170632060185, -0.0007124023623746381, 0.0016224113688529667, -0.0015866295356634942, 0.0009835352124499027, 0.03390832258985978, 0.00012493436525853375, -0.028240876425423583], [-0.006268231734607762, -0.005397243749026368, 0.00862642599570416, -0.004490484590283236, -0.0026767582658291946, 0.0031654408640884426, -0.004376655299509315, 0.02257134228830829, 0.006171261400775779, -0.01811494357608648], [-0.0029310570900281854, -0.005878704826792225, 0.0018607600198118676, -0.006120600597050694, -0.003829036062530066, -0.001664093071358114, 0.0006728338730992889, 0.007820890168629791, 0.013644355389709973, -0.00533898437251706], [-0.0015672112693947908, 0.0007428505390506769, -0.010639415721272378, -0.009243287681820958, 0.004931762484594576, 0.0038233854701821128, 0.0036406695984391698, 0.010013021348794063, 0.009249365183761698, -0.008798245364066454], [-0.002709437768706422, -0.0023346765877055586, -0.006177302695593555, -0.012976900467174694, -0.0036748767802019014, 0.008687834989128897, 0.0004926131717586205, 0.003924846562135045, 0.010746729904867611, 0.007116964055607976], [0.007604404064630098, -0.0032679434319977134, -0.005087756994997893, -0.0201279031195738, 0.0010692115388326224, 0.01143828564095281, -0.0059869618091533405, 0.003480205114000312, 0.011109868889572279, 0.0022373906767881265], [0.0014362074169804642, -0.006853297680603255, -0.005074484153722511, -0.023824722160598426, -0.0027033537244860843, 0.00574264074861656, -0.0011671154727082682, 0.002368414850865871, 0.02030535601453465, 0.013740723681306338], [0.005174144801055848, -0.013333662129257056, -0.00215106313776599, -0.027340988992701966, -0.007803167455793503, 0.019056170542354877, -0.00648647442597043, -6.667898111348389e-07, 0.016374071621967908, 0.013806326076131454], [0.0052429459514771746, -0.020155909013482246, -0.006283347901091013, -0.017819603912363008, 0.006723923023188005, 0.013971243218457184, 0.0011219453457066134, 0.002874562167775135, 0.014061330780590598, -0.004072207595675781], [0.0065460856698393655, -0.0039577116111626075, -0.007673942878252452, -0.005856970211669335, -0.004632560096370922, 0.008390034727874503, 0.010163657917451899, 0.017931913678546196, -0.008214418911359584, -0.010612239522383967], [0.0044992701697683535, 0.033106073673070543, 0.0015867541846022338, 0.0102234326856024, -0.0154517615573993, -0.00808223170159387, -0.006884904143732288, 0.015457591704760432, -0.025918400344534503, -0.012811210500539634], [0.010511935924369883, 0.023605678461028488, -0.0004469773821553544, 0.01880034701359052, -0.006225591023708837, -0.014910213193621036, -0.01799724203198623, 0.01799017874136646, -0.02338691278828678, -0.004933716152551243], [0.0070507537728144365, -0.012117029635921829, 0.005859293969935941, 0.022054228480668955, -0.005525689083921318, -0.017829863718816726, -0.020295300307394917, 0.029266413344758577, -0.012361459664250356, -0.0008751517143346823], [0.01289269813386585, -0.0012601391652114894, 0.005829537060323695, 0.006522394241742177, 0.0068737228127609944, -0.02878137387177309, -0.019305905495224738, 0.01825291402856493, -0.0029070334178180647, -0.004647655486726505], [0.014074730221375493, -0.008001146508982789, 0.009305401247974264, 0.0040099184312419696, -0.004300755853005168, -0.019653311504854963, -0.016773221935705566, 0.010346632402484643, 0.00690347637631537, 0.002749582769162556], [0.012472039336850642, -0.004620481057582873, 0.0026964403642062386, 0.003860389202174024, 0.001859867652967134, -0.02374256022820471, -0.02471507890096737, 0.014814623805856138, 0.013553012451060178, 0.0035026294325621013], [0.0243593153867627, -0.002532764725077088, -0.0028361375592989404, 0.004733416163767245, -0.00011588840516086463, -0.025711739315965588, -0.016482171223165434, 0.009151018019102083, 0.007723854732369498, -0.0062581929584994336], [0.015334076498142087, -0.0031938939123748776, 0.0012290053998185151, 0.003984220387893539, 0.005253917496863766, -0.021793630973766565, -0.02022078815352694, 0.00980856342061566, 0.01751531798281857, -0.010679926054833573], [0.015528853943075125, -0.0005708002044698237, 0.001310653286437719, 0.0010182547492938257, 0.0051943323869817195, -0.032729614711446156, -0.025102327727785978, 0.015780556148921814, 0.026723721709500933, -0.00033156901024466323], [0.022889630908278547, -0.005037717782043897, 0.0015680106748263024, -0.0001057058721579421, -0.0104555268503973, -0.02338020816767737, -0.02253467355544001, 0.007328614441311905, 0.0335894578368243, 0.0035416942833311578], [-0.020771125564754474, -0.014629241218240713, 0.00026274078254566284, 0.015960403381849987, -0.01675397043325508, 0.043921443324434165, -0.018529008867931282, -0.00019339445569309312, 0.016308985064221158, -0.012596779160988327], [-0.03529606266920713, -0.012869616108709354, -0.004849218703886035, 0.011791876385518379, -0.016616403455948687, 0.07708826968172114, -0.007624973630027991, -0.006257812209514877, 0.0009323828233829711, -0.018393195806975446], [-0.008259287539080127, -0.003977809601520849, 0.00016880266270914853, 0.004489231510671014, -0.006283923366700525, 0.018949329227711163, -0.0026653837499869123, -0.00031233550910427985, 0.001785872773014636, -0.005550130071378375], [0.0006452217806239604, 0.000505667895427174, 0.00023160627387244838, 0.001225649868796947, -6.77077776010976e-05, 0.0007295813168382716, -0.00020541197082954974, 0.0006299955474809811, 0.001431671319395257, -0.000378075778128591], [0.0008528557824531236, 0.0005871299524199934, 0.0007911015749709475, 0.00018064459616061804, 0.0006018614131108661, 0.0005854715844175768, 0.0010741860701250557, 0.0016115364809455726, 0.0005635406502113411, 0.0008392802352550886], [-0.00016545936661319064, -0.0003366309072460531, 0.0003183491603788048, 0.00018863578872048946, -0.0010465367707335955, -0.0018705403411301037, 0.001180133663108239, 0.006171105848141139, 0.0008498791676360563, -0.002519494120480219], [-0.002575240429822635, -0.0024227058815682696, 0.0026320979621864866, -0.004042869181061537, -0.0019898594946674976, -0.00329762906858531, 0.002069925307448353, 0.02186725248834277, -0.0010125896409961155, -0.011638833026188046], [-0.007979610803184713, -0.0041093063677623744, 0.008335598833458248, -0.00015705709496536128, -0.0021833340143721665, -0.005431519998746832, 0.0022844468499429796, 0.03356971495439621, -0.005800859349447098, -0.023857824305222514], [-0.013154078154467064, -0.005249988952056478, 0.01246526773510976, -0.0040849533231472205, -0.0047105325435615455, 0.0009142703127102547, 0.0010776535778997491, 0.03569571795276275, -0.0008032949141601137, -0.0239102257893151], [-0.014668747096933138, -0.0032458727044043325, 0.007439102803477601, -0.011392563059681953, -0.009034687014738106, 0.007977422973927699, -0.0007208964854138457, 0.012573953301663462, 0.00832676396665838, 0.002392974484443314], [-0.002561887938605433, -0.0014338365358162184, -0.010320010600766158, -0.010719965140592086, -0.010276485386632672, 0.010086944479270414, 0.003446368101079976, 0.007668841786341373, 0.014522473172755443, 0.004745424387784807], [0.0037615802518230026, -0.0015915346582570727, -0.0069510944774733, -0.021659910932991695, -0.010701641282143558, 0.013710937192418832, 0.0016083367690425722, 0.0009057033286514758, 0.01489914359073949, 0.016535391935053708], [0.0032367069309506913, -0.0006408985674169278, -0.005742233611569264, -0.020135017922892916, -0.0074106487038798265, 0.0040739416465033, -0.002173938143127637, -0.004681165621663106, 0.013999320213309139, 0.01753514234713661], [0.0012025588496657632, -0.005576814188918393, -0.01084715936520329, -0.020042887777080288, -0.007434594983583114, 0.011435789247421653, 0.0057791606702199865, -0.0026342128620307982, 0.01713701658575698, 0.009628516534392584], [0.008808646813298888, -0.0015983374947544841, -0.011323685556590747, -0.025539210693807404, 0.004442053855776299, 0.0048451536264925675, -0.0031795928779604346, -0.0014168779640443292, 0.017179054071148073, 0.011420690298326873], [0.0051210257213138224, -0.010386336139952438, -0.014696765935746857, -0.027751598274141066, 0.014163620042493122, 0.015544343461769508, -0.007692749999155453, -0.002364137688928301, 0.027562970614598878, 0.0011801576266017575], [-0.004815576624549452, -0.027816211335245155, -0.0201835984671389, -0.019167633071240222, 0.0117186284750063, 0.013151640796467665, 0.003261567313001796, 0.00012793067310433204, 0.03967192794931596, 0.0029202566323436037], [-0.0026900105336757985, -0.02289449945375959, -0.026487914974274322, -0.0024135621687181056, -0.00545410623006386, 0.01698178256976542, 0.013219920636909693, 0.004954248325581016, 0.025333996948178446, 0.002904025125171742], [-0.019862543585032935, 0.05587961460192496, -0.02720976507989827, 0.02893453368881609, -0.010819129309346892, -0.009206009081765412, -0.005311799702286992, -0.007397127689323219, -0.009938301031660527, -0.007197211322588959], [-0.012000463511923862, 0.03243513304674876, -0.0031103350909621203, 0.03809243353084268, 0.003207822629894411, -0.021335507563971134, -0.023823277755378854, 0.00105063582398039, -0.022924103187935835, 0.008567398642010692], [-0.008157624624096216, -0.024060255019353226, 0.009753330079852756, 0.020876487307879835, 0.024208450587660312, -0.012104836233878024, -0.007133500573716756, 0.011746970805405868, -0.014138910591128302, 0.005480368376112297], [0.0011212253281326454, -0.008385670244195608, -0.0005969660295730202, 0.009445848009158549, 0.010604212252141063, -0.029265050909311818, -0.01195321224105482, 0.011543467389621672, 0.003135724718404632, 0.010608010604873461], [0.003947590877891268, 0.0022801055580752754, -0.0010864904721108004, -0.00018461507300494972, 0.0029288619716363665, -0.02958568515640383, -0.012753868291150916, 0.015596367014470347, 0.017999682634519076, 0.004108616456374856], [0.013836358360805568, -0.0016195431143094174, 0.00524828333545091, 0.0009735213137557688, 0.005313457564840311, -0.03520175940714005, -0.015589776558320622, 0.006589184054548062, 0.013044362564223975, 0.006884817771422676], [0.019113175887657676, 0.0007596252399919765, -0.001153684138056874, 0.0011870254116037168, -0.002714537322346081, -0.03804746803834256, -0.011952459471334944, 0.0054981516409673675, 0.009416875374904174, 0.017922554902101262], [0.019189724200504882, 0.0054895651940575895, 0.003926049924184257, -0.012941847823640664, -0.0035499173575668694, -0.032891922506639255, -0.007704586260563484, 0.005361789296359902, 0.013155245168506953, 0.009838097803071183], [0.021699808409523305, 0.005846236840791268, 0.0025729449872494378, -0.007822902647062018, -0.007032112908573241, -0.05116546576078809, -0.014986294965414775, 0.008098612959693486, 0.0233521178096147, 0.01693908919566795], [0.038464246240268334, 0.004804630456491382, -0.0020286195960147833, -0.003157354892367038, -0.008399279021320597, -0.056840211894847344, -0.012732909051621633, -0.0028838025359462314, 0.026009353065855032, 0.010146206852194459], [0.004097294623437499, -0.0035466546672746845, 0.00659438938259813, 0.010072087708854828, -0.0107011923381174, -0.02442887209524781, -0.01235305717884475, 0.0004423823792628307, 0.023550208573031545, -0.000291494903103556], [-0.018901294217518145, -0.008003501112334992, 0.0012179614589372903, 0.008804227774057642, -0.009725893625984472, 0.031901192392874776, -0.0054613547849664355, -0.0036116485147102257, 0.011419038102640763, -0.011490426245707674], [-0.005130658537480634, -0.0011308767840831437, 6.325482793887574e-05, 0.003725965668225711, -0.0012957869463975343, 0.009842034343412362, -0.002863061595090165, -0.0011215618689226577, 0.005241468128015393, -0.0032229074695515093], [0.0003321976035808705, 0.0010288595342805517, 0.000581151573099586, 0.0009100995633731107, 0.0002800626423340548, 0.0014097955029371764, 0.0005521010649580562, 0.0009828838144360847, 0.0010431420702462352, 0.00012611503566384828], [0.00020433093890401087, 0.0006808486388917839, 2.3040002697465613e-05, 0.0008539283597758663, 0.0006775269278647005, 0.00012299939987603522, 0.001239242961761123, 0.0011593801190699854, 0.00015485186401280028, 0.0009723533763950547], [-0.00017951704154354773, 0.0001303464983940103, 0.0008896184426723601, 9.378113691886839e-05, -6.433903000506547e-06, -0.0012512591537027777, 0.00031429304013983264, 0.004915622811547436, 0.0006674925710212338, -0.0024978321059850564], [-0.0012762011551239213, -0.001604636775914309, 0.004502673609930971, -0.0026026133705378805, -0.0022662265385683432, -0.004749660091476301, 0.0015348214143664437, 0.017937379784968992, -5.6185273286261085e-05, -0.009692275362501168], [-0.007676292221583519, -0.003990593173563849, 0.008701975431528163, -0.005301628428986362, -0.006116603230543395, -0.003363488810139059, 0.001968391614386923, 0.03335638694262284, -0.00023660094797386987, -0.018526007694063092], [-0.017802344219208472, -0.008489535668499526, 0.014109992043088436, -0.007299069395672187, -0.01603987567062679, 0.004231539060192035, -0.001970693968818652, 0.030580019620538138, 0.002530333578660015, -0.006611038586217368], [-0.012697029809086073, -0.0065371333578946875, -0.00521950754421459, -0.00837381719895316, -0.017543469084631107, 0.014945463282594069, -0.0017321587242107113, 0.003570140826632111, 0.007820987340913466, 0.018570534072277635], [0.001187143186451913, 0.0015220709343062978, -0.020342385866210812, -0.01273790285681364, -0.010840372737609698, 0.022169748799354447, 0.005928045752276723, -0.006986625006035945, 0.002313105089368072, 0.023703708764061634], [0.000895868002987939, 0.003217015539377231, -0.010420779303629786, -0.01861865833899449, -0.006284463096704671, 0.013807463861287833, 0.0035553780733247977, -0.002277461464370797, -0.0015364290282696106, 0.018400585469497688], [0.002849705620926295, 0.00295258180286482, -0.0065089130469514625, -0.013915713398735364, -0.0020516555248044663, 0.01240499928029417, 0.0003823729873863573, -0.0033397273297755235, -0.00442272927386274, 0.00963846594897932], [0.0032762058669058057, -0.0059692138680072695, -0.014805279106734055, -0.007457670184325967, 0.005280423626576165, 0.0022597663744019954, 0.0032516063261941374, -0.01046054440740546, 0.008457385860521353, 0.012256600594340599], [0.007742056190586607, -0.003651511458924286, -0.016033671237672176, -0.0018559578686271627, 0.0126376585131417, 0.01190453076792325, -0.01134111504414785, -0.011327428837207313, 0.005104469006316189, 0.007820954009535126], [-0.005832582548191733, -0.004622982242798394, -0.028492085162431752, -0.005179944894826685, 0.009290229813581869, 0.020923533488589257, 0.006277288847097421, -0.006652670785903093, 0.013056156409221547, -0.006293718658295525], [-0.001228385488945392, -0.04578740574063667, -0.02793639282056851, 0.00882102101901195, -0.005859490530374879, 0.018078211627602092, 0.01847546403950736, -0.008516445682424673, 0.04078687902055066, -0.00403404320621984], [-0.00969202003604163, -0.02490541656555465, -0.030988449063099173, 0.015077426583645904, 0.015077756396506605, 0.02256877877555836, 0.005788373610614738, -0.011621977822872413, 0.03136459585018011, 0.0029037801692448507], [-0.03404553667526473, 0.10078723132599086, -0.03693460503818243, 0.029196406478888635, -0.023544130254832075, -0.00796725841138671, -0.01049781444884072, -0.03431101382700358, -0.002238833419617563, -0.0077484627939816576], [-0.01904132265786715, 0.013616460588944041, -0.005037831123694324, 0.015392988092593294, 0.0010819265860803782, -0.0037389448690340692, -0.004298952685668555, -0.008128741450164243, 0.001245310776457346, 0.016377290420866067], [-0.016614278153390408, -0.03118832696592929, -0.003031983906406882, 0.018809507403768407, 0.016450068460691965, -0.007785091370920211, 0.0029538437644459586, 0.007776772212954305, 0.0027546003330317865, 0.01367992384375992], [-0.01699902207453423, -0.013048106136550722, -0.0048714942501736315, 0.004927313433495175, 0.01417640412864249, -0.0152624898313434, -0.0059817852319135325, 0.007427150791538851, 0.008644369439243573, 0.006767732951016829], [-0.01674592574675624, 0.00614749603837493, 0.0009721642413378747, -0.004972432062879744, 0.008419903505453066, -0.006339181977622712, -0.005967950547472217, 0.009072781886751197, 0.008871850411906818, 0.006344570289224215], [-0.006649204313121084, -0.00011773034547336203, 0.007790791658335203, -0.004578086710972441, -0.005106086617339318, -0.01580055355528716, -0.0003580096792090591, -0.00017176345802585524, 0.01319208755918976, 0.012607648694149383], [0.002541047829373927, 0.0029603572338263518, 0.0031744348752026723, -0.0030357224993205925, -0.009733038310112557, -0.008978935180896215, -0.00128447907620143, -6.846114279719384e-05, 0.005381481009029984, 0.01342976236415509], [0.00864355290496877, 0.003957959351099192, -0.0018812317765574378, -0.014066269578753909, -0.01209031922082582, -0.015032730865096473, 0.010769824949678366, -0.004406396530121187, 0.011125814370217263, 0.01739811211755333], [0.027408394688776944, 0.006819455959662482, -0.013293008567464428, -0.010603391267018996, -0.00899007387159086, -0.03751563147358399, 0.010097256915358926, -0.008416237845603126, 0.0015862745749556653, 0.027548123305142905], [0.04694172622540028, 0.00832131659082363, -0.021375262816814535, -0.005329999524572058, -0.0014975019904792245, -0.05924742105570769, 0.010142488855717459, -0.013565810072874324, 0.003665847019027463, 0.016106941612799634], [0.015166944945501437, 0.0009153519819058377, 0.0018489305169944149, 0.009806255559326517, -0.0014643536817373454, -0.041644292096744674, 0.007699005233687533, -0.0031981560889251083, 0.003241154381665703, 0.002582622589178986], [-0.00826429032808434, -0.0037943406863653406, 0.007715189792321317, 0.0065678121266847505, -0.0050210498830178096, 0.005228360552302823, -0.0024133130043241403, 0.0013565666239890592, 0.00607626320111164, -0.006073169397510618], [-0.002636084738233145, -0.0011131349855608, 0.005329606165176709, 0.001891009723269485, -0.001317283979863657, 0.0031893014973623387, -0.004055664393719419, 0.0012086765610705079, 0.004155005375713682, -0.0017762103996889229], [0.0007165338150573915, 0.0011166466709003975, 0.0008559233786695855, 0.0006098278389256936, 0.0008140485218453192, 0.0007715105266709286, -7.324207229861726e-05, 0.0011978388660828377, 0.0009743403961775749, 0.00010774458339713677], [0.001080358210743064, 0.000271339444607821, 0.0012491669615456804, 0.0006382541611600527, 0.0010217386381252704, 0.0008226572942447411, 5.21321967320997e-06, 0.00021825125600970148, 0.00040591015681047486, 0.0008774389524413873], [0.0006503359412703463, -0.0004317622296743368, 0.00031652164411590574, 0.000239650174973213, -0.00036731334952271093, -0.00042273052252881683, 0.0009569246872190838, 0.002929829188437226, 0.0007813865547516511, -0.00016432612282206376], [-0.0008363940967845205, -0.0003815957795437846, 0.0027723819017081808, -0.0011410739699524012, -0.0024950198967333722, -0.0020360054950871714, 0.0011701192833522896, 0.011632943050244546, 0.0002948127972880525, -0.005429218488459345], [-0.007417970083005823, -0.0038667404950396347, 0.005839298943514635, -0.004806941157169518, -0.008272048601907472, -0.001852048491431977, 0.0027117079863335854, 0.021899896648836195, 0.0004917094979208719, -0.0084000074956315], [-0.01892110695150818, -0.007523727474245669, 0.0075847876131560745, -0.008200454294494567, -0.010755486013812645, 0.007379350317692463, -0.0024578241008629616, 0.0148539988751844, -0.0019053690479590572, 0.012960459757069942], [-0.0028164851686948746, -0.004536755883559409, -0.017433834378530667, -0.004132998452833487, -0.0050008337155020505, 0.018168145316127968, -8.486622626856526e-05, -0.014745496536294653, -0.009617980937868385, 0.029600642510637973], [0.004201874400014988, -0.0005964129484363266, -0.024112497538127373, -0.0022830567354641253, 0.0057828853201192165, 0.01501229868140693, 0.008285349115973213, -0.015546543308104184, -0.014570769578544068, 0.02071620114971836], [0.004837615082030216, -0.00019761384555268686, -0.016443294413100898, -0.0039030539352847694, 0.008996193527974351, 0.010361227769818392, 0.001741058904819082, -0.011922860634540665, -0.013052126203565434, 0.013193578777026205], [-0.003481960532683707, 0.0009156683413360056, -0.017961967846892603, 0.00023338140350664805, 0.009174151156474141, 0.00867650771799026, 0.004801716158621273, -0.009056551556950275, -0.006767678946115797, 0.014269417548443696], [0.0052105889618239715, -0.005684193708034635, -0.017075197674446548, -0.004839207151672199, 0.015169539606053972, 0.010716095072965155, 2.1023725700341843e-06, -0.013439153062161766, -0.0010414203218979381, 0.008060074334528534], [0.007315323390350526, -0.0005885486857548036, -0.018542499554633603, -0.00042572277152193327, 0.02313861817565971, 0.013807337715982831, 0.004237622244128073, -0.010353135612870802, -0.022636261601409143, 0.004866563498203423], [-0.0014128170879259677, -0.008523736353099472, -0.018070980851244995, 0.0077413353650639645, 0.0025203618225480675, 0.016132190299650732, 0.017245644477332907, -0.013868826669013706, -0.004425484798736436, -0.003448797149789748], [-0.012901623871264095, -0.07269314881721442, -0.008773760238866224, 0.037954260869579134, -0.010848106957335377, 0.019739017088386858, 0.015211484964800275, -0.006787045252796701, 0.04423235017355433, 0.001529095106453769], [-0.01827858093629477, 0.012402400080692207, -0.009962907116926427, 0.010679038889769135, 0.011994174090994555, 0.006242759741781554, -0.00648031233997699, -0.009325029666503972, 0.01922121606182555, -0.005572022556492746], [-0.02757768311220778, 0.08934161080884012, -0.003999538821994328, -0.002130649639924057, -0.03017251252047946, -0.011820911864016258, -0.006169446466144706, -0.03682511643129561, -0.006547760726448579, 0.004770531614023721], [-0.012442538765757034, -0.0036425905091426168, -0.008416852493260617, -0.010274498046224111, -0.0011174012817300085, -0.0035798183010618463, 0.011521648888798053, -0.0013282265921941204, 0.0178937899978952, 0.020611800556265235], [-0.012617477634564365, -0.03122065969290456, -0.0044861372498767324, 0.024507984895013726, 0.009791074506848964, -0.004963829129333334, 0.0014135656580116993, 0.004470737921791808, 0.005801606386587348, 0.013375006799144952], [-0.02479851797377091, -0.019096732944492892, 0.0031484743003844804, 0.012811020631501595, 0.01910522146394706, -0.014757622240685558, -0.0006431558085517535, 0.007651755538925005, -0.004363702438788373, 0.010561720129910804], [-0.02398019813117976, 0.006535338809922854, 0.0008904260514428528, 0.003871006927324562, 0.0017891896866448498, 0.003243502356561588, 0.005745563760840336, -0.0039593506327208795, -0.0034366925611679215, 0.016175143551808914], [-0.01782143057309918, 0.0029246953682065414, -0.0008963233737256392, -0.004606135582478915, -0.007449801897813461, 0.005548037760004986, 0.008159454600993706, 0.0026949262692203438, -0.0042467671391514285, 0.018570208631294865], [-0.012736504773731281, 0.004351925400672993, -0.001167856662026417, 0.0011324498244512696, -0.0017253988356061892, -0.0016735205702516267, 0.0030962498728896353, 0.00010961908062312478, 0.0005201152936277727, 0.00835744226530027], [0.012209973821182876, 0.002103304249235047, -0.01744165735593156, -0.004618115845006462, -0.003641820014039689, -0.010674163331906636, 0.018010783665726903, -0.004349128209953119, -0.00666433873939455, 0.007419421832029359], [0.032302219254767714, 0.006583107133803982, -0.027687542205025967, -0.011576133334105315, 0.0020606266235696515, -0.015384665836382348, 0.021468828416433224, -0.00577180776895622, -0.01018684647281066, 0.008102750897288864], [0.0361886483619951, 0.005147821417428471, -0.02674053946837324, -1.7852416602057967e-05, 0.002887851233297839, -0.02888939756314933, 0.03152612496646719, -0.010745333769547727, -0.014215578649942643, -0.0021728810678787146], [0.0039464627831952565, -0.005868980488261769, -0.006112062708634307, 0.013873735636323692, -0.007057873751863843, -0.01409908650566067, 0.023369874263174974, -0.00039754706054756647, -0.013833683054199204, -0.008483058489469158], [-0.006529757879410389, -0.008025935750621199, 0.014381947649141929, 0.004625267527064493, -0.0065001234367502644, 0.0019151865103468541, 0.0009064195693875904, 0.003021141296605383, 0.0010005405659495386, -0.004646664774391381], [-1.3528989040660945e-06, -0.0014740193393928526, 0.009929149990768063, 0.0013320950168138341, -0.0018842972098812, -0.0008786656356931778, -0.0036099238280502544, -1.0350849397535695e-05, 0.0006715207289445037, -0.0010538964064574713], [0.00019176113347962992, 0.0006892771459709749, 0.0023259928125733257, 0.0011896965406569663, 8.238210349577e-05, -0.0002948552958761542, -0.0002450573902007786, 9.524381020258414e-06, -2.2177850460143506e-05, 0.00028125411591005693], [0.0002466431998466743, 0.00014955191606874735, 0.00103939832885315, 0.00022897642043169484, 0.001172213664738083, 0.0004975726457068111, 0.0009871106232437026, 0.0004454683022316083, 0.0008900168677766952, 0.0006822814799585294], [0.00106560282189795, 0.0002065070407773639, -2.440642789238829e-05, 0.000839034340335305, 0.00033760312920275533, -0.0002800657483224606, 0.00040805859951024813, 0.0017238712746031606, 0.0007857656539931911, -3.463101517672334e-05], [-6.582913786682582e-05, 0.00010691053288251119, 0.0015333982028155634, -5.957109585585974e-05, -0.0005242704066756864, -0.0011913333182166556, 0.0006610890762061, 0.005354023257022675, 0.0007321293654672762, -0.0017708919599620388], [-0.0071586913970112485, -0.0010811114096882157, 0.0021053761967735557, -0.002793378236085533, -0.003896953767574989, -0.0005013447001120448, 0.0032669930990083924, 0.011073520036172109, -0.0005864212014841867, -0.0021921246214561922], [-0.017650028907803365, -0.004820837095854187, 0.0020637825928970536, -0.0017595814515631743, 0.011150532566965401, 0.003816923348729981, -0.004108962169244189, 0.00033427436995385354, -0.00539625532689948, 0.012123565393687025], [0.007967037974985077, -0.003107053965809851, -0.018913130036759904, 0.004187417270099991, 0.024350620968511975, -0.0008158821625724688, -0.0034345251731377215, -0.0192353215887967, -0.014191237357140552, 0.011645331601987996], [0.009788338342812055, -0.000753025463461542, -0.015507335851761676, 0.0032427204750018327, 0.03467315952350028, -0.006134910641848138, 0.002792709964643679, -0.017071518990832635, -0.020658357823900766, 0.005889330336119609], [0.01140297916694742, -0.0018150586677209578, -0.011382535623764671, 0.0004379693610399361, 0.027007520200627775, -0.00748085377524021, 0.003985152107052635, -0.01254520819607611, -0.015218009134542217, 0.0021716305476291655], [0.006804591827681584, 0.0009254720808053343, -0.010683855379946488, 0.0026770494757110035, 0.021114435391356084, -0.004898883771427159, 0.000693257678080419, -0.010949007533490393, -0.012117781556953441, 0.006834693223070006], [0.012231382355374685, -0.004282950176128946, -0.009945649121684868, 0.004120498103169698, 0.013541404950269693, 0.0026529464276448924, 0.0032808192029103542, -0.016355917445223217, -0.015735490677867503, 0.010604758176264937], [0.02041422639573085, 0.0055971021922690475, -0.003235451033098878, -0.005498817811453808, 0.010220200421028409, 0.007231894041434981, 0.0027286972108230283, -0.019571707393388635, -0.02473121566172988, 0.005081422777546464], [-0.002187596060328966, -0.027018390170222395, 0.01028751493420261, -0.0026406587187335945, -0.004587957663242752, 9.9042173654227e-05, 0.025058274134290827, -0.02294374184297277, 0.011668591101982515, 0.0007961365116728744], [-0.01715552585200108, -0.05996729780347704, 0.006758204245840631, 0.019648502033567706, 0.011113565126045801, 0.018064305020967106, 0.0031476870895654732, -0.0033455089620005258, 0.026642385673568497, 0.01194746746833967], [-0.006570769697790469, 0.0543059847396564, -0.003462560745738591, -0.018069938253902653, 0.00010945173344904078, -0.004913849033620292, -0.01847332872771327, -0.02372057567108163, 0.014221765738179338, 0.004309100444689226], [-0.023564197639512566, 0.04578989639555512, -0.004739907253649218, -0.0020786360914347543, -0.025019941529282372, -0.012473720399386982, 0.0050553831339754385, -0.03189876570348318, 0.015885303794986174, 0.014480905970320174], [-0.002995920759334893, 0.011968852364955599, -0.012369570945958908, -0.004184109006035997, -0.000480757378819544, 0.007335624494240394, 0.002395905581763166, 0.0023193014581668818, 0.0004971398279445684, 0.0014261138008096967], [-0.016850619565978473, -0.04496004964880074, 0.0010843534689583358, 0.023601697821386165, 0.009959109360974534, 0.0006225592142005533, 0.011361011602590097, 0.00977009298801909, 0.005392730399395333, 0.005074816804594905], [-0.02273243508928201, -0.010825183842105153, -0.0018812256800104887, 0.01960593534855689, 0.016486047309866393, -0.02532340002045362, 6.923061629101808e-05, 0.001951488192477379, -0.0027008047988452684, 0.012559864177176163], [-0.016877052435414045, 0.0071217826858332, 0.00336643202141223, 0.013583544750810233, 0.005070850319571509, -0.002671304904999921, -5.2398622448685336e-05, 0.0025425399629271017, -0.01401566931794868, 0.005780352620274521], [-0.016923791563555262, -0.0003950643617745333, -0.002186149260040076, 0.007643905385068629, 0.018872028723345712, -0.01044174014911373, 0.0032009647947977443, 0.009875429422721063, -0.010372263999785272, -0.0058787166713748975], [0.006331590071345643, -0.0002270407882466372, -0.004031871708719687, 0.0020666527020954764, 0.01776059060660403, -0.009914492514994383, -0.0006407035820964378, 0.0010830220716924253, -0.008814859775028503, -0.007588999177590155], [0.023189988729656583, 0.0008805039602520226, -0.017345057358942397, 0.004369759388194058, 0.00950344665881566, -0.012245390352352536, 0.007615161445061406, 0.0008402688811805749, -0.008766364971810733, -0.008862198004718698], [0.015021955090874162, 0.00014309423981535076, -0.02115001870538324, -0.0030283857748399307, 0.01212016431939726, -0.008273553217287058, 0.020892214001831066, 0.009262283066926034, -0.014161142366417278, -0.009340868676087886], [0.0190848105721013, 0.0007487222707943508, -0.026460902824883094, 0.004390080705563506, 0.010238630305146412, -0.0077088546350053515, 0.02698377431390151, 0.0009100781898722578, -0.016295239101783085, -0.013767164129227571], [8.253312314701417e-05, -0.004180339631518974, -0.016824397502201154, 0.016009820536372895, -0.010069327738602765, 0.005819411325794094, 0.02273399705042692, 0.002055183580248376, -0.010828874226479728, -0.011784835026030147], [-0.007969564100830275, -0.00590031147115141, 0.015385290524018335, 0.0025010404328684745, -0.010225213637314557, 0.001535710272365976, 0.004466631923127731, 0.004841547139027218, -0.0006459443923683995, -0.0028260078104623905], [-0.001042747934021989, -0.001222888006344494, 0.013956976710117155, -0.0011584277835396963, -0.0009194480709997153, -0.0012350295734183485, -0.00513806726885066, -0.00047628107693326266, -1.5345401425154246e-05, -0.00035037856668363495], [0.0008195116791546629, 0.0010080522894423834, 0.0016207695895641085, 0.0006131151266961512, 0.0011237994792151372, 0.0005819000975182305, 0.0011043972068767612, 0.001213831488351199, 8.008630023878878e-05, 0.0006892493159728387], [0.0009521384001343388, 0.00034589738230044695, 0.00017246595958602122, 0.00027579911469856084, 0.000676862021602192, 0.0006042418146200784, 0.0007351308850695025, 8.103174651663405e-05, 3.487415973120983e-05, 0.0010406484207404778], [0.0008779454934352522, 0.00044406980714779885, 0.0004977067498722095, 0.001289764688441148, -3.3327766783571155e-05, -0.00016044821745109515, 0.0007149826221968539, 0.0005261643063206561, 2.995524644087102e-05, 0.0008522102378195237], [0.000634122365213833, -0.0004257145159639864, -0.000654992524508931, 0.0026009805483358985, -0.0001556172461267219, -0.0005636694092614739, 0.0014163354825474516, 0.0023306388112368914, 0.0008376606429005443, -0.001377326476894907], [-0.010446559273230602, -0.002266246310531772, 0.0025157433231782845, 0.0024084842009822896, -0.0008270299977332521, -0.0017246473650864651, 0.00022259491448311543, 0.007242856138479121, 0.0006510660287048724, -0.0024383957638644776], [-0.007872322942432012, -0.003135640287293165, 0.0013663625418606333, 0.003362677819368332, 0.016927030421726136, -0.0006737842672088476, -0.009185816285793574, -0.007018755441899509, 0.0007736546646722737, 0.0028086096678765636], [0.01700672869422837, -0.0034258388403828792, -0.0033553775041263857, 0.012426143207836216, 0.036169043397795746, -0.02195047415341362, -0.010499120750607835, -0.017914225732112026, -0.009010437186436194, -0.00563702644368076], [0.003511503059095253, 0.0007126247453620937, -0.004457944196340693, 0.0064460126291210965, 0.0371004689887103, -0.020017716303389554, 0.0005396366912386479, -0.0015334922971920002, -0.009644624177865315, -0.00685162740901048], [0.012085964506977178, -0.001189295317883314, -0.0047042956881977556, -0.0025345835266033707, 0.02685964544314874, -0.014957229874331495, 0.0006416738659858012, -0.008083489966822685, -0.003034620713791214, -0.004097579573872991], [0.01594567350012398, -0.0017169580438785607, -0.0019429671770022409, -0.007562841286166401, 0.027770283495785895, -0.004374824176093362, -0.005741352650391137, -0.01748799845454631, -0.010229226870734484, 0.0011311354756649793], [0.0182877256588607, -0.0020774582178840055, -0.0022532741047796186, -0.007165173670811481, 0.00857116215053433, -0.005046000008139588, 0.005123641390407717, -0.014567961770530274, -0.009545482301367723, 0.006869281851087697], [0.016399924498457785, -0.0017712036904705421, 0.0020623753586600665, -0.009978285596864814, 0.0011417300147547064, -0.0030187628308644826, 0.011174674131493357, -0.013119484132122772, -0.014465080792856917, 0.00983405323620233], [-0.007687726097329986, -0.025564817806895693, 0.009690030431809164, -0.004644965155541259, 0.014746960198291947, -0.005271436439060255, 0.017138184326725227, -0.012753163576180653, 0.008532870892195617, 0.0016354218706805942], [-0.014856260433111194, -0.02802912467181571, 0.004830551420115068, 0.00833504834666077, 0.025508500994936775, 0.008657045803052094, -0.009178535737110178, -0.003797895677186856, 0.01584792194087307, 0.008793183329121046], [-0.013747893710627731, 0.04276028047352951, 0.010588952805611505, -0.011149111689851552, -0.0016423419660175236, -0.013568110326557603, -0.011792991989712731, -0.03401952011739066, 0.028325838450464536, -0.0030334172917368743], [-0.02259652407545733, 0.03461439726496038, -0.007930770991042876, 0.0007800719424452601, -0.0014983292699337224, -0.024084579863778897, 0.014452372820682808, -0.015830324035693105, 